\data\
ngram 1=89
ngram 2=2889

\1-grams:
-3.014295	<unk>	0
0	<s>	-2.681944
-1.8833079	</s>	0
-1.9449339	I	-2.116424
-1.8193185	n	-3.571296
-1.5587695	_	-3.8102822
-1.706434	a	-3.60772
-1.9449339	O	-1.6161051
-1.8833079	c	-3.2590642
-1.7635579	t	-3.6920643
-1.6107422	.	-2.8797307
-2.0663755	1	-2.5904615
-2.142779	9	-2.234533
-1.7723682	r	-3.5630584
-1.7141488	e	-3.7421355
-1.9318893	v	-3.0840218
-1.706434	i	-3.626957
-1.8609141	w	-2.996779
-1.7300019	o	-3.6101208
-1.8609141	f	-3.2214968
-1.8095136	"	-2.114167
-1.8396184	T	-2.332009
-1.8193185	h	-3.3940368
-1.8396184	M	-2.267003
-1.6768764	s	-3.560496
-1.919225	p	-3.155621
-1.8396184	C	-2.2473907
-1.9449339	g	-3.1126146
-1.649203	'	-2.2833047
-1.919225	G	-1.8773935
-1.8949534	d	-3.3214889
-1.8609141	m	-3.196833
-3.014295	(	-1.1206125
-1.919225	R	-1.8944045
-1.8095136	l	-3.393333
-2.0167737	z	-1.8853525
-1.9069197	k	-2.6735406
-1.8193185	S	-2.2182775
-1.972261	W	-2.032803
-1.781361	y	-3.0105047
-1.649203	,	-3.304632
-1.8833079	L	-1.8846798
-1.7381511	u	-3.257761
-2.3536918	&	-1.8457874
-1.8293499	A	-2.0587194
-1.7300019	)	-1.9950718
-1.8949534	b	-3.0133784
-1.9865975	K	-1.5598989
-1.9583825	H	-1.963419
-1.8719667	E	-1.7804264
-1.6840794	-	-2.2046943
-2.235556	x	-2.3851902
-2.0014236	U	-1.8629364
-2.0492043	2	-2.3337343
-2.2622154	0	-2.4673946
-2.0842535	4	-2.1356122
-1.781361	B	-2.181068
-1.9318893	F	-2.0019155
-1.972261	N	-1.9795611
-1.9069197	D	-1.9096625
-2.1223817	q	-2.729449
-2.1641822	5	-2.3083844
-2.0842535	8	-2.235395
-2.2104385	7	-2.073571
-2.469723	%	-2.6040213
-3.014295	{	-0.56744087
-2.0492043	}	-1.508855
-2.1028993	j	-2.583612
-1.8293499	\	-2.679008
-2.9428322	/	-1.5268916
-2.4275067	$	-2.631837
-2.1028993	3	-2.2027528
-2.0492043	Y	-1.6908222
-1.6988539	:	-2.0067647
-1.9069197	P	-1.9457307
-2.3210115	Q	-1.4130248
-2.2622154	J	-2.0933483
-2.0014236	V	-1.4706491
-1.9583825	?	-1.515606
-1.8609141	;	-2.8276138
-2.3210115	Z	-0.8373747
-2.142779	6	-2.0813742
-2.8277385	#	-1.9287496
-2.235556	X	-0.8114787
-2.1866946	!	-0.82416457
-2.8277385	`	-0.3214231
-2.9428322	*	-0.6748824
-2.9428322	=	-0.3331555
-2.9428322	@	-0.3214231

\2-grams:
-3.8202913	I </s>
-3.738688	n </s>
-4.866733	a </s>
-4.2906375	t </s>
-0.23789278	. </s>
-2.8559823	9 </s>
-4.050344	r </s>
-4.144055	e </s>
-5.1643243	i </s>
-4.6387143	w </s>
-4.3755016	o </s>
-3.829154	f </s>
-0.779788	" </s>
-4.0152216	T </s>
-4.409112	h </s>
-3.4362013	s </s>
-3.9596066	p </s>
-4.262178	g </s>
-3.1458144	' </s>
-4.108872	d </s>
-4.3607574	m </s>
-4.252027	l </s>
-3.4916518	z </s>
-3.6158698	k </s>
-3.527953	y </s>
-4.0363264	, </s>
-0.9099545	) </s>
-2.515712	- </s>
-4.0752873	0 </s>
-3.646128	7 </s>
-3.6062608	% </s>
-1.8011404	} </s>
-0.7878045	: </s>
-3.079112	V </s>
-0.1451653	? </s>
-0.38673064	! </s>
-1.0349895	* </s>
-0.27639908	@ </s>
-1.0416114	<s> I
-2.0890434	I I
-2.2443054	_ I
-3.0470078	O I
-4.3145757	c I
-3.8322022	. I
-1.1532149	" I
-2.231416	T I
-2.3980458	M I
-1.8204494	C I
-3.196233	' I
-2.6245432	G I
-1.435301	( I
-1.5930196	R I
-2.458253	S I
-2.9411764	W I
-1.6358157	L I
-2.2956882	A I
-2.5059457	K I
-2.330703	H I
-2.4404182	E I
-2.9169471	- I
-2.6772194	U I
-2.2495162	B I
-2.101756	F I
-2.1498752	N I
-1.9071943	D I
-2.2573895	{ I
-3.2714903	Y I
-2.4945016	P I
-3.1623902	J I
-1.9000952	V I
-1.7608657	Z I
-0.3113545	I n
-1.98961	n n
-1.8495406	_ n
-0.73008674	a n
-0.7796427	O n
-4.7243834	c n
-2.8128955	t n
-1.6143832	r n
-1.0819159	e n
-4.1404495	v n
-0.57160854	i n
-1.3013242	w n
-0.712706	o n
-4.202636	f n
-2.161026	" n
-2.2386541	h n
-3.9075632	M n
-2.3285432	s n
-4.125213	p n
-1.6004914	g n
-3.4214182	' n
-3.3406367	G n
-2.151658	d n
-2.873559	m n
-1.959709	( n
-3.121025	l n
-3.2934384	z n
-1.6081967	k n
-3.0167415	S n
-2.1774154	y n
-0.95796996	u n
-0.9382469	A n
-3.8777766	b n
-1.7205547	K n
-3.416734	H n
-1.115277	E n
-2.3908825	- n
-0.61691827	U n
-3.3001995	2 n
-1.6122882	{ n
-3.5382688	j n
-3.1060967	/ n
-3.4541245	P n
-3.0439596	V n
-0.94310457	I _
-0.65595406	n _
-1.1445735	a _
-1.4558319	O _
-1.6467524	c _
-0.6933701	t _
-0.7503148	. _
-0.9878624	1 _
-0.8456339	9 _
-0.8115853	r _
-0.5661707	e _
-2.6489408	v _
-2.5204813	i _
-0.93317443	w _
-0.9544191	o _
-0.48785898	f _
-0.48984978	" _
-1.8024173	T _
-0.9939073	h _
-1.6175557	M _
-0.44161808	s _
-1.2362664	p _
-1.3833953	C _
-0.4775886	g _
-1.3205832	' _
-1.5701785	G _
-0.32746398	d _
-1.0091647	m _
-1.4458702	R _
-0.8286485	l _
-1.1290587	z _
-0.59884524	k _
-1.3901492	S _
-1.9413385	W _
-0.23740235	y _
-0.04230727	, _
-1.056742	L _
-2.0692997	u _
-0.10587986	& _
-0.9773711	A _
-0.3005425	) _
-2.1516607	b _
-1.4945996	K _
-2.030281	H _
-1.2616093	E _
-0.91411495	- _
-0.7888422	x _
-2.2799258	U _
-0.7082558	2 _
-0.466025	0 _
-0.6333774	4 _
-1.8666997	B _
-1.8823048	F _
-1.4661553	N _
-1.445861	D _
-1.7819127	q _
-0.5427525	5 _
-0.61232144	8 _
-0.65767187	7 _
-0.09919677	% _
-0.063747704	} _
-3.7120054	j _
-1.5985346	$ _
-0.7632305	3 _
-1.4554957	Y _
-0.105354525	: _
-1.4894011	P _
-1.9165077	Q _
-2.331202	J _
-0.8220147	V _
-1.5699173	? _
-0.00062855176	; _
-1.4703113	Z _
-0.60688794	6 _
-0.00500463	# _
-0.30343533	X _
-0.8587246	! _
-0.56122893	` _
-0.31880566	* _
-0.26084194	= _
-3.5226614	<s> a
-3.0616677	I a
-1.3891771	n a
-0.9867854	_ a
-3.3701842	a a
-1.6911095	O a
-0.968615	c a
-1.3446566	t a
-4.4655476	. a
-1.0661364	r a
-1.3083596	e a
-1.1228011	v a
-1.5095103	i a
-0.8318162	w a
-2.0840607	o a
-1.3418626	f a
-1.673931	" a
-1.6783456	T a
-0.7191334	h a
-0.70697224	M a
-1.3126538	s a
-0.823445	p a
-0.80209035	C a
-1.1812795	g a
-3.477487	' a
-1.0180519	G a
-1.3847164	d a
-0.7287235	m a
-1.1923401	( a
-1.1431899	R a
-1.04813	l a
-0.8145769	z a
-1.8171109	k a
-1.0121565	S a
-0.6408708	W a
-2.243643	y a
-0.7104306	L a
-1.3421943	u a
-3.432141	A a
-0.9861802	b a
-0.8974435	K a
-0.8733554	H a
-0.9520822	E a
-1.5129544	- a
-1.1802278	x a
-0.8001228	B a
-1.214032	F a
-0.8800079	N a
-0.8659094	D a
-1.51811	{ a
-1.5436497	j a
-2.845152	/ a
-1.4096003	Y a
-0.6296814	P a
-0.39446232	J a
-0.72813964	V a
-0.9124846	Z a
-1.5679086	<s> O
-2.215352	I O
-5.3092427	n O
-2.6845264	_ O
-2.7695012	O O
-4.4951096	. O
-2.091048	" O
-2.4097776	T O
-2.4341857	M O
-1.859609	C O
-3.4447615	' O
-1.9510188	G O
-2.3360555	( O
-1.9325227	R O
-2.6033275	S O
-2.8728154	W O
-1.8995615	L O
-3.417681	A O
-2.5862963	K O
-2.0483758	H O
-2.7567735	E O
-2.8055902	- O
-3.5307512	U O
-2.010114	B O
-2.1654959	F O
-2.315422	N O
-2.1136632	D O
-2.2573895	{ O
-2.4080908	Y O
-2.1723156	P O
-3.3648286	J O
-2.5420425	V O
-2.3112628	X O
-3.793326	<s> c
-2.4369597	I c
-1.301484	n c
-1.3263053	_ c
-1.42814	a c
-0.84619516	O c
-1.7802068	c c
-2.5327165	t c
-1.8919011	r c
-1.4510418	e c
-3.2326126	v c
-1.1364372	i c
-3.2955184	w c
-1.7144402	o c
-3.6774685	f c
-1.8862796	" c
-3.7051725	h c
-1.6381334	M c
-1.9298207	s c
-3.8356678	p c
-3.7955217	' c
-3.0511572	d c
-3.6713006	m c
-1.9659811	( c
-2.7807324	l c
-3.3171566	z c
-3.5589838	k c
-1.5431592	S c
-2.4938703	y c
-1.240315	u c
-1.5560395	A c
-3.0223913	b c
-1.826373	E c
-1.2512491	- c
-0.89240324	x c
-3.4971085	U c
-1.7175826	{ c
-2.4228027	/ c
-4.1601353	<s> t
-0.8851669	I t
-0.9397789	n t
-0.8892973	_ t
-0.9067997	a t
-1.3967624	O t
-0.99237454	c t
-1.8470353	t t
-3.5465055	1 t
-2.8072593	9 t
-1.2851509	r t
-1.4979103	e t
-0.9381843	i t
-2.0916317	w t
-1.4990495	o t
-1.5060054	f t
-1.6426773	" t
-1.7475513	h t
-0.85394394	s t
-1.5316626	p t
-2.2154825	g t
-0.6500385	' t
-3.2586997	d t
-3.919347	m t
-1.3821084	( t
-1.7054079	l t
-2.829083	z t
-2.972893	k t
-0.84044236	S t
-2.40977	y t
-1.2848117	L t
-0.8444609	u t
-1.3684975	A t
-1.9012264	b t
-2.3141901	E t
-1.193008	- t
-0.9412372	x t
-1.8661276	U t
-3.8308442	2 t
-2.7582817	0 t
-2.923673	4 t
-2.9110029	5 t
-2.9684904	8 t
-2.753771	7 t
-0.8325464	{ t
-2.5756752	3 t
-3.4259775	P t
-2.8027685	V t
-3.02486	6 t
-1.461455	X t
-2.3349154	I .
-1.8991624	n .
-5.2595196	_ .
-2.6901186	a .
-1.9046652	O .
-1.9223272	c .
-1.9672627	t .
-2.0562754	. .
-0.93090266	1 .
-1.0955491	9 .
-1.572933	r .
-2.0160072	e .
-2.115135	v .
-3.6766007	i .
-2.2715445	w .
-2.232553	o .
-2.397023	f .
-2.8615503	" .
-2.2971952	T .
-2.3786597	h .
-2.1111343	M .
-1.4168928	s .
-1.6373423	p .
-1.7785486	C .
-1.8036427	g .
-3.3689363	' .
-1.8692243	G .
-1.6034365	d .
-2.07285	m .
-1.5835397	R .
-2.2151995	l .
-1.7928568	z .
-1.6362003	k .
-0.88241625	S .
-1.7827144	W .
-1.3802656	y .
-4.4160457	, .
-1.606476	L .
-3.4806266	u .
-1.594706	A .
-0.81179345	) .
-2.813035	b .
-1.3069825	K .
-1.7386873	H .
-1.8050013	E .
-2.1489594	x .
-0.32643592	U .
-0.85158724	2 .
-1.1047722	0 .
-0.8616117	4 .
-1.8572831	B .
-1.88935	F .
-1.4267402	N .
-1.3489327	D .
-3.524542	q .
-1.01239	5 .
-0.8266383	8 .
-0.74108696	7 .
-0.98170894	% .
-1.594815	} .
-3.5031624	j .
-0.8646876	3 .
-1.4635599	Y .
-1.7420394	P .
-2.3462195	Q .
-1.2018363	J .
-1.4987199	V .
-2.4618187	? .
-1.71543	Z .
-0.80982685	6 .
-1.5273651	X .
-3.2570617	<s> 1
-1.9812019	_ 1
-1.9473914	. 1
-1.3534609	1 1
-1.625672	9 1
-5.36158	r 1
-3.3436332	" 1
-3.883691	C 1
-1.9453392	( 1
-4.051346	S 1
-2.9150887	, 1
-1.9957049	- 1
-1.4571233	2 1
-1.8194082	0 1
-1.4443047	4 1
-3.555536	F 1
-1.673243	5 1
-1.7342625	8 1
-1.6575989	7 1
-1.103985	/ 1
-0.48602363	$ 1
-1.329453	3 1
-2.2219613	: 1
-3.7329166	P 1
-1.5513715	6 1
-3.5618825	<s> 9
-3.0518482	_ 9
-1.9979331	. 9
-0.6478407	1 9
-0.8956125	9 9
-3.875391	" 9
-3.8877823	' 9
-3.0005174	( 9
-5.2151723	l 9
-2.9840407	, 9
-3.3214242	- 9
-1.5583284	2 9
-2.1022396	0 9
-1.4770603	4 9
-1.8472532	5 9
-1.1622605	8 9
-1.5270463	7 9
-1.5223082	$ 9
-1.6220143	3 9
-1.6028996	6 9
-2.372386	X 9
-4.207424	<s> r
-1.9066454	I r
-3.1422808	n r
-1.5744205	_ r
-0.89979434	a r
-1.1594672	O r
-1.4575229	c r
-1.3830053	t r
-1.8556955	r r
-0.86154175	e r
-2.9473686	v r
-1.4573356	i r
-1.9341145	w r
-0.8494979	o r
-1.1335584	f r
-2.1601896	" r
-1.1533904	T r
-1.8525525	h r
-0.46726963	M r
-3.1892385	s r
-0.7226465	p r
-1.5631293	C r
-1.1655035	g r
-1.6105487	' r
-0.7227657	G r
-1.8721218	d r
-3.9201412	m r
-2.1172466	( r
-2.6319065	l r
-3.217789	z r
-2.197164	k r
-3.044775	S r
-2.128267	W r
-2.6949086	y r
-0.83915037	u r
-1.3566071	A r
-1.3889514	b r
-1.0873766	K r
-1.846867	E r
-1.4912198	- r
-2.0955522	U r
-0.836578	B r
-0.6162786	F r
-1.181369	D r
-2.0176165	{ r
-3.7147827	3 r
-0.75400925	P r
-1.642478	J r
-2.6362948	V r
-4.0061817	<s> e
-1.1014798	n e
-1.6568458	_ e
-2.8752391	a e
-2.96253	O e
-0.8278229	c e
-0.95637375	t e
-4.371792	. e
-0.67214954	r e
-1.6084437	e e
-0.18478379	v e
-1.3829201	i e
-0.8119513	w e
-2.4846275	o e
-1.110116	f e
-2.1635993	" e
-1.2673509	T e
-0.34333307	h e
-1.0755693	M e
-1.0177135	s e
-0.79905415	p e
-1.7502549	C e
-0.7522552	g e
-3.4798443	' e
-0.62039256	G e
-0.7947988	d e
-0.64023817	m e
-1.885343	( e
-0.4914671	R e
-0.8550467	l e
-0.40842038	z e
-0.41499406	k e
-0.8208869	S e
-0.5086071	W e
-0.98320675	y e
-0.895943	L e
-1.3263156	u e
-2.100222	A e
-0.5843271	b e
-0.77677596	K e
-0.54960775	H e
-1.5022686	- e
-0.85962737	x e
-0.9865965	B e
-0.8591776	F e
-0.5084015	N e
-0.52483773	D e
-1.7917466	{ e
-0.7389981	j e
-2.402016	/ e
-0.9304205	Y e
-0.8042871	P e
-1.183047	J e
-0.8564738	V e
-0.5634905	Z e
-1.1883017	X e
-2.5008328	I v
-1.9364772	n v
-2.2762692	_ v
-1.749654	a v
-1.6952385	O v
-4.408552	t v
-2.1222575	r v
-1.8394504	e v
-3.7029407	v v
-1.583163	i v
-1.625057	o v
-2.443264	" v
-4.4935203	h v
-3.8822973	s v
-1.9032874	' v
-2.2337568	d v
-4.273319	m v
-2.8730004	( v
-2.3173802	l v
-2.9510055	z v
-3.6211674	k v
-3.2305026	S v
-3.5077336	y v
-3.5841725	L v
-3.2153537	u v
-1.7947733	A v
-2.9823391	b v
-1.3211963	E v
-2.4399652	- v
-3.822781	x v
-2.2500894	{ v
-3.167256	/ v
-3.0650582	Y v
-2.3800929	Z v
-1.4314381	n i
-1.2233553	_ i
-1.3267019	a i
-1.8392854	O i
-1.1973007	c i
-0.9794248	t i
-4.4655476	. i
-1.094973	r i
-1.989951	e i
-0.69249445	v i
-3.997463	i i
-0.71875393	w i
-2.0322394	o i
-0.8940676	f i
-1.8386915	" i
-1.6840289	T i
-0.97279316	h i
-1.0406915	M i
-1.2477148	s i
-1.3743576	p i
-1.5156378	C i
-1.342329	g i
-3.8580863	' i
-1.275557	G i
-1.0045705	d i
-0.88404286	m i
-1.8844693	( i
-1.0707484	R i
-0.8427822	l i
-0.8382774	z i
-1.0551634	k i
-1.4698427	S i
-0.9311844	W i
-1.5862563	y i
-0.9389057	L i
-1.4449482	u i
-1.4263555	A i
-0.9868073	b i
-0.84475875	K i
-1.1201869	H i
-2.1238937	E i
-1.6015149	- i
-1.2705721	x i
-1.4005442	B i
-0.82861674	F i
-1.216878	N i
-1.0132061	D i
-3.617872	q i
-1.308825	{ i
-1.4373072	j i
-1.873745	Y i
-1.3210733	P i
-0.5463188	Q i
-1.9789708	J i
-0.63901114	V i
-1.1240407	Z i
-1.5384461	X i
-4.379035	<s> w
-3.4773695	I w
-2.8958092	n w
-1.3896915	_ w
-2.22746	a w
-2.1820686	O w
-2.1974418	t w
-4.5772195	. w
-2.8200412	r w
-1.9724078	e w
-3.6399667	i w
-1.4789163	o w
-1.8378695	" w
-2.1566918	T w
-2.9478679	h w
-2.6904624	s w
-3.553807	p w
-4.378701	g w
-3.5123844	G w
-2.8241313	d w
-3.9681535	m w
-1.6902086	( w
-3.5542524	R w
-2.969505	l w
-2.1758924	z w
-2.6903806	k w
-1.9142876	S w
-2.6220875	y w
-3.9034255	u w
-3.6747322	A w
-3.7281158	b w
-2.671154	K w
-3.5911903	H w
-3.069219	E w
-1.9034034	- w
-2.4773502	x w
-3.4843488	U w
-3.1006892	D w
-1.6190072	{ w
-1.8867662	Z w
-2.759266	I o
-1.5270941	n o
-1.2176512	_ o
-3.5581152	a o
-0.68422437	c o
-0.9668487	t o
-4.483282	. o
-1.0266691	r o
-2.371333	e o
-1.3550161	v o
-1.0432074	i o
-0.91550547	w o
-1.7625039	o o
-0.7593259	f o
-2.3104405	" o
-1.288139	T o
-1.1667945	h o
-0.8990284	M o
-1.4700775	s o
-0.9017738	p o
-0.35593462	C o
-1.249243	g o
-3.7235913	' o
-0.8876421	G o
-1.4524525	d o
-0.96718854	m o
-1.9494526	( o
-0.75955766	R o
-1.1660252	l o
-1.1435786	z o
-2.1324525	k o
-0.91533273	S o
-1.151763	W o
-1.6227787	y o
-0.7732463	L o
-2.5104825	u o
-2.982418	A o
-0.90797424	b o
-0.7277004	K o
-0.52970564	H o
-1.3593053	- o
-1.94442	x o
-0.9336532	B o
-0.6950184	F o
-0.6329914	N o
-0.8756211	D o
-1.3113184	{ o
-0.47042263	j o
-3.0524967	/ o
-0.16908985	Y o
-1.0167943	P o
-0.6423168	J o
-1.011946	V o
-1.1832931	Z o
-4.0601444	<s> f
-1.4199557	I f
-2.2366376	n f
-1.4139514	_ f
-2.165416	a f
-1.25745	O f
-4.930695	c f
-3.0594258	t f
-4.5772195	. f
-2.6488519	r f
-2.0024743	e f
-4.605402	v f
-1.8655955	i f
-3.2949207	w f
-1.0180442	o f
-1.1401324	f f
-2.1663027	" f
-3.6166627	h f
-3.7958615	M f
-2.9598677	s f
-3.6842675	p f
-3.5481515	g f
-3.6325111	' f
-3.2545583	d f
-3.0246067	m f
-2.1308835	( f
-2.2318785	l f
-3.4796743	z f
-2.6114264	k f
-3.6897402	y f
-2.2187135	u f
-1.5749638	A f
-4.027239	b f
-3.069219	E f
-1.5850713	- f
-3.5548246	x f
-3.8347583	B f
-1.3231473	{ f
-3.8014252	j f
-2.4478817	P f
-1.1210008	<s> "
-3.2658641	I "
-3.3234522	n "
-2.296217	_ "
-4.172987	a "
-3.91338	c "
-3.295256	t "
-1.4555588	. "
-3.6168556	9 "
-3.5630717	r "
-3.201869	e "
-5.1294928	i "
-3.5189111	w "
-4.27555	o "
-4.2011986	f "
-3.8379831	T "
-3.6508183	h "
-3.901042	M "
-2.9367008	s "
-3.4991684	p "
-2.8762462	g "
-2.4824388	' "
-3.005646	d "
-3.4035382	m "
-1.4524367	( "
-3.4138215	l "
-2.9743931	k "
-3.770951	S "
-2.7262821	y "
-1.26387	, "
-3.3732774	L "
-4.868353	u "
-3.6049542	A "
-4.0195475	b "
-3.4495206	E "
-3.7796986	x "
-3.453999	U "
-3.6410022	0 "
-3.6613083	4 "
-3.8021526	B "
-3.8429842	% "
-3.0383677	V "
-0.7027472	? "
-1.8784252	Z "
-0.6318946	! "
-0.65686	<s> T
-2.114606	I T
-4.118138	n T
-2.325633	_ T
-5.160705	a T
-1.6298435	O T
-2.938774	. T
-5.426857	e T
-5.271916	o T
-1.1446152	" T
-2.6063447	T T
-2.7121186	M T
-4.785771	s T
-2.8505993	C T
-3.1853004	' T
-2.3889318	G T
-4.9777484	d T
-1.605609	( T
-1.7158744	R T
-5.044238	l T
-2.127569	S T
-3.4054506	W T
-2.0201793	L T
-1.4072758	& T
-1.7401164	A T
-3.1712954	K T
-2.9058578	H T
-2.270203	E T
-2.5403633	- T
-2.3694305	U T
-3.242972	4 T
-3.2559633	B T
-2.265805	F T
-1.8640752	N T
-2.1115046	D T
-1.8285371	{ T
-2.8948088	/ T
-3.2228072	Y T
-2.6514041	P T
-3.055364	V T
-1.1873124	Z T
-2.2704768	X T
-2.8872602	n h
-1.5360963	_ h
-2.935379	a h
-1.6765592	O h
-0.9086978	c h
-0.63124955	t h
-2.9833543	r h
-2.7175353	e h
-3.9447453	i h
-0.84981817	w h
-2.7443714	o h
-4.592729	f h
-2.1012821	" h
-0.19024698	T h
-4.0436397	h h
-1.4282258	s h
-1.8264756	p h
-0.9407976	C h
-1.0838838	g h
-3.814651	' h
-2.8324323	G h
-3.2128325	d h
-3.8213573	m h
-2.2389512	( h
-2.465654	R h
-3.8476305	l h
-2.0893095	z h
-2.3790195	k h
-1.3181857	S h
-0.7173921	W h
-3.7208695	y h
-3.6750867	u h
-2.960125	A h
-4.115524	b h
-1.8782855	K h
-2.6986358	E h
-1.836722	- h
-2.3973875	x h
-3.0829184	U h
-3.3438268	B h
-2.0393436	{ h
-2.9461195	/ h
-1.2657179	P h
-1.8800807	Z h
-1.181678	<s> M
-2.1258204	I M
-1.9462457	_ M
-4.9658484	a M
-1.8271718	O M
-4.046709	c M
-3.608144	. M
-5.0937724	r M
-5.308069	e M
-4.821143	i M
-1.9896517	" M
-2.8805368	T M
-2.6459558	M M
-5.227045	s M
-2.8748758	C M
-3.9523125	' M
-1.339133	G M
-4.9777484	d M
-1.689094	( M
-2.2526407	R M
-4.856215	l M
-3.3012016	z M
-3.2722163	S M
-3.6266792	W M
-3.0577614	L M
-2.916122	& M
-2.112005	A M
-3.369002	H M
-2.1288953	E M
-2.32698	- M
-2.49371	U M
-1.6970724	B M
-2.7392776	F M
-2.9700766	N M
-3.369796	D M
-1.473398	{ M
-2.497237	/ M
-3.7504163	3 M
-3.2228072	Y M
-3.0507748	P M
-3.4074764	J M
-3.055364	V M
-1.7260028	I s
-1.2735583	n s
-1.195962	_ s
-1.0998611	a s
-1.946899	O s
-2.2408133	c s
-1.3098714	t s
-3.7549264	. s
-3.824791	1 s
-3.562409	9 s
-1.2120239	r s
-1.0126425	e s
-2.8905373	v s
-1.0339229	i s
-1.6520212	w s
-1.4299021	o s
-2.5370579	f s
-1.7645022	" s
-3.8741238	T s
-2.2267394	h s
-1.7309531	M s
-1.370871	s s
-1.7909055	p s
-2.560434	C s
-1.5330865	g s
-0.18945764	' s
-3.3939006	G s
-1.5573186	d s
-1.5741023	m s
-1.8532586	( s
-2.9491785	R s
-1.5185829	l s
-3.2325191	z s
-1.03875	k s
-3.3636615	S s
-3.5269446	W s
-1.1167259	y s
-2.9326785	L s
-0.9091515	u s
-1.1359092	A s
-1.7268192	b s
-3.3496203	H s
-1.622206	E s
-1.2910013	- s
-3.7237983	x s
-2.078431	U s
-3.7817788	2 s
-1.7829788	0 s
-3.5872931	4 s
-3.711736	B s
-1.9735609	D s
-3.756429	5 s
-3.4856389	8 s
-3.533009	7 s
-1.3969015	{ s
-2.832816	/ s
-3.508536	3 s
-2.7440457	P s
-2.074167	V s
-1.8527619	Z s
-3.5222137	6 s
-3.2635634	n p
-1.4161505	_ p
-1.7636333	a p
-1.5621543	O p
-3.314104	t p
-3.6431122	. p
-1.9809464	r p
-1.9237186	e p
-2.0422518	i p
-3.125587	w p
-1.5928087	o p
-4.8629093	f p
-2.0868888	" p
-3.9920945	h p
-1.7382417	s p
-1.3191788	p p
-4.1721168	g p
-3.6496408	' p
-4.1116447	d p
-0.97985095	m p
-1.7526512	( p
-2.387517	l p
-3.510261	z p
-3.1671228	k p
-1.6691376	S p
-2.346137	y p
-1.3386146	u p
-1.6817573	A p
-3.887792	b p
-2.6335406	E p
-1.4323064	- p
-0.59493494	x p
-1.8857971	U p
-1.2861428	{ p
-2.92008	/ p
-1.5201379	<s> C
-2.0204246	I C
-5.1139135	n C
-1.8931489	_ C
-1.9969264	O C
-3.0867891	c C
-2.8330078	. C
-4.3615894	r C
-5.262155	e C
-4.364678	i C
-4.937662	o C
-2.2361178	" C
-2.0649755	T C
-2.1141899	M C
-4.335479	s C
-2.566347	C C
-3.234074	' C
-1.8419724	( C
-2.0113158	R C
-2.1194181	S C
-2.1778657	W C
-1.6671666	L C
-4.685781	u C
-2.2020211	A C
-2.572152	K C
-3.5786145	H C
-1.3346437	E C
-2.15427	- C
-2.7259154	U C
-3.870367	2 C
-1.8366176	B C
-2.0446897	F C
-1.6865336	N C
-2.675011	D C
-1.9936985	{ C
-3.117659	/ C
-3.7504163	3 C
-3.2228072	Y C
-1.9808749	P C
-3.340258	J C
-2.2824914	V C
-2.2704768	X C
-3.1510775	I g
-0.92083955	n g
-1.9320695	_ g
-1.5918123	a g
-1.8453591	O g
-3.077826	t g
-1.850055	r g
-2.1221108	e g
-1.5770181	i g
-4.6729884	w g
-2.1775548	o g
-3.4616706	f g
-2.266114	" g
-4.944619	h g
-3.895142	s g
-3.486765	p g
-1.8896774	g g
-4.0205393	' g
-2.1617033	d g
-4.1291747	m g
-2.6966574	( g
-3.1014006	l g
-3.337962	z g
-3.1902947	k g
-3.5304341	y g
-1.4469655	u g
-1.9133202	A g
-4.4471793	b g
-2.089859	E g
-1.7970853	- g
-2.586274	N g
-1.7283353	{ g
-3.173874	/ g
-3.9785364	<s> '
-1.6361808	I '
-1.8141413	n '
-3.2837827	_ '
-2.8610134	a '
-1.799062	O '
-3.338455	c '
-2.352381	t '
-3.2782726	. '
-3.221519	9 '
-2.507997	r '
-2.5612502	e '
-3.2462018	v '
-3.6633341	i '
-3.1195621	w '
-3.2041402	o '
-3.9819243	f '
-3.5703998	" '
-2.8909185	T '
-3.04419	h '
-2.2295194	M '
-2.5305557	s '
-2.932777	p '
-2.2345703	C '
-2.718669	g '
-2.3094003	G '
-2.4672866	d '
-2.7881477	m '
-2.3277242	R '
-2.7534907	l '
-2.1686165	z '
-2.0655236	k '
-2.8667035	S '
-2.9777546	W '
-1.5316929	y '
-3.1373565	, '
-2.0970032	L '
-2.9329813	u '
-2.4404387	A '
-3.5688171	b '
-2.927269	K '
-2.5710535	E '
-2.53907	x '
-3.3501992	U '
-3.6149535	2 '
-3.5983284	0 '
-3.570605	4 '
-3.2167091	B '
-2.6122634	F '
-2.6264732	N '
-2.5285494	D '
-2.656983	q '
-3.0216644	8 '
-3.0344534	7 '
-2.0691814	{ '
-3.4965446	3 '
-2.7425406	Y '
-2.9402094	P '
-3.5017502	J '
-1.9131467	V '
-1.7782972	? '
-2.2419806	Z '
-3.5059295	6 '
-1.4514983	X '
-1.3883631	! '
-1.9604223	<s> G
-2.5004685	I G
-5.1522655	n G
-2.380613	_ G
-5.200027	a G
-2.7652419	O G
-3.6073737	c G
-3.7852862	. G
-5.144098	e G
-4.6010733	i G
-5.3231173	o G
-2.5298982	" G
-2.862167	T G
-2.3976393	M G
-3.6496408	' G
-3.381843	G G
-2.3311458	( G
-2.6993396	R G
-3.8282356	S G
-3.1185749	W G
-3.5767114	L G
-1.4519655	& G
-2.0853364	A G
-2.4358997	K G
-3.6243217	H G
-2.6700852	E G
-2.7160609	- G
-2.4982305	U G
-3.7142053	B G
-2.0380774	N G
-3.233324	D G
-2.24291	{ G
-3.1607378	/ G
-3.158341	P G
-2.917871	V G
-4.223284	<s> d
-2.796467	I d
-0.9229158	n d
-1.597559	_ d
-1.4385619	a d
-2.201846	O d
-4.80956	c d
-3.0934055	t d
-1.6057912	r d
-1.1029563	e d
-3.7611945	v d
-1.285211	i d
-2.6409688	w d
-1.7684523	o d
-4.8499384	f d
-2.0677497	" d
-3.211394	h d
-2.7927194	M d
-2.6969187	s d
-3.6154552	p d
-3.0399508	g d
-2.1755033	' d
-1.9182875	d d
-3.7419848	m d
-2.326291	( d
-1.2521011	l d
-2.4992383	z d
-3.0208228	k d
-2.6279442	y d
-1.5764265	u d
-1.6458644	A d
-3.616418	b d
-1.4514446	E d
-1.4661134	- d
-3.561541	x d
-2.0142334	{ d
-3.1479874	/ d
-2.0985978	I m
-2.3508449	n m
-1.451678	_ m
-1.6829057	a m
-2.1647449	O m
-3.9776917	c m
-2.3033848	t m
-2.7220213	. m
-1.7031273	r m
-1.6884421	e m
-4.605402	v m
-1.608648	i m
-2.787514	w m
-1.135269	o m
-3.3159142	f m
-2.015285	" m
-2.6721842	h m
-2.241105	s m
-2.206795	p m
-2.7022302	g m
-2.0608912	' m
-2.3270915	d m
-1.4706583	m m
-2.4057372	( m
-2.3887348	l m
-2.018784	z m
-2.9900513	k m
-1.9456003	S m
-2.0832722	y m
-1.4505494	u m
-0.97611773	A m
-2.9303858	b m
-3.5911903	H m
-1.715736	E m
-1.437057	- m
-3.0700018	x m
-3.4815373	F m
-3.668101	5 m
-1.6190072	{ m
-3.1295376	/ m
-2.4528434	<s> (
-2.886537	_ (
-4.3423705	" (
-1.7675159	<s> R
-1.9045197	I R
-2.402234	_ R
-5.337147	a R
-1.3952284	O R
-3.3788743	. R
-5.178104	o R
-2.470039	" R
-2.3459039	T R
-2.4337442	M R
-2.3009279	C R
-3.8632584	' R
-2.300577	G R
-1.4346808	( R
-2.5247324	R R
-3.95944	S R
-3.365539	L R
-1.8755579	& R
-2.067709	A R
-1.7347671	K R
-2.9947872	H R
-1.3228546	E R
-2.4764702	- R
-2.0079405	U R
-2.8576229	B R
-3.0463953	F R
-2.5061579	N R
-2.4937599	D R
-2.022727	{ R
-2.9831796	/ R
-3.2601905	Y R
-2.0752034	P R
-1.940812	J R
-3.0978162	V R
-1.801557	X R
-4.3431406	<s> l
-2.082185	I l
-2.250404	n l
-1.7172008	_ l
-0.9915443	a l
-1.5204861	O l
-1.3917207	c l
-2.0657349	t l
-1.893437	r l
-1.4841104	e l
-4.3286314	v l
-1.1344967	i l
-2.2738063	w l
-1.4374912	o l
-1.6844399	f l
-2.2521274	" l
-2.542388	h l
-2.186561	s l
-1.077805	p l
-1.6767815	C l
-1.8718808	g l
-2.0853682	' l
-1.6133258	G l
-2.2061539	d l
-3.0440137	m l
-2.6335166	( l
-0.81216115	l l
-2.0448976	z l
-1.8116008	k l
-2.4464703	S l
-2.2965357	y l
-1.832076	L l
-1.0711491	u l
-1.1140194	A l
-0.97445065	b l
-1.5528945	K l
-1.2815138	E l
-1.6405021	- l
-3.1755745	x l
-2.6152146	U l
-1.6638049	B l
-1.4263138	F l
-1.981828	{ l
-1.6219603	P l
-2.6451907	V l
-4.4796457	<s> z
-3.5208952	I z
-3.0740778	n z
-3.9844828	_ z
-2.8493965	a z
-2.7803357	O z
-3.7788994	c z
-3.1922686	t z
-3.848612	r z
-3.4198823	e z
-2.238937	i z
-3.293739	o z
-3.7684293	" z
-3.9368408	s z
-4.328657	p z
-2.9680157	C z
-4.840682	g z
-3.8583488	d z
-3.7689857	l z
-1.5163721	z z
-3.008565	k z
-3.8733654	S z
-3.3798673	y z
-3.0177457	u z
-2.6667776	A z
-3.4430382	E z
-3.9092567	- z
-3.380273	U z
-3.210251	I k
-1.9282739	n k
-2.7634676	_ k
-1.8369131	a k
-2.103474	O k
-1.2866317	c k
-4.519221	t k
-4.608266	. k
-1.6367913	r k
-2.4931552	e k
-4.3530684	v k
-2.2976673	i k
-3.3850832	w k
-2.099639	o k
-3.402754	f k
-3.154485	" k
-3.816462	h k
-2.3262062	s k
-3.8371093	p k
-4.2664413	g k
-3.857581	' k
-4.3030486	d k
-4.269748	m k
-2.7286892	( k
-2.445388	l k
-2.4616752	z k
-2.6241648	k k
-2.4941502	S k
-4.101909	y k
-3.0257363	u k
-2.4949737	A k
-4.662516	b k
-2.8561513	E k
-2.5163276	- k
-3.2819295	U k
-3.1543157	/ k
-1.2460117	<s> S
-2.3145347	I S
-1.9666259	_ S
-4.959044	a S
-2.1460438	O S
-4.9033437	c S
-4.797306	t S
-1.5702217	. S
-4.7334213	e S
-4.241153	i S
-4.931317	o S
-2.045253	" S
-2.5825264	T S
-2.5372982	M S
-2.6929314	C S
-2.736374	' S
-2.4713557	G S
-1.746891	( S
-1.445399	R S
-3.6553044	l S
-2.6244252	S S
-2.6286473	W S
-4.503298	y S
-2.2185667	L S
-4.677799	u S
-3.212551	& S
-1.936983	A S
-2.6634538	K S
-3.194692	H S
-1.4602582	E S
-2.095979	- S
-3.9494927	x S
-1.1671095	U S
-4.0401793	0 S
-1.8525962	B S
-3.0316596	F S
-2.0793567	N S
-1.8502895	D S
-1.8230866	{ S
-2.3491776	/ S
-1.574361	Y S
-2.1695383	P S
-3.0109553	J S
-1.979922	V S
-1.4939698	<s> W
-3.674853	I W
-2.4202769	_ W
-5.1698275	a W
-2.60446	O W
-4.5697913	t W
-3.8848073	. W
-3.8537745	e W
-1.3709363	" W
-2.7675378	T W
-3.4905088	M W
-4.0118523	s W
-3.846309	C W
-3.0408711	' W
-2.4326391	( W
-3.100216	R W
-4.39439	k W
-3.993905	S W
-3.6969836	W W
-3.0155349	& W
-2.9759846	A W
-3.476115	H W
-2.2753408	E W
-2.7751403	- W
-3.900432	B W
-2.5330446	N W
-3.2461822	D W
-1.7327119	{ W
-3.0007236	/ W
-3.283092	Y W
-2.659883	P W
-1.7507721	n y
-2.0964458	_ y
-1.4821078	a y
-2.8891819	O y
-1.9395142	c y
-1.8552904	t y
-1.6401691	r y
-2.0153954	e y
-2.0941687	v y
-4.528266	i y
-2.3540602	w y
-2.4356709	o y
-2.5844314	f y
-2.775263	" y
-2.5928996	T y
-2.5082543	h y
-2.3093426	M y
-2.4363687	s y
-2.6430497	p y
-2.7079325	C y
-2.0446484	g y
-3.463364	G y
-2.0819635	d y
-2.1663156	m y
-2.6190681	( y
-2.4634192	R y
-1.130915	l y
-1.8117267	z y
-1.868529	k y
-1.8527997	S y
-2.3272781	W y
-1.464124	L y
-1.9098788	u y
-3.3689828	A y
-1.0514044	b y
-1.7443732	K y
-2.0456424	H y
-3.2812696	E y
-1.4688168	- y
-2.588419	x y
-3.4367576	U y
-1.750415	B y
-2.523999	N y
-2.2586656	D y
-2.158999	{ y
-2.9035583	P y
-2.809276	V y
-2.3122478	Z y
-2.3364098	I ,
-1.7625529	n ,
-2.5689678	a ,
-2.2857182	O ,
-2.9942036	c ,
-1.975624	t ,
-1.4326401	. ,
-1.3502977	1 ,
-1.3542614	9 ,
-1.8403012	r ,
-1.9088126	e ,
-3.3331544	v ,
-3.1972854	i ,
-2.046552	w ,
-2.5122535	o ,
-2.6434846	f ,
-3.252021	" ,
-2.6118357	T ,
-2.2705173	h ,
-2.5683382	M ,
-1.4306386	s ,
-2.3097386	p ,
-2.1110363	C ,
-1.781663	g ,
-2.214923	G ,
-1.7026387	d ,
-2.1742504	m ,
-2.5058944	R ,
-2.0673764	l ,
-1.5712087	z ,
-1.5162663	k ,
-2.616456	S ,
-2.9777546	W ,
-1.261801	y ,
-2.257983	L ,
-3.3003502	u ,
-2.3171062	A ,
-0.7465031	) ,
-3.0267837	b ,
-2.8804336	K ,
-3.4553418	H ,
-2.0704665	E ,
-3.7674246	- ,
-1.9294978	x ,
-1.3254507	2 ,
-1.121839	0 ,
-1.1920055	4 ,
-2.6576762	B ,
-2.9991045	F ,
-2.876988	N ,
-2.4530501	D ,
-3.0617852	q ,
-1.1096324	5 ,
-1.3014007	8 ,
-1.2978121	7 ,
-1.1180719	% ,
-1.173777	} ,
-1.3507491	3 ,
-2.7425406	Y ,
-2.164285	P ,
-1.777331	V ,
-2.3941774	? ,
-2.0213542	Z ,
-1.1723949	6 ,
-1.2730837	X ,
-1.7958127	<s> L
-2.4369597	I L
-2.3927197	_ L
-5.182737	a L
-2.0605037	O L
-3.9476364	c L
-5.23327	t L
-3.92924	. L
-5.2533684	r L
-4.859965	e L
-5.1643243	i L
-2.369715	" L
-3.8200042	T L
-3.1334438	M L
-2.991689	C L
-3.52462	' L
-3.309991	G L
-1.7953748	( L
-3.2026994	R L
-3.8102431	S L
-3.4198697	W L
-1.8646528	L L
-1.5687977	& L
-1.41629	A L
-2.9749086	K L
-3.2103326	H L
-2.2018251	E L
-2.8543415	- L
-2.53407	U L
-3.12041	B L
-2.382082	F L
-2.679287	N L
-2.6070917	D L
-2.2220573	{ L
-2.7283812	/ L
-1.667468	P L
-2.9054217	V L
-1.6587529	X L
-1.9725685	n u
-2.0330055	_ u
-1.9410706	a u
-1.5948918	O u
-1.368744	c u
-1.7706196	t u
-1.85035	r u
-2.9745839	e u
-3.0591595	v u
-2.871873	i u
-4.2075977	w u
-1.100644	o u
-1.4456863	f u
-2.5125067	" u
-1.6870347	T u
-2.0958436	h u
-1.8246958	M u
-1.4493256	s u
-1.3723842	p u
-1.9066348	C u
-1.5157899	g u
-3.881283	' u
-1.1365232	G u
-1.4379379	d u
-1.6152056	m u
-2.468216	( u
-1.3226827	R u
-1.6210511	l u
-1.9666533	z u
-2.5086157	k u
-1.4139869	S u
-2.8524973	W u
-3.0431588	y u
-1.5971345	L u
-4.29017	u u
-1.3264798	A u
-0.93039554	b u
-1.5279238	K u
-1.0105597	H u
-1.0648885	E u
-2.1790695	- u
-1.9946637	x u
-0.55816627	B u
-1.2955343	F u
-1.9604907	N u
-1.2966127	D u
-0.009592737	q u
-0.38630712	j u
-2.157768	Y u
-1.6064193	P u
-0.21247752	Q u
-0.754914	J u
-0.93030703	Z u
-2.8761473	_ &
-3.40464	O &
-2.445202	T &
-3.8864977	M &
-3.4474914	C &
-2.9625082	G &
-2.008998	S &
-3.2388198	A &
-2.667364	H &
-3.309277	D &
-3.0648832	Y &
-2.1560268	P &
-3.4249845	J &
-1.0206138	<s> A
-2.015872	I A
-5.108701	n A
-2.1395946	_ A
-2.1804116	O A
-4.3721604	c A
-5.340537	t A
-2.6392443	. A
-3.562766	9 A
-5.4196434	e A
-1.9082528	" A
-2.464529	T A
-2.2569242	M A
-4.8946357	s A
-1.9467223	C A
-3.0306695	' A
-1.7766984	G A
-1.6366109	( A
-1.4989225	R A
-3.1424615	k A
-2.0000434	S A
-2.0560174	W A
-1.9124233	L A
-2.914358	& A
-2.6577275	A A
-2.9557915	K A
-2.0771353	H A
-1.865496	E A
-2.129291	- A
-1.0798635	U A
-4.045837	0 A
-2.2477598	B A
-2.1200035	F A
-1.6686155	N A
-1.8334539	D A
-3.6189084	7 A
-2.1893847	{ A
-2.241294	/ A
-3.0341573	Y A
-1.7827168	P A
-2.4211216	J A
-1.58242	V A
-2.266173	X A
-4.285175	<s> )
-2.8110855	I )
-3.0820673	n )
-4.307828	a )
-3.1323087	O )
-3.8803701	c )
-3.8057113	t )
-2.381193	. )
-3.0632577	1 )
-2.7330406	9 )
-3.9448519	r )
-3.920803	e )
-5.0884595	i )
-4.091064	w )
-4.640761	o )
-4.6116266	f )
-2.6031868	" )
-3.503801	T )
-4.32288	h )
-3.7299936	M )
-3.4343984	s )
-3.8372989	C )
-3.899766	g )
-3.4299192	G )
-3.6733003	d )
-4.3270206	m )
-2.642074	R )
-4.1525216	l )
-3.4039757	z )
-3.492542	k )
-3.8251407	S )
-3.5610821	W )
-3.4209785	y )
-3.3334825	L )
-4.8163967	u )
-3.5597956	A )
-4.4201813	b )
-3.8975968	x )
-2.8467472	2 )
-2.5636687	0 )
-2.9990664	4 )
-3.4321103	B )
-3.0691867	D )
-2.385516	5 )
-2.6972482	8 )
-2.8751397	7 )
-2.5343106	% )
-2.7366292	3 )
-3.165373	Y )
-3.1140742	P )
-2.4850056	? )
-2.921996	6 )
-2.221446	X )
-1.6163275	! )
-3.7320561	<s> b
-3.643391	I b
-3.2957551	n b
-1.3730209	_ b
-1.7271333	a b
-2.2207487	O b
-3.2831638	t b
-3.8268456	. b
-2.511596	r b
-2.4943092	e b
-2.1609435	i b
-3.1590307	w b
-2.0773227	o b
-4.8499384	f b
-2.0255773	" b
-3.87836	T b
-3.215888	h b
-3.1516473	s b
-3.385573	p b
-4.264304	g b
-3.8519769	' b
-3.4251118	d b
-1.5546061	m b
-2.003432	( b
-3.0847247	l b
-2.4260585	z b
-2.8453689	k b
-2.5154064	y b
-1.5677868	u b
-2.0108335	A b
-2.1725357	b b
-2.9900796	E b
-1.3280168	- b
-3.7470362	x b
-1.5458121	{ b
-3.1479874	/ b
-2.364636	Z b
-2.4958088	<s> K
-2.7250729	_ K
-2.4840431	O K
-3.8694642	c K
-2.8951988	. K
-3.0443974	" K
-4.0774646	T K
-4.5983906	h K
-4.0109305	M K
-2.8123481	C K
-3.0762138	' K
-2.4357338	( K
-2.801162	R K
-2.9689546	S K
-3.7039773	W K
-3.211228	L K
-3.0976832	A K
-1.7236121	K K
-2.9219525	H K
-3.4294283	E K
-3.4954355	- K
-3.5522635	U K
-4.1270027	0 K
-3.7406473	B K
-3.0548031	F K
-2.3011353	N K
-3.6478505	D K
-2.2800562	{ K
-3.1943543	/ K
-3.6630633	J K
-1.4269763	<s> H
-2.9605362	I H
-2.410088	_ H
-3.0510814	O H
-4.99118	c H
-3.3186848	. H
-2.167661	" H
-2.3805416	T H
-3.9945705	M H
-2.511714	C H
-3.3699281	' H
-3.0273323	G H
-4.736376	m H
-2.1992161	( H
-3.4531646	R H
-2.6422994	S H
-2.4117718	W H
-3.7274854	A H
-3.0616655	K H
-3.0984578	H H
-3.5519123	E H
-2.8970299	- H
-3.2980027	U H
-3.8926249	B H
-2.4238763	F H
-2.9850392	N H
-3.6317012	D H
-2.0964046	{ H
-3.3189766	: H
-3.4593523	P H
-3.6520414	J H
-2.9306877	V H
-1.7278198	<s> E
-2.4858038	I E
-2.408611	_ E
-2.1325357	O E
-4.587797	c E
-4.151644	. E
-2.301176	" E
-1.9754152	T E
-2.0634735	M E
-4.907812	s E
-2.3569906	C E
-3.7906597	' E
-1.6401265	G E
-2.1324255	( E
-1.609711	R E
-1.8758351	S E
-3.013628	W E
-2.0601475	L E
-2.9981115	& E
-2.9026685	A E
-1.8154644	K E
-1.7771217	H E
-2.5648797	E E
-3.091059	- E
-3.0955744	U E
-3.89732	0 E
-2.691643	B E
-1.8870099	F E
-1.7130599	N E
-1.7439997	D E
-2.062215	{ E
-2.1568677	/ E
-2.2446523	Y E
-1.8499044	P E
-2.6466343	Q E
-3.6155286	J E
-1.7474272	V E
-1.7533679	Z E
-1.999223	X E
-2.5957317	<s> -
-3.3151662	I -
-2.509459	n -
-2.585738	_ -
-3.062545	a -
-2.9493797	O -
-3.239101	c -
-2.442207	t -
-2.947742	. -
-2.3562915	1 -
-2.0495694	9 -
-2.286387	r -
-2.400068	e -
-3.169644	i -
-2.506113	w -
-2.6795638	o -
-2.6630607	f -
-2.773022	T -
-2.483917	h -
-2.9602118	M -
-2.872595	s -
-3.0397773	p -
-2.686273	C -
-2.3135135	g -
-2.4330082	G -
-2.1380506	d -
-2.872418	m -
-2.327602	l -
-3.0241497	z -
-1.8737144	k -
-3.0018764	S -
-1.9895422	y -
-2.701382	L -
-4.042556	u -
-2.2411551	A -
-3.4651017	b -
-2.30475	K -
-2.882782	H -
-2.6791558	E -
-0.91998345	- -
-1.7598469	x -
-2.3608308	U -
-1.8012956	2 -
-1.478276	0 -
-2.0258389	4 -
-2.4881616	B -
-2.3931255	F -
-2.9443777	N -
-2.9723608	D -
-1.9483733	5 -
-2.0631535	8 -
-1.9069935	7 -
-2.1110024	% -
-2.0379546	3 -
-2.9234471	Y -
-3.0176108	P -
-2.3606346	Q -
-1.9427931	V -
-1.9944984	6 -
-1.3863693	X -
-4.342917	<s> x
-3.726573	n x
-5.8032126	_ x
-2.48255	a x
-3.3691766	O x
-5.133965	c x
-4.4283257	r x
-1.79915	e x
-2.5943985	i x
-3.0861132	o x
-5.257022	l x
-4.861034	y x
-2.9189196	u x
-2.958762	A x
-0.83408344	E x
-4.1730866	- x
-2.2453594	x x
-1.9197582	<s> U
-5.343443	n U
-2.4393969	_ U
-1.8983198	O U
-2.6558294	" U
-3.2629278	T U
-3.1435072	M U
-3.332652	C U
-3.3482618	G U
-1.2033079	( U
-2.1359637	R U
-2.7859674	S U
-3.7110856	W U
-2.8428142	L U
-3.0993307	A U
-1.9363681	H U
-2.7177277	E U
-2.8079958	- U
-2.8968413	B U
-2.5174367	F U
-2.9219728	N U
-2.8251224	D U
-1.6380389	{ U
-1.9224664	/ U
-4.025938	$ U
-3.2950122	Y U
-3.0764065	P U
-1.4597518	Q U
-2.9246154	J U
-3.817288	<s> 2
-2.489236	_ 2
-5.256455	a 2
-1.8602313	. 2
-1.2736408	1 2
-1.5608004	9 2
-4.9450016	r 2
-3.8340487	" 2
-2.4483376	( 2
-3.6629524	R 2
-2.837674	, 2
-3.9118977	A 2
-2.2934291	- 2
-1.3956317	2 2
-2.1019156	0 2
-1.349134	4 2
-3.699621	B 2
-3.6820707	D 2
-1.6330034	5 2
-1.6518179	8 2
-1.5110004	7 2
-0.7153769	/ 2
-0.7653299	$ 2
-1.2717617	3 2
-2.7593284	: 2
-1.2905197	6 2
-3.4735746	_ 0
-2.254249	. 0
-0.9563866	1 0
-1.0289357	9 0
-3.0616267	( 0
-1.617026	, 0
-3.538619	- 0
-0.8542646	2 0
-0.5306353	0 0
-0.9532233	4 0
-0.728205	5 0
-1.1101497	8 0
-1.0837657	7 0
-0.7811078	3 0
-2.0915978	: 0
-1.0166197	6 0
-3.9971714	<s> 4
-2.8127055	_ 4
-1.9856969	. 4
-1.4548864	1 4
-1.6388571	9 4
-3.931162	' 4
-2.3588629	( 4
-3.2477598	R 4
-4.0617037	S 4
-2.8497522	, 4
-2.6360283	- 4
-1.4351587	2 4
-2.1104217	0 4
-1.4254117	4 4
-1.7366711	5 4
-1.6009567	8 4
-1.5604345	7 4
-0.5914583	/ 4
-1.0290709	$ 4
-1.5926665	3 4
-2.3396485	: 4
-3.56381	P 4
-2.411464	Q 4
-1.6198484	6 4
-1.1700445	<s> B
-1.6982915	I B
-5.2006836	n B
-2.143919	_ B
-4.371806	a B
-3.121771	O B
-4.7071733	c B
-3.9127107	. B
-3.6061134	9 B
-5.097391	e B
-4.577348	w B
-5.2323737	o B
-1.864095	" B
-3.5174081	T B
-3.0391357	M B
-5.187087	s B
-1.9896425	C B
-2.966778	' B
-2.7064235	G B
-4.5092945	d B
-4.794324	m B
-2.071855	( B
-2.5164688	R B
-2.541029	S B
-3.5926433	W B
-2.1365452	L B
-2.5590718	& B
-2.0488546	A B
-3.135914	K B
-2.430843	H B
-3.32301	E B
-2.1683068	- B
-2.6126726	U B
-4.018257	0 B
-2.665402	B B
-2.3095236	F B
-1.8317205	N B
-2.709609	D B
-3.8150432	5 B
-3.3639553	7 B
-1.9702734	{ B
-2.8742597	/ B
-3.7196977	3 B
-2.6439307	Y B
-2.8488195	P B
-2.8663273	V B
-2.0622573	Z B
-2.2452698	X B
-1.5286093	<s> F
-2.4621928	I F
-5.3010974	n F
-2.2972646	_ F
-5.2059464	a F
-2.0237048	O F
-4.770652	c F
-3.6754718	. F
-4.512449	e F
-5.1855583	i F
-2.3421056	" F
-4.045229	T F
-4.71122	h F
-2.7338734	M F
-2.5004878	C F
-4.0124073	' F
-1.4560014	( F
-3.5975542	R F
-5.1017094	l F
-3.0262973	S F
-3.370112	L F
-2.4843743	A F
-2.2809758	K F
-2.7553523	E F
-2.7734663	- F
-2.6246643	U F
-2.5413508	F F
-2.4832294	N F
-2.9422157	D F
-3.6324065	8 F
-1.6292846	{ F
-3.167256	/ F
-3.1042345	V F
-2.0850952	X F
-1.647338	<s> N
-1.7233219	I N
-2.3014007	_ N
-1.3898488	O N
-3.7985287	c N
-3.6170833	. N
-5.042274	e N
-2.232881	" N
-3.260371	T N
-3.4905088	M N
-2.7153754	C N
-3.3717673	' N
-2.0438652	G N
-1.9077753	( N
-2.4993038	R N
-3.3559084	S N
-3.4463153	W N
-1.7950189	A N
-3.1005142	H N
-1.9538208	E N
-2.9873798	- N
-1.7438128	U N
-2.9331074	B N
-2.9865644	N N
-2.6470532	D N
-2.0402298	{ N
-2.1236544	/ N
-2.2063694	Y N
-2.8188899	P N
-3.442973	J N
-2.8689241	V N
-1.7331458	<s> D
-2.243608	I D
-2.3363278	_ D
-2.283658	O D
-3.2078853	c D
-3.412673	. D
-5.3223	i D
-2.4089642	" D
-4.029966	T D
-5.080422	h D
-3.8166738	M D
-2.0352254	C D
-3.0365913	' D
-2.776633	G D
-0.9995896	( D
-2.6200995	R D
-2.7639127	S D
-3.4894485	W D
-2.1397789	L D
-3.241476	& D
-2.401773	A D
-3.209817	K D
-2.2934246	H D
-1.6317501	E D
-2.715573	- D
-1.8598142	U D
-3.266815	B D
-2.2131274	F D
-1.8990356	N D
-2.4452546	D D
-2.0765395	{ D
-2.1587956	/ D
-3.7834742	3 D
-3.254649	Y D
-3.275174	P D
-2.2972376	X D
-3.5744638	n q
-2.6050289	_ q
-3.4240234	a q
-2.3193765	c q
-4.5212383	r q
-2.593392	e q
-3.08939	i q
-4.4886875	w q
-4.2120204	o q
-3.4287682	" q
-2.7613428	h q
-3.2647154	s q
-3.2254171	d q
-2.5867746	( q
-3.601624	z q
-2.7201624	S q
-4.8107805	y q
-4.3435297	u q
-3.1615896	A q
-1.8815887	E q
-1.6227818	- q
-2.8852296	x q
-4.3856573	<s> 5
-2.763359	_ 5
-1.7390046	. 5
-1.2154404	1 5
-1.522573	9 5
-3.8841538	" 5
-3.9300547	p 5
-2.8391747	( 5
-2.6728585	, 5
-2.8665895	- 5
-0.9485928	2 5
-2.0626647	0 5
-1.22951	4 5
-1.4959909	5 5
-1.3719215	8 5
-0.9105637	7 5
-1.0316129	$ 5
-1.2585683	3 5
-2.6143456	: 5
-1.2989162	6 5
-4.5191264	<s> 8
-2.8271117	_ 8
-1.9335827	. 8
-1.5458972	1 8
-0.629612	9 8
-3.7964377	" 8
-4.0640697	M 8
-4.061985	C 8
-3.207448	' 8
-2.8088088	( 8
-3.4990447	R 8
-2.715108	, 8
-2.7351642	- 8
-1.5306845	2 8
-2.1643856	0 8
-1.405064	4 8
-1.7366711	5 8
-1.0956422	8 8
-1.6121789	7 8
-2.329281	{ 8
-0.50651205	/ 8
-1.3826188	$ 8
-1.5573909	3 8
-1.5021753	6 8
-4.586021	<s> 7
-2.8571398	_ 7
-1.9524298	. 7
-1.5651064	1 7
-1.3078521	9 7
-3.7135217	' 7
-3.036142	( 7
-2.9447346	, 7
-3.1508877	- 7
-1.512148	2 7
-2.1696546	0 7
-1.4745595	4 7
-1.7025383	5 7
-1.1479503	8 7
-1.6008637	7 7
-1.33301	$ 7
-1.3599364	3 7
-1.5906448	6 7
-1.6404045	1 %
-1.3567442	9 %
-1.1782484	2 %
-1.1404034	0 %
-1.0760283	4 %
-0.9052057	5 %
-1.2010338	8 %
-1.1613086	7 %
-1.2163299	3 %
-0.9606728	6 %
-4.53898	<s> {
-3.5712008	_ {
-4.3423705	" {
-3.9226859	I }
-4.5458074	n }
-5.4165435	a }
-3.2986114	O }
-4.87267	c }
-4.297855	t }
-3.9499433	. }
-4.2419124	r }
-4.2197986	e }
-5.4040766	i }
-4.2791286	w }
-4.992064	o }
-3.7212713	s }
-4.042797	C }
-3.9263468	g }
-4.0821733	' }
-4.082088	d }
-4.7047	m }
-4.3755164	l }
-4.1944695	k }
-3.511529	y }
-3.4715922	L }
-3.9118977	A }
-4.476734	b }
-3.8955588	% }
-2.9575145	V }
-3.1394582	n j
-2.5459385	_ j
-2.615027	a j
-3.0895724	O j
-4.9394283	t j
-4.4680533	r j
-3.4950309	e j
-3.7153325	i j
-2.9251037	o j
-3.0534523	" j
-5.210228	s j
-4.3399997	p j
-4.88285	g j
-2.847659	d j
-5.0127544	l j
-4.275383	k j
-4.6146026	y j
-3.216856	u j
-3.5736456	A j
-2.4428167	b j
-3.0208063	- j
-3.7096305	D j
-2.0775049	{ j
-3.4681613	<s> \
-3.7838554	I \
-4.4737477	n \
-5.181989	_ \
-5.1085463	a \
-4.4015656	t \
-1.3407726	1 \
-2.1786299	9 \
-4.4445434	r \
-4.686999	e \
-5.2730274	i \
-5.086546	o \
-4.568181	h \
-2.7897036	M \
-4.334584	s \
-4.778059	p \
-3.469892	C \
-4.5886016	g \
-4.431098	d \
-3.5341196	R \
-4.415537	l \
-4.169269	k \
-3.5952926	S \
-3.7989798	y \
-3.3826387	L \
-3.7597187	A \
-3.4637856	E \
-3.9550402	x \
-2.852169	2 \
-3.3441572	0 \
-2.9301808	4 \
-3.346019	B \
-3.6169004	F \
-3.552244	D \
-3.8948429	q \
-1.6839819	5 \
-3.0423677	8 \
-1.4495603	7 \
-1.204108	3 \
-3.4084926	P \
-2.366839	6 \
-2.266173	X \
-0.68191606	* \
-0.0075856866	\ /
-3.1913748	<s> $
-2.0467205	_ $
-4.1755486	" $
-3.2181802	M $
-2.2853148	C $
-0.8122563	( $
-2.340546	S $
-2.542384	A $
-2.5361824	K $
-3.9931915	- $
-2.5214224	Z $
-3.7563424	<s> 3
-2.5437815	_ 3
-5.0364375	a 3
-1.9462066	. 3
-1.4272373	1 3
-1.6524552	9 3
-3.8583791	" 3
-4.111524	' 3
-2.5823994	( 3
-2.814821	, 3
-3.7956707	A 3
-2.604378	- 3
-1.4571633	2 3
-2.097981	0 3
-1.4591212	4 3
-1.7023519	5 3
-1.6734817	8 3
-1.6006106	7 3
-1.172396	/ 3
-0.9323489	$ 3
-1.5058743	3 3
-1.6947309	: 3
-1.5627805	6 3
-2.162376	<s> Y
-2.8458838	_ Y
-2.8620276	O Y
-3.066339	. Y
-2.1504455	" Y
-3.2667916	T Y
-3.8735366	M Y
-3.817402	C Y
-4.1879168	g Y
-3.6822872	' Y
-2.677087	G Y
-2.560713	R Y
-3.539185	S Y
-3.4662426	W Y
-2.648141	L Y
-3.0267906	& Y
-2.7858639	A Y
-3.4349656	H Y
-2.445255	E Y
-3.9247575	- Y
-3.5827115	U Y
-3.9417229	B Y
-3.4845145	F Y
-2.130686	N Y
-2.6511784	D Y
-3.15931	V Y
-4.2617035	<s> :
-3.5885718	I :
-3.5152526	n :
-4.3955574	a :
-3.113006	O :
-4.6669145	c :
-3.5787973	t :
-3.62351	. :
-3.0614755	1 :
-2.5458283	9 :
-3.6865532	r :
-3.4104822	e :
-4.523706	v :
-5.0277405	i :
-3.9210107	w :
-4.703925	o :
-4.1078258	f :
-3.2667212	" :
-2.724057	T :
-4.1733613	h :
-3.7128737	M :
-2.9928722	s :
-4.04373	p :
-3.2825992	C :
-3.3480759	g :
-3.2353764	G :
-3.173695	d :
-3.7836688	m :
-2.3690174	R :
-3.7151642	l :
-3.3845677	z :
-3.277369	k :
-2.1297367	S :
-3.4038255	W :
-3.065177	y :
-3.3169026	L :
-4.795161	u :
-3.3393087	A :
-1.5006888	) :
-4.3555264	b :
-2.9030235	K :
-3.3607352	H :
-2.2481606	E :
-2.807146	2 :
-2.775048	0 :
-3.2132175	4 :
-3.7273169	B :
-3.4067228	F :
-3.1056406	N :
-3.1659772	D :
-3.3791769	5 :
-2.7675674	8 :
-2.74805	7 :
-3.2904496	3 :
-2.1208878	Y :
-3.5025277	P :
-3.3137984	6 :
-1.6136408	* :
-1.6926309	<s> P
-2.4615266	I P
-4.531858	n P
-2.2722642	_ P
-4.7815776	a P
-1.6066277	O P
-3.4308803	. P
-5.472851	e P
-2.1105208	" P
-3.45268	T P
-2.7146397	M P
-2.9322677	C P
-3.8054123	' P
-3.0189219	G P
-1.9031951	( P
-2.122589	R P
-2.668388	S P
-2.3687747	W P
-3.361014	L P
-1.0923222	& P
-2.4111943	A P
-2.9827974	K P
-3.61749	H P
-2.0155005	E P
-1.94007	- P
-2.5770092	U P
-2.8249526	B P
-2.9657283	F P
-2.3635173	N P
-2.092327	D P
-2.0765395	{ P
-2.9163785	/ P
-3.254649	Y P
-2.1504514	P P
-3.4264777	J P
-2.006228	X P
-2.8542018	<s> Q
-4.0569224	I Q
-5.502866	n Q
-3.5620112	_ Q
-3.6863685	" Q
-4.1731677	C Q
-4.213763	' Q
-3.0887003	( Q
-3.980721	S Q
-3.5475466	L Q
-3.8765922	A Q
-3.4919767	H Q
-3.483922	E Q
-3.335415	- Q
-2.01502	<s> J
-2.380182	_ J
-2.795906	. J
-5.4562654	r J
-2.6626854	" J
-3.9882038	' J
-1.4729488	( J
-2.063531	R J
-3.388024	S J
-2.8609335	L J
-2.850801	- J
-3.5481453	B J
-3.1606562	D J
-1.9064248	{ J
-2.9971614	/ J
-3.824885	P J
-2.5062761	<s> V
-2.8301013	I V
-3.0125148	_ V
-2.9463475	O V
-3.3345718	. V
-4.7059426	e V
-5.3723874	o V
-3.1661878	" V
-1.7115736	T V
-3.877343	h V
-4.0193477	M V
-3.6292536	C V
-4.0546813	' V
-4.855363	d V
-2.7736135	( V
-3.1050723	R V
-3.6235301	L V
-3.0552025	A V
-3.1046565	H V
-2.8124363	E V
-3.4983816	- V
-2.7404091	U V
-3.5048702	B V
-2.9219728	N V
-3.4901414	D V
-2.2878826	{ V
-3.0097687	/ V
-3.6975589	P V
-2.0906885	Q V
-3.9416451	n ?
-4.6492853	a ?
-4.780528	c ?
-3.8924263	t ?
-4.5013547	. ?
-4.180709	1 ?
-4.209802	r ?
-3.9757435	e ?
-4.64731	v ?
-4.2621837	w ?
-4.4591603	o ?
-4.0114822	f ?
-3.5955243	" ?
-4.243155	h ?
-3.5358527	s ?
-4.446069	p ?
-3.9898489	C ?
-3.833014	g ?
-3.726422	d ?
-3.7990327	m ?
-4.309397	l ?
-3.866162	k ?
-3.6901007	W ?
-3.332738	y ?
-3.5994902	L ?
-4.9564304	u ?
-2.9006262	) ?
-4.6901855	b ?
-3.861041	0 ?
-3.6868794	N ?
-3.900087	5 ?
-2.5169759	? ?
-3.755494	n ;
-4.5325775	a ;
-4.5846043	c ;
-3.8341248	t ;
-3.3298845	. ;
-3.3084574	1 ;
-3.3884614	9 ;
-3.7067704	r ;
-3.7362862	e ;
-5.154084	i ;
-4.411905	w ;
-4.2790427	o ;
-4.6071005	f ;
-3.84186	" ;
-3.524796	h ;
-2.7928934	s ;
-4.3025866	p ;
-3.7956538	C ;
-3.5481515	g ;
-3.5541048	d ;
-3.7157967	m ;
-4.004982	l ;
-3.4796743	z ;
-3.383938	k ;
-3.2059836	y ;
-3.5412161	L ;
-4.7495117	u ;
-3.7829854	A ;
-2.8910565	) ;
-3.069219	E ;
-3.9721215	x ;
-2.6369836	2 ;
-3.1242213	0 ;
-2.472611	4 ;
-2.7220316	5 ;
-2.7385814	8 ;
-2.9700346	7 ;
-1.9856164	% ;
-2.8845024	3 ;
-2.8546553	6 ;
-3.9260645	<s> Z
-3.3371484	I Z
-3.6756074	_ Z
-3.592584	O Z
-4.126483	" Z
-3.603783	T Z
-2.889119	( Z
-2.899386	A Z
-3.75129	E Z
-4.217184	- Z
-3.933789	0 Z
-3.5541883	N Z
-3.8046691	D Z
-3.323678	/ Z
-4.551287	<s> 6
-2.9525743	_ 6
-1.9554766	. 6
-1.4478371	1 6
-1.5391996	9 6
-3.875391	" 6
-3.8462667	C 6
-3.5716193	' 6
-2.9599106	, 6
-3.0227795	- 6
-1.4429412	2 6
-2.1235013	0 6
-1.5355777	4 6
-3.5776012	F 6
-1.7812566	5 6
-1.3473926	8 6
-1.5571012	7 6
-1.2749083	$ 6
-1.5346433	3 6
-3.77141	P 6
-1.4318335	6 6
-4.78992	<s> #
-3.745597	_ #
-3.7671816	<s> X
-3.758563	I X
-4.3846908	_ X
-3.3047214	O X
-4.7966905	. X
-3.929917	T X
-3.8621554	M X
-3.750639	R X
-2.404266	S X
-3.0136526	L X
-2.7931428	A X
-2.5551977	E X
-3.6008475	F X
-3.8136501	P X
-2.464642	V X
-2.1484928	Z X
-2.394834	X X
-4.999033	n !
-5.11199	c !
-4.3572693	t !
-5.4223576	r !
-4.59354	e !
-4.786457	w !
-4.7649646	f !
-4.180875	T !
-5.2266116	h !
-4.7468343	s !
-4.9639835	p !
-4.919806	g !
-4.9775887	d !
-4.7399793	m !
-4.5703588	y !
-3.3422296	K !
-3.9166536	% !
-2.5370362	? !
-1.7386332	! !
-4.396607	- `
-0.5814051	` `
-1.817423	\ *
-5.807973	_ =
-4.8096366	<s> @

\end\
