\data\
ngram 1=35027

\1-grams:
-5.917948	<unk>
0	<s>
-1.3318303	</s>
-2.691358	In
-2.434354	an
-3.4220438	Oct
-4.164129	review
-1.5707154	of
-2.0974083	The
-5.5163684	Misanthrope
-2.2917154	at
-3.5923994	Chicago
-1.9513456	s
-5.1122317	Goodman
-5.268895	Theatre
-5.770891	Revitalized
-5.770891	Classics
-4.997343	Take
-1.3168594	the
-5.5163684	Stage
-1.7491413	in
-5.770891	Windy
-3.7779255	City
-5.5163684	Leisure
-5.050999	Arts
-3.8330536	role
-5.375238	Celimene
-4.2110367	played
-2.2777271	by
-5.1122317	Kim
-5.770891	Cattrall
-2.359697	was
-5.183537	mistakenly
-4.095707	attributed
-1.5839946	to
-5.639908	Christina
-5.5163684	Haag
-3.5748775	Ms
-4.5590672	plays
-5.770891	Elianti
-5.5163684	Rolls
-5.5163684	Royce
-3.9515808	Motor
-5.375238	Cars
-2.8209286	Inc
-2.182739	said
-2.2634294	it
-3.5365493	expects
-2.377738	its
-2.6807594	U
-2.6291637	S
-2.947259	sales
-3.757114	remain
-4.418783	steady
-2.6176422	about
-3.793426	cars
-4.164129	luxury
-3.6777413	auto
-3.468756	maker
-2.9106188	last
-2.459652	year
-3.3369982	sold
-4.541047	Howard
-5.770891	Mosher
-2.980427	president
-1.723278	and
-3.1795454	chief
-3.198376	executive
-3.423388	officer
-2.5075676	he
-4.8674393	anticipates
-3.3538725	growth
-2.0282843	for
-3.8062377	Britain
-3.6496527	Europe
-4.577867	Far
-3.7965937	Eastern
-3.3690467	markets
-5.770891	BELL
-5.268895	INDUSTRIES
-3.5029452	increased
-3.965427	quarterly
-3.0374074	cents
-2.2826643	from
-3.768884	seven
-1.6434376	a
-2.7288609	share
-2.776842	new
-3.149869	rate
-2.4437041	will
-2.3592324	be
-4.4056635	payable
-4.662445	Feb
-2.8189158	A
-3.5748775	record
-4.0311217	date
-3.6429057	hasn
-2.4235816	t
-2.733235	been
-3.5094612	set
-4.1567802	Bell
-3.1563716	based
-3.7236052	Los
-3.7484913	Angeles
-3.6611364	makes
-4.997343	distributes
-4.083227	electronic
-3.3538725	computer
-3.5984006	building
-3.2566423	products
-3.8962111	Investors
-2.3926551	are
-5.268895	appealing
-3.507823	Securities
-3.2763393	Exchange
-3.7513466	Commission
-2.8318238	not
-4.0150557	limit
-2.7073686	their
-4.095707	access
-3.700068	information
-2.7882304	stock
-4.071096	purchases
-3.53134	corporate
-4.8315396	insiders
-3.9846034	SEC
-3.619026	proposal
-4.2110367	ease
-4.3026047	reporting
-4.164129	requirements
-2.823627	some
-2.5345345	company
-3.6254094	executives
-2.626147	would
-4.9495926	undermine
-5.5163684	usefulness
-2.2177615	on
-4.541047	insider
-4.1020837	trades
-2.3026888	as
-4.6181	picking
-4.491081	tool
-3.7997847	individual
-3.1399436	investors
-4.31292	professional
-3.185732	money
-3.7748907	managers
-4.4462757	contend
-3.2811637	They
-3.1614974	make
-4.4462757	argument
-4.392928	letters
-3.4672642	agency
-3.9995625	rule
-3.6318882	changes
-3.6148217	proposed
-2.653395	this
-3.322886	past
-3.925146	summer
-2.0294242	that
-3.4454799	among
-2.7919888	other
-3.7051895	things
-4.491081	exempt
-3.0701628	many
-4.2826815	middle
-3.4140651	management
-3.2880094	own
-3.0179243	companies
-2.866626	shares
-2.7777545	also
-3.8690841	allow
-3.420704	report
-5.1122317	exercises
-3.7182634	options
-3.6127348	later
-3.3337007	less
-3.6611364	often
-3.7997847	Many
-4.0535116	maintain
-3.700068	investor
-4.2453833	confidence
-2.4396324	has
-3.0872056	so
-5.050999	shaken
-2.6274374	market
-3.9002285	crash
-3.4555101	already
-5.5163684	stacked
-3.2378001	against
-3.4747753	little
-4.491081	guy
-3.07076	any
-4.7983823	decrease
-2.9135222	trading
-4.906576	patterns
-3.4075265	might
-4.906576	prompt
-4.089422	individuals
-3.2763393	get
-2.834591	out
-3.1896439	stocks
-4.8674393	altogether
-4.8674393	historically
-3.5748775	paid
-5.770891	obeisance
-4.8674393	ideal
-3.5767899	level
-4.418783	playing
-4.059294	field
-4.1792088	wrote
-5.770891	Clyde
-5.770891	McGregor
-5.770891	Winnetka
-4.4462757	Ill
-2.7343354	one
-3.6406796	received
-3.2668483	since
-2.6783314	were
-4.2453833	Aug
-5.050999	Apparently
-4.1285715	commission
-3.6127348	did
-3.8296096	really
-3.707773	believe
-4.6181	Currently
-3.872857	rules
-3.7400365	force
-3.7871592	directors
-3.6950064	within
-3.109495	month
-2.9463603	after
-3.6801662	transaction
-2.6908593	But
-3.4342935	according
-3.7513466	figures
-4.2925286	file
-3.7748907	reports
-3.4260888	late
-3.7400365	effort
-4.997343	streamline
-3.2325635	federal
-4.6397066	bureaucracy
-3.9042833	boost
-4.6864395	compliance
-2.738209	who
-4.3026047	calling
-5.183537	shots
-4.8674393	Brian
-4.8674393	Lane
-3.720926	special
-4.4056635	counsel
-3.4672642	office
-4.5590672	disclosure
-3.5094612	policy
-2.586174	which
-3.23956	officials
-2.7011995	had
-3.5013313	until
-3.514413	today
-3.6065335	comment
-4.1792088	proposals
-3.2792275	issue
-3.9701421	produced
-2.6619375	more
-4.0257	mail
-2.717319	than
-3.647392	almost
-4.418783	memory
-2.3126929	Mr
-3.7748907	probably
-3.8194387	vote
-3.4153848	early
-3.1637127	next
-4.0535116	Not
-2.8935952	all
-3.2291071	those
-4.541047	oppose
-3.8435524	Committee
-3.4717553	Federal
-5.639908	Regulation
-3.1556444	American
-5.1122317	Bar
-3.7129865	Association
-4.541047	argues
-3.610658	example
-4.906576	lengthy
-3.9797292	letter
-4.2110367	substantially
-4.020345	improve
-3.3934789	law
-5.770891	conforming
-4.020345	closely
-5.1122317	contemporary
-2.9727283	business
-5.183537	realities
-3.7236052	What
-5.1122317	object
-3.029183	most
-2.114585	is
-3.7840595	effect
-2.6412215	they
-3.0786006	say
-2.4617057	have
-3.9995625	ability
-4.334316	spot
-5.770891	telltale
-5.770891	clusters
-3.8962111	activity
-3.4933507	buying
-2.5347083	or
-3.4949353	selling
-3.4220438	director
-3.5543797	short
-3.470253	period
-3.009538	time
-3.9381623	According
-3.8261929	estimates
-3.5094612	cut
-4.5590672	filings
-3.117408	third
-5.268895	vehemently
-4.8315396	disputed
-4.475627	eliminate
-3.5177462	making
-4.432312	divisions
-2.9862921	such
-3.726301	marketing
-3.7965937	finance
-3.5787108	research
-3.7129865	development
-4.662445	tougher
-3.2316968	still
-3.9002285	required
-4.5071063	Companies
-5.268895	compelled
-4.6397066	publish
-3.4981215	annual
-4.8315396	proxy
-4.392928	statements
-4.2544117	names
-4.597518	fail
-5.770891	Considered
-3.9561472	whole
-3.2007883	under
-3.4153848	least
-3.9749093	effective
-3.0205786	if
-3.715617	following
-4.0257	transactions
-3.6232712	Robert
-5.639908	Gabele
-5.5163684	Invest
-4.1217966	Net
-3.812788	North
-4.432312	Miami
-4.432312	Fla
-4.523745	packages
-4.2826815	sells
-3.7236052	data
-5.5163684	worded
-5.639908	vaguely
-3.8653436	key
-3.0248594	may
-4.31292	asking
-4.0366116	require
-4.095707	immediately
-3.2291071	while
-5.375238	regulates
-4.9495926	files
-4.577867	tells
-3.109495	them
-2.935282	when
-3.2493677	do
-3.4855142	want
-3.5580354	change
-4.491081	timing
-3.3239555	should
-4.047805	write
-4.3234863	representatives
-3.4398506	Congress
-3.4301717	added
-3.5094612	likely
-5.770891	amenable
-3.888286	legislation
-5.050999	timely
-3.8228025	basis
-3.6148217	nation
-3.4855142	largest
-4.0421724	pension
-3.4762933	fund
-4.7983823	oversees
-2.6771224	billion
-4.2110367	college
-3.6004195	employees
-3.3447914	plans
-3.3112931	offer
-2.8625364	two
-3.2007883	investment
-2.288842	million
-4.3805556	participants
-5.770891	Teachers
-3.9797292	Insurance
-5.770891	Annuity
-4.738814	College
-5.050999	Retirement
-5.639908	Equities
-4.0098295	Fund
-4.4607034	introduce
-3.4167085	bond
-4.2636323	invest
-5.375238	socially
-4.2278705	responsible
-3.9208925	Both
-3.3196936	funds
-3.2064695	expected
-3.8400245	begin
-3.965427	operation
-3.514413	around
-3.7542207	March
-3.8962111	subject
-3.7871592	approval
-3.2677882	For
-4.0366116	sign
-2.6827118	up
-3.5400574	must
-4.432312	approve
-3.2566423	plan
-3.4315412	Some
-3.9042833	institutions
-3.2899852	part
-4.095707	carry
-3.448322	agreement
-3.888286	pressure
-4.997343	relax
-4.7983823	strict
-4.491081	participation
-3.670547	provide
-3.7809815	reached
-2.3041186	with
-3.9042833	December
-4.2453833	social
-4.1495547	choice
-5.639908	shun
-3.3061242	securities
-4.418783	linked
-3.6496527	South
-4.2193723	Africa
-4.1869497	nuclear
-3.5507545	power
-3.7902813	cases
-4.3234863	Northern
-4.8315396	Ireland
-3.9995625	Also
-5.268895	excluded
-3.847109	investments
-3.8922305	significant
-4.7675776	stemming
-4.392928	weapons
-4.8674393	manufacture
-5.375238	alcoholic
-5.375238	beverages
-4.3568206	tobacco
-5.639908	Sixty
-4.738814	percent
-4.368526	invested
-3.9381623	rest
-3.435676	going
-2.9679852	into
-3.1364532	bonds
-3.3608103	term
-3.1681778	high
-4.31292	grade
-4.475627	medium
-4.142447	mortgages
-3.9381623	asset
-3.757114	backed
-3.3123343	including
-3.1004415	much
-3.3786554	foreign
-3.0792096	buy
-3.2265327	sell
-3.5127563	futures
-3.7372544	contracts
-2.8662527	New
-2.9684572	York
-3.8400245	State
-3.5767899	Department
-3.7997847	Under
-4.5590672	features
-3.6658163	able
-4.3454223	transfer
-4.071096	jobs
-4.8674393	terminated
-3.9166803	receive
-3.3847704	cash
-4.711838	choices
-3.6496527	offered
-3.6801662	currently
-3.8843772	limited
-5.268895	annuity
-5.375238	Brunswick
-5.050999	Scientific
-2.8971872	Co
-4.5071063	biotechnology
-5.183537	instrumentation
-3.7129865	equipment
-4.3568206	adopted
-3.8506954	anti
-3.5330696	takeover
-4.1217966	giving
-3.7236052	shareholders
-3.53134	right
-3.6065335	purchase
-3.4260888	half
-3.0618858	price
-3.5729737	certain
-3.9895327	conditions
-4.2110367	protect
-5.5163684	abusive
-4.8674393	tactics
-3.9895327	W
-5.050999	Ed
-5.183537	Tyler
-2.8625364	years
-3.3218193	old
-3.5729737	senior
-3.3608103	vice
-4.5071063	printing
-3.4301717	concern
-4.020345	elected
-3.670547	technology
-3.1220915	group
-3.6362617	position
-5.375238	Solo
-5.770891	woodwind
-4.171603	players
-4.491081	creative
-3.3186345	work
-3.6496527	lot
-2.9370356	because
-5.639908	repertoire
-4.2544117	audience
-4.2028584	appeal
-5.770891	oboist
-5.268895	Heinz
-5.770891	Holliger
-3.7372544	taken
-3.670547	hard
-3.5227942	line
-3.5787108	problem
-2.9992778	He
-4.368526	commissions
-5.639908	splendidly
-5.770891	interprets
-5.770891	fearsome
-4.7983823	scores
-3.7372544	does
-4.738814	conducting
-3.4153848	doesn
-3.965427	play
-3.451183	same
-5.770891	Mozart
-5.375238	Strauss
-5.770891	concertos
-2.9540582	over
-3.645143	again
-3.8579576	Richard
-4.9495926	Stoltzman
-5.770891	gentler
-4.3805556	friendly
-4.1020837	approach
-5.639908	Years
-3.2197413	ago
-5.639908	collaborated
-4.1948314	music
-5.639908	gurus
-3.9895327	Peter
-5.770891	Serkin
-4.997343	Fred
-5.375238	Sherry
-3.3573275	very
-5.770891	countercultural
-4.662445	chamber
-5.639908	Tashi
-3.4023657	won
-4.7983823	audiences
-5.5163684	dreaded
-3.236923	like
-5.770891	Messiaen
-5.770891	Quartet
-5.050999	End
-3.9846034	Time
-4.2636323	Today
-5.770891	pixie
-5.5163684	clarinetist
-4.1151257	mostly
-3.6658163	dropped
-5.770891	missionary
-3.5507545	though
-4.6397066	touch
-5.5163684	survives
-3.0872056	now
-4.1151257	goes
-4.2826815	road
-4.997343	piano
-5.5163684	bass
-4.3234863	slide
-3.5923994	show
-4.738814	ranges
-3.9995625	light
-5.183537	classical
-5.183537	jazz
-4.6864395	pop
-3.401085	few
-5.268895	notable
-4.906576	exceptions
-4.3568206	Just
-3.8690841	thing
-5.770891	Vivaldi
-5.639908	brunch
-5.5163684	yuppie
-4.906576	embraced
-5.5163684	Age
-4.2110367	easy
-4.8674393	listening
-3.1563716	you
-2.9020236	can
-5.183537	dismiss
-2.7004344	his
-5.5163684	motives
-4.4056635	merely
-3.710372	commercial
-5.5163684	lightweight
-3.9945185	believes
-3.175723	what
-5.770891	superbly
-3.8690841	His
-3.3010159	recent
-4.7983823	appearance
-4.662445	Metropolitan
-4.9495926	Museum
-4.7675776	dubbed
-5.770891	Musical
-5.770891	Odyssey
-3.420704	case
-3.4140651	point
-2.8684978	It
-4.236539	felt
-3.8962111	party
-4.065155	highly
-5.375238	polished
-5.5163684	jam
-3.965427	session
-4.4607034	friends
-5.183537	concert
-5.770891	Clad
-5.268895	trademark
-3.847109	black
-5.5163684	velvet
-3.7129865	suit
-4.1869497	soft
-4.906576	spoken
-3.5453732	announced
-5.639908	album
-5.375238	Inner
-5.639908	Voices
-3.1810837	just
-4.1567802	released
-3.715617	family
-4.2278705	front
-4.662445	row
-4.392928	mother
-5.268895	birthday
-3.338103	her
-4.597518	favorite
-5.1122317	tune
-4.2278705	launched
-5.639908	Saint
-5.639908	Saens
-5.770891	Swan
-4.711838	Carnival
-5.5163684	Animals
-5.770891	encore
-4.2453833	piece
-5.770891	cellists
-5.268895	lovely
-5.183537	glossy
-4.541047	tone
-3.0798194	no
-5.268895	bite
-4.0535116	Then
-2.9684572	could
-3.9995625	fast
-3.2422128	well
-3.3972652	second
-4.2925286	movement
-5.375238	Sonata
-5.770891	Clarinet
-5.639908	whimsical
-5.5163684	puckish
-5.770891	tidbit
-4.2453833	reflected
-5.1122317	flip
-3.9208925	side
-5.268895	personality
-3.1999826	And
-3.8296096	went
-3.1629732	through
-2.9732056	first
-5.770891	ingeniously
-4.738814	chosen
-5.770891	potpourri
-4.541047	pieces
-4.4056635	none
-3.8543112	longer
-3.3050976	five
-4.077119	minutes
-5.375238	disturb
-4.273052	challenge
-5.639908	listener
-4.0257	introduced
-4.368526	colleagues
-4.2925286	Bill
-4.3568206	Douglas
-5.375238	pianist
-5.770891	bassoonist
-5.268895	composer
-5.639908	buddy
-4.7983823	Yale
-5.770891	bassist
-4.997343	Eddie
-5.5163684	Gomez
-3.7779255	An
-5.770891	improvisational
-4.2636323	section
-3.9561472	built
-3.9042833	beginning
-4.4607034	Golden
-5.770891	Rain
-5.770891	lilting
-4.7983823	laid
-3.217222	back
-3.8435524	lead
-5.770891	uptempo
-5.375238	Sky
-4.0150557	gave
-4.1495547	opportunity
-5.770891	wail
-4.997343	register
-3.15783	off
-4.523745	fleet
-5.268895	fingers
-5.639908	Bach
-3.7051895	Air
-3.9995625	followed
-4.3454223	tied
-5.639908	proclaiming
-3.387241	him
-3.8400245	great
-5.770891	improviser
-3.9515808	th
-4.095707	century
-3.381091	then
-4.0421724	image
-4.577867	joining
-5.639908	inventions
-5.5163684	cleverly
-4.6864395	arranged
-5.639908	clarinet
-5.770891	bassoon
-5.375238	Keeping
-4.662445	mood
-5.375238	chanted
-5.770891	chortled
-3.3358963	way
-5.770891	murderous
-5.770891	polyrhythms
-5.1122317	devised
-4.2636323	alternative
-5.770891	Hindemith
-4.906576	dry
-4.4056635	theory
-4.997343	teaching
-4.8674393	techniques
-4.2544117	soared
-5.770891	improvised
-4.541047	tight
-5.770891	Bebop
-5.770891	Etudes
-3.3050976	end
-3.5382998	however
-3.9701421	brought
-4.4462757	standing
-3.9995625	room
-2.958651	only
-4.6181	crowd
-4.2453833	seemed
-4.1285715	waiting
-4.906576	singer
-5.5163684	Judy
-5.050999	Collins
-4.077119	appears
-5.770891	Glamorous
-4.906576	pure
-5.1122317	voiced
-3.793426	ever
-5.1122317	sang
-5.770891	Joni
-4.3234863	Mitchell
-4.8315396	Free
-5.639908	encounter
-4.418783	street
-4.738814	corner
-4.0311217	contributed
-5.770891	obligatto
-5.5163684	lush
-4.2826815	setting
-5.770891	Gaelic
-5.1122317	blessing
-5.375238	Deep
-5.375238	Peace
-4.906576	featured
-2.7115304	but
-5.1122317	predictable
-4.906576	images
-5.1122317	clouds
-5.268895	beaches
-5.770891	deserts
-5.770891	sunsets
-4.9495926	etc
-3.4180362	too
-5.639908	mellow
-4.1217966	believed
-4.5590672	gotten
-3.687523	away
-4.0257	add
-5.183537	signature
-5.5163684	Amazing
-4.7675776	Grace
-4.2193723	ask
-3.2811637	That
-5.268895	permissible
-4.711838	warm
-5.770891	fuzzy
-4.9495926	feelings
-5.268895	Was
-3.9701421	why
-5.639908	departed
-3.2072873	before
-3.3666775	during
-4.432312	Or
-4.2278705	gone
-5.050999	Either
-5.770891	pity
-5.639908	Stolzman
-4.047805	substantial
-4.6181	evening
-5.639908	intermission
-4.5590672	Steve
-5.183537	Reich
-5.639908	Counterpoint
-3.9381623	series
-4.065155	works
-5.770891	juxtapose
-4.1792088	live
-5.183537	performer
-4.3568206	recorded
-4.6864395	tracks
-5.639908	Different
-5.770891	Trains
-4.7675776	string
-5.770891	quartet
-4.2544117	uses
-4.5071063	technique
-5.770891	magisterially
-4.334316	worried
-3.320755	take
-4.368526	warned
-3.6611364	us
-4.2028584	advance
-5.183537	lasts
-5.050999	unfortunately
-5.375238	illustrated
-5.5163684	intricate
-5.770891	jazzy
-5.770891	tapestry
-5.375238	Pearson
-5.770891	geometric
-5.5163684	repeating
-5.5163684	objects
-5.770891	kitschy
-5.770891	mirroring
-4.9495926	musical
-4.1792088	structure
-5.375238	thoroughly
-5.5163684	distracting
-5.1122317	elegant
-4.711838	execution
-4.597518	straight
-4.6864395	sounds
-4.2826815	written
-5.050999	Charlie
-4.7675776	Parker
-5.770891	Ornette
-5.050999	Coleman
-4.6397066	pictures
-5.639908	enjoyable
-4.3454223	hear
-5.268895	accomplished
-3.5365493	without
-3.836525	having
-4.577867	sit
-4.711838	smoke
-4.334316	filled
-4.475627	club
-4.334316	ultimately
-5.770891	forgettable
-4.541047	Is
-3.6542099	future
-4.8674393	Managers
-5.770891	presenters
-4.392928	insist
-5.639908	concerts
-4.738814	enjoy
-5.5163684	purged
-4.662445	threatening
-4.906576	elements
-4.273052	served
-4.597518	sized
-5.770891	morsels
-4.7983823	accompanied
-5.770891	visuals
-5.770891	Slides
-5.050999	illustrate
-5.770891	Shostakovich
-5.770891	quartets
-5.5163684	unpleasant
-4.142447	certainly
-4.7675776	thanks
-3.812788	performance
-5.770891	compositional
-5.268895	talents
-4.491081	obvious
-5.770891	sincerity
-5.268895	chooses
-5.268895	selections
-4.334316	neither
-4.4462757	deep
-4.2636323	nor
-5.050999	lasting
-4.3234863	entertainment
-4.906576	substitute
-5.770891	Brahms
-5.770891	Waleson
-3.6975298	free
-5.183537	lance
-4.5071063	writer
-3.4732628	One
-4.5590672	Ronald
-3.9945185	Reagan
-5.1122317	attributes
-3.5194223	President
-4.662445	rarely
-5.770891	claptrap
-5.183537	passes
-4.4607034	consensus
-4.0098295	various
-3.7456546	international
-3.7182634	fact
-5.639908	liberated
-3.3774426	world
-5.268895	corrupt
-4.475627	organizations
-5.050999	UNESCO
-3.330428	This
-3.5943906	N
-4.2110367	managed
-5.770891	traduce
-4.597518	charter
-4.662445	promoting
-4.236539	education
-4.6397066	science
-4.3454223	culture
-5.050999	Ever
-4.1217966	remaining
-3.6362617	members
-4.997343	desperate
-3.6777413	United
-4.392928	States
-5.5163684	rejoin
-5.770891	dreadful
-3.7400365	Now
-5.639908	apologists
-4.6397066	lobbying
-3.3934789	Bush
-5.770891	renege
-3.6406796	decision
-5.770891	depart
-3.0330017	we
-3.4342935	think
-4.2278705	reasons
-4.047805	stay
-5.183537	foreseeable
-4.089422	beyond
-3.793426	along
-4.31292	Singapore
-3.720926	left
-3.7513466	Western
-5.375238	ideology
-3.2386792	financial
-4.7983823	corruption
-3.5748775	top
-4.2278705	leadership
-3.6950064	got
-3.872857	hand
-3.707773	personal
-5.770891	antics
-4.597518	Director
-5.770891	Amadou
-5.770891	Mahtar
-3.9002285	M
-5.5163684	Bow
-4.6397066	drew
-4.1151257	attention
-3.392224	several
-4.597518	aides
-4.906576	uncovered
-5.050999	KGB
-3.8653436	plants
-5.770891	ejected
-3.925146	France
-5.375238	mysterious
-4.1567802	fire
-3.8962111	sent
-4.9495926	accountants
-5.770891	trace
-4.8674393	extreme
-3.144878	even
-4.597518	replacement
-4.8674393	personally
-5.770891	genial
-4.541047	Spanish
-5.770891	biochemist
-5.770891	Federico
-4.577867	Mayor
-4.095707	success
-5.375238	achieving
-4.392928	reforms
-4.418783	Several
-4.9495926	ridiculous
-3.861635	projects
-3.5111055	continue
-3.4839637	International
-4.4056635	Economic
-4.7675776	Order
-3.872857	means
-5.770891	redistributionism
-3.4997234	West
-3.3596463	pay
-4.142447	everyone
-4.071096	else
-5.770891	statism
-5.770891	Orwellian
-3.793426	World
-4.662445	Information
-3.588444	give
-3.0205786	government
-3.638465	rights
-3.9846034	press
-4.8315396	journalists
-5.183537	obliged
-5.770891	kowtow
-4.9495926	licensing
-5.5163684	censorship
-4.6864395	powers
-4.3454223	indeed
-4.597518	duties
-4.0421724	block
-4.2028584	wrong
-4.491081	ideas
-4.8674393	somehow
-4.597518	converted
-5.050999	founding
-5.639908	ideals
-5.639908	liberty
-5.375238	peoples
-5.770891	Million
-3.4274454	dollar
-5.183537	conferences
-3.5330696	held
-5.268895	chew
-4.7983823	subjects
-5.050999	ethical
-4.711838	responsibilities
-4.2193723	scientists
-3.5598748	support
-5.770891	disarmament
-3.8579576	impact
-4.0366116	activities
-5.770891	transnational
-4.2028584	corporations
-4.5071063	totally
-5.770891	subverted
-4.906576	principles
-4.1354537	Soviets
-4.432312	wonder
-5.770891	congenial
-5.639908	Glasnost
-4.0098295	partly
-3.468756	Soviet
-4.2544117	Foreign
-4.164129	Minister
-5.183537	Eduard
-4.738814	Shevardnadze
-4.597518	admitted
-5.268895	exaggerated
-4.997343	ideological
-5.1122317	undermined
-5.268895	tolerance
-5.639908	intrinsic
-3.6565065	holding
-5.639908	biennial
-4.2925286	meetings
-4.1151257	Paris
-5.183537	devise
-4.0098295	hope
-5.268895	references
-4.5590672	freedom
-4.6864395	survive
-5.770891	unamended
-3.8653436	seems
-5.183537	doomed
-4.1567802	failure
-3.399808	current
-5.770891	phrasing
-5.375238	educating
-3.4101303	public
-3.9561472	media
-4.020345	avoid
-4.906576	manipulation
-4.2636323	replace
-5.770891	cabal
-3.672932	charge
-3.7129865	programs
-3.4778166	former
-3.7026212	head
-4.4607034	African
-3.8062377	military
-5.639908	tribunal
-5.1122317	executions
-4.577867	Polish
-4.711838	communist
-5.268895	exile
-4.9495926	directs
-4.0311217	human
-4.475627	peace
-3.6900032	division
-4.164129	Of
-3.8843772	staff
-3.7840595	working
-3.9895327	actual
-5.639908	literacy
-5.639908	oceanographic
-3.6658163	once
-3.73449	budget
-3.9701421	nothing
-3.9294415	changed
-3.5400574	John
-5.770891	Bolton
-4.2826815	assistant
-4.071096	secretary
-3.1927989	state
-3.6565065	told
-3.9515808	continuing
-5.639908	statist
-4.997343	restrictive
-5.639908	nondemocratic
-5.770891	rejoining
-3.731743	soon
-4.273052	extremely
-4.3234863	unlikely
-5.183537	bothered
-5.375238	delegates
-3.076173	week
-3.7542207	couldn
-4.2110367	agree
-3.731743	raise
-4.7983823	fancy
-3.8296096	French
-5.770891	chateau
-3.861635	owns
-3.925146	Other
-3.7965937	countries
-3.7542207	Germany
-5.770891	justifying
-3.715617	continued
-4.31292	membership
-3.1704276	We
-3.5013313	see
-4.2544117	stronger
-5.770891	unsurprising
-4.164129	reform
-5.268895	Revolution
-5.639908	spanning
-5.268895	Tiananmen
-4.7983823	Square
-3.9701421	shows
-5.5163684	unencumbered
-4.047805	civil
-5.375238	servants
-5.639908	functionaries
-4.7983823	minds
-4.2193723	elections
-5.770891	muddled
-4.491081	delivered
-3.872857	course
-3.1872923	made
-3.888286	largely
-4.334316	governments
-4.0535116	fear
-3.3123343	these
-3.4965253	home
-5.770891	Babelists
-5.1122317	Nations
-4.1567802	experts
-5.5163684	obfuscation
-4.4462757	purposes
-3.6681752	times
-3.0810418	there
-3.861635	reason
-5.183537	cloud
-4.577867	importance
-5.5163684	allure
-5.639908	concepts
-4.906576	justice
-4.5071063	plenty
-4.9495926	Researchers
-4.6864395	Plant
-5.1122317	Genetic
-3.9294415	Systems
-4.334316	V
-4.8674393	Belgium
-3.965427	developed
-4.418783	genetic
-4.164129	engineering
-4.368526	creating
-4.711838	hybrid
-3.4384546	number
-4.8315396	crops
-4.142447	researchers
-4.906576	isolated
-3.5543797	plant
-4.1495547	gene
-5.183537	prevents
-3.4747753	production
-5.050999	pollen
-4.2193723	thus
-4.1285715	prevent
-5.770891	fertilizing
-3.731743	itself
-4.1285715	Such
-3.376233	called
-4.597518	male
-5.183537	sterile
-5.375238	fertilized
-3.386004	another
-4.7983823	strain
-4.906576	thereby
-4.1354537	producing
-4.577867	seed
-4.236539	generation
-5.375238	possess
-5.639908	flourishing
-5.375238	trait
-3.6850567	known
-5.5163684	vigor
-3.768884	similar
-3.861635	seen
-4.31292	corn
-4.5071063	dramatic
-4.491081	farm
-3.8296096	especially
-4.711838	cotton
-4.997343	Murray
-4.8674393	Robinson
-4.597518	Delta
-5.5163684	Pine
-4.7983823	Land
-5.770891	Southwide
-3.707773	subsidiary
-3.8543112	producers
-3.582578	On
-4.273052	scale
-5.770891	sterilization
-4.432312	achieved
-5.5163684	sorghum
-4.7983823	feed
-5.770891	grains
-5.770891	tassel
-4.7983823	female
-5.5163684	ear
-4.4607034	distance
-4.4607034	apart
-3.8161006	labor
-4.906576	intensive
-3.8161006	process
-5.770891	tassels
-3.382314	each
-5.639908	sow
-5.5163684	fertile
-4.738814	nearby
-5.639908	pollinate
-4.738814	seeds
-3.7902813	using
-5.5163684	mechanical
-5.183537	yielded
-4.8315396	naturally
-5.5163684	pollinated
-4.523745	vast
-3.8843772	majority
-4.432312	crop
-4.334316	grown
-4.392928	impossible
-4.392928	apply
-5.183537	soybeans
-4.7675776	rice
-5.375238	anthers
-5.770891	pistils
-4.997343	fraction
-4.6397066	inch
-4.577867	attached
-3.9083765	difficult
-5.639908	clip
-3.73449	China
-3.6362617	workers
-4.475627	engaged
-4.8315396	pulling
-5.5163684	organs
-5.770891	tweezers
-3.521105	country
-3.4023657	At
-5.639908	inhibiting
-5.268895	inserted
-5.5163684	confer
-5.770891	sterility
-4.2193723	Jan
-5.5163684	Leemans
-4.711838	successfully
-3.419368	oil
-5.770891	rapeseed
-3.165196	major
-3.768884	Canada
-4.065155	carrier
-5.268895	promoter
-4.738814	Goldberg
-3.812788	University
-3.4260888	California
-5.5163684	sterilizing
-4.31292	expressed
-4.0257	develop
-5.770891	deactivates
-3.700068	every
-5.268895	flower
-3.9166803	hurt
-4.368526	pulled
-5.5163684	trick
-3.6406796	order
-3.514413	large
-3.6658163	enough
-4.108556	numbers
-3.9083765	produce
-5.268895	herbicide
-4.4056635	resistance
-4.334316	genes
-4.8674393	greenhouse
-3.9945185	allowed
-4.6864395	mature
-4.142447	laws
-5.639908	heredity
-5.5163684	dictate
-5.5163684	springing
-4.8315396	resistant
-5.1122317	susceptible
-4.7983823	application
-4.4056635	kill
-4.2278705	leaving
-4.3805556	cross
-5.770891	rapeseeds
-3.9381623	created
-3.3282597	yield
-4.108556	output
-5.639908	strains
-3.3774426	used
-5.183537	applicable
-3.8194387	wide
-4.4462757	variety
-5.1122317	modifications
-4.089422	necessary
-4.738814	accommodate
-5.770891	peculiarities
-4.273052	type
-5.375238	experimenting
-5.770891	alfalfa
-3.6340694	include
-4.2278705	virtually
-5.268895	planted
-5.5163684	hybrids
-5.770891	obviate
-3.5923994	need
-5.770891	emasculation
-3.3786554	costs
-4.1869497	annually
-3.5943906	demand
-5.1122317	spurred
-4.0535116	chemical
-5.1122317	Monsanto
-4.523745	Shell
-4.2193723	Oil
-4.711838	Eli
-4.4607034	Lilly
-4.711838	involves
-5.5163684	spray
-4.334316	supposed
-3.4793453	problems
-5.639908	sprays
-4.9495926	damaging
-5.639908	reproductive
-5.770891	toxicity
-4.8674393	humans
-4.711838	animals
-4.8674393	beneficial
-5.5163684	insects
-3.7513466	However
-3.861635	Paul
-5.770891	Johanson
-5.5163684	sciences
-5.770891	overcomes
-5.375238	gentle
-5.268895	organ
-5.639908	Biosource
-5.050999	Genetics
-2.7945127	Corp
-5.770891	Vacaville
-3.7372544	Calif
-4.1285715	developing
-4.8315396	containing
-4.9495926	spreads
-4.577867	cell
-5.770891	interferes
-5.770891	gametocide
-4.3805556	carried
-4.7675776	virus
-3.8228025	remains
-3.8962111	active
-3.2404423	days
-5.639908	Erwin
-4.662445	interesting
-4.541047	novel
-5.639908	complementary
-3.7997847	rather
-4.1354537	competitive
-3.448322	There
-5.050999	hungry
-4.1285715	producer
-4.368526	Scott
-4.6397066	Miss
-5.1122317	genetically
-4.711838	engineered
-5.770891	steriles
-4.7675776	automatically
-4.108556	mean
-4.31292	simple
-4.0535116	create
-5.639908	pollination
-4.662445	wind
-4.171603	complex
-4.3454223	carriers
-5.770891	sterilize
-4.5590672	Nevertheless
-4.2278705	negotiating
-3.861635	acquire
-3.8579576	try
-4.9495926	breeding
-4.7675776	bitter
-4.5590672	conflict
-4.2110367	global
-4.6397066	implications
-5.183537	erupted
-3.2557263	between
-4.491081	Nomura
-3.93378	Industrial
-3.376233	Bank
-3.3358963	Japan
-4.1217966	powerful
-5.050999	clash
-5.770891	toughness
-5.639908	divisiveness
-5.639908	cozy
-4.9495926	circles
-4.171603	putting
-4.334316	enormous
-4.906576	clout
-4.1567802	increasingly
-3.3459163	re
-5.5163684	squaring
-4.6181	unprecedented
-4.4056635	fashion
-4.6181	Already
-4.597518	consequences
-3.3020327	being
-4.3568206	triggered
-3.5984006	latest
-5.770891	skirmish
-4.475627	Zealand
-4.523745	attempting
-5.5163684	organize
-3.40365	yen
-4.4607034	borrowing
-3.2744246	Japanese
-3.3972652	banks
-3.7129865	led
-5.375238	pressuring
-4.7675776	Wellington
-3.4855142	help
-4.491081	recover
-3.468756	loans
-5.050999	defunct
-3.2621796	bank
-3.6406796	owned
-3.5904171	service
-5.770891	Unwilling
-3.470253	put
-4.597518	debts
-4.9495926	repaid
-4.3234863	refused
-4.3568206	administrative
-5.1122317	roles
-3.6900032	financing
-4.662445	forcing
-5.183537	embarrassed
-4.906576	postpone
-4.1792088	dispute
-4.2193723	clearly
-5.5163684	titans
-4.906576	Aside
-4.597518	injured
-4.7983823	pride
-3.757114	biggest
-4.6864395	victim
-3.4220438	far
-5.770891	Barred
-3.757114	domestic
-3.3835406	issues
-5.375238	Debt
-3.9995625	Management
-4.1151257	Office
-4.8315396	casting
-4.2544117	abroad
-3.687523	dollars
-4.0535116	US
-5.770891	NZ
-4.020345	needs
-3.5673115	come
-3.602448	fiscal
-3.6950064	June
-3.7428365	With
-5.268895	flush
-5.183537	aligned
-4.059294	raising
-4.108556	bankers
-3.561722	here
-4.2193723	underwriters
-5.639908	Eurobond
-4.9495926	scuttle
-4.738814	borrowings
-4.3234863	minister
-3.73449	David
-5.770891	Caygill
-5.770891	lashed
-4.6864395	suggestions
-4.3234863	reporters
-3.6777413	Tuesday
-4.1354537	hadn
-4.4607034	guaranteed
-5.268895	DFC
-3.5382998	Ltd
-3.386004	National
-5.268895	Provident
-3.6975298	wouldn
-5.050999	bail
-4.662445	Radio
-2.8412344	I
-4.906576	irresponsible
-4.31292	am
-5.770891	blackmailed
-3.7997847	interests
-3.7372544	No
-3.9470615	attempt
-4.7675776	confrontation
-3.731743	banking
-4.1151257	industries
-5.770891	Anxiety
-4.020345	rising
-4.1869497	eventually
-3.317578	lower
-4.6397066	barriers
-3.9895327	separate
-4.2636323	sides
-5.375238	jealously
-5.639908	guarding
-4.9495926	turf
-4.1948314	relations
-5.770891	flashpoint
-3.1042984	months
-4.3805556	badly
-4.142447	break
-4.5590672	aspects
-3.8690841	Meanwhile
-3.9083765	smaller
-3.8400245	seeking
-4.662445	kinds
-3.726301	open
-3.6362617	full
-5.268895	brunt
-3.8843772	competition
-5.5163684	virtue
-4.577867	protected
-5.050999	innovative
-4.3026047	aggressive
-3.352727	capital
-5.268895	captain
-4.8674393	opposing
-5.5163684	suspicions
-3.6681752	run
-3.3550212	both
-4.1354537	tried
-4.6397066	stretch
-4.368526	limits
-3.5471594	businesses
-3.847109	started
-3.5111055	credit
-4.3026047	card
-3.7542207	venture
-4.020345	Express
-5.770891	cardholders
-3.4023657	use
-3.861635	accounts
-3.7236052	account
-4.738814	attracting
-5.770891	wrath
-3.5748775	London
-3.6975298	non
-3.9749093	overseas
-3.4526205	move
-5.5163684	stirred
-4.906576	anger
-3.8261929	brokerage
-3.53134	firms
-3.8922305	simply
-3.707773	face
-5.770891	ITEL
-4.4462757	CORP
-3.3196936	reported
-2.8734026	quarter
-3.134372	earnings
-4.2453833	shown
-5.375238	Quarterly
-4.6397066	Earnings
-5.639908	Surprises
-4.3805556	table
-3.144878	yesterday
-4.4462757	edition
-3.3847704	average
-3.3040738	analysts
-4.089422	pretax
-5.268895	Itel
-3.9561472	actually
-3.303052	higher
-4.577867	Raymond
-3.9515808	E
-4.334316	Ross
-4.3805556	formerly
-4.5071063	plastics
-4.491081	machinery
-3.9515808	machine
-5.268895	robots
-3.6406796	named
-3.7997847	industrial
-3.7600267	systems
-4.5590672	succeeding
-5.770891	Entrekin
-4.0257	resigned
-3.4965253	Monday
-5.375238	Conlon
-3.9797292	Jr
-4.020345	managing
-3.687523	equity
-4.432312	syndicate
-4.577867	Rothschild
-4.906576	Nikko
-3.3947375	As
-5.639908	Yogi
-5.639908	Berra
-5.639908	deja
-5.639908	vu
-5.770891	Crouched
-5.770891	shortstop
-5.268895	Bert
-5.375238	Campaneris
-4.2028584	Oakland
-4.6397066	master
-5.5163684	thief
-5.639908	effortlessly
-5.639908	scoops
-5.770891	groundball
-5.770891	flips
-5.639908	outfield
-4.906576	Blair
-5.770891	Orioles
-3.8653436	eight
-4.541047	Gold
-5.770891	Glove
-4.8674393	winner
-5.770891	elegantly
-5.770891	shags
-4.3805556	fly
-5.375238	mound
-4.2278705	Red
-5.5163684	Sox
-5.1122317	Luis
-5.639908	Tiant
-5.770891	wily
-3.9797292	moves
-5.050999	throws
-4.1948314	speed
-3.9701421	strike
-5.770891	Babies
-5.639908	kiddies
-5.770891	growls
-3.7290134	manager
-4.4056635	fellow
-5.268895	Earl
-5.5163684	Weaver
-3.8435524	different
-4.541047	handled
-3.3972652	four
-3.8228025	Series
-4.5071063	teams
-4.997343	handles
-4.392928	Coast
-5.5163684	Suns
-4.5590672	Old
-2.62938	says
-4.4056635	Perhaps
-5.1122317	boys
-5.639908	summers
-3.2548122	long
-5.770891	reveling
-4.3568206	Indian
-5.268895	soul
-4.2193723	baseball
-4.083227	season
-4.7983823	officially
-4.738814	debut
-5.268895	Senior
-4.6864395	Professional
-5.375238	Baseball
-3.8261929	team
-4.047805	pro
-4.108556	sports
-4.577867	circuit
-5.375238	modeled
-4.171603	successful
-5.183537	tennis
-4.738814	golf
-5.268895	tours
-4.1285715	complete
-3.3897254	good
-4.7675776	salaries
-4.059294	cable
-3.8261929	television
-3.435676	contract
-4.1354537	expansion
-4.523745	hundred
-5.770891	ninety
-5.5163684	greats
-3.7840595	near
-4.5071063	hardly
-5.770891	knowns
-5.5163684	unknowns
-3.9294415	game
-3.0922003	three
-4.0311217	spring
-4.2636323	training
-5.268895	stadiums
-3.0578058	down
-4.1792088	Florida
-3.847109	involved
-5.770891	swig
-5.639908	elixir
-4.9495926	youth
-5.268895	Someone
-3.872857	always
-4.711838	quit
-5.050999	legendary
-4.2028584	St
-4.3234863	Louis
-5.770891	Cardinals
-5.639908	centerfielder
-5.770891	Curt
-5.770891	Flood
-4.6181	league
-4.738814	commissioner
-3.7542207	You
-3.9797292	feel
-5.268895	bat
-3.7997847	hit
-4.3805556	Until
-4.662445	baby
-4.392928	faced
-5.1122317	heroes
-5.268895	reclaim
-5.770891	ballparks
-5.770891	loving
-3.8435524	lawyers
-3.3608103	real
-3.4997234	estate
-4.475627	developers
-5.770891	ponied
-4.059294	chance
-4.108556	owner
-4.0150557	step
-4.8315396	shoes
-5.050999	Gene
-5.639908	Autry
-4.3568206	beer
-5.770891	Rollie
-5.5163684	Fingers
-4.738814	Nothing
-3.6340694	better
-4.4607034	Don
-5.639908	Sider
-5.268895	Palm
-4.4607034	Beach
-5.5163684	Tropics
-4.6864395	Early
-3.9945185	morning
-4.0535116	lawyer
-5.639908	pores
-5.770891	wills
-5.770891	testaments
-5.770891	Midmorning
-5.5163684	dons
-5.5163684	orange
-4.164129	blue
-4.9495926	uniform
-4.8315396	fun
-5.770891	bunt
-4.906576	Dave
-5.770891	Kingman
-4.491081	fans
-4.6864395	dream
-3.7051895	never
-4.6397066	ends
-5.268895	kid
-5.770891	gleeful
-4.6181	Alex
-3.965427	de
-5.1122317	Castro
-3.66347	car
-4.7983823	salesman
-4.236539	stopped
-5.183537	workout
-4.7675776	slip
-3.4075265	six
-4.541047	cards
-4.1869497	Great
-5.050999	Man
-5.770891	Himself
-5.5163684	autographed
-5.375238	promoters
-5.5163684	retirees
-4.577867	tourists
-4.31292	join
-4.5590672	die
-4.8674393	pack
-4.4607034	stands
-5.375238	seniors
-5.639908	brainchild
-4.577867	Colorado
-4.418783	developer
-3.6826046	James
-5.770891	Morley
-4.2110367	minor
-5.770891	leaguer
-3.9561472	himself
-4.0150557	idea
-3.9945185	January
-5.050999	lying
-4.9495926	beach
-4.020345	Australia
-3.5525634	When
-3.4793453	offering
-4.5071063	retired
-5.770891	leaguers
-4.5071063	responded
-4.8674393	Eventually
-4.418783	trip
-4.4607034	compete
-3.757114	available
-5.770891	slots
-5.5163684	Players
-4.3026047	older
-4.2278705	except
-5.770891	catchers
-4.7675776	eligible
-3.5729737	life
-3.9607623	behind
-4.906576	plate
-4.7675776	rough
-4.9495926	lure
-4.597518	Others
-5.268895	majors
-4.475627	bridge
-3.2744246	big
-5.770891	hurl
-5.770891	fireballs
-5.770891	smolder
-5.375238	burn
-5.770891	relive
-5.770891	duels
-4.9495926	sun
-3.7871592	clear
-5.5163684	cheer
-5.639908	recapture
-5.770891	camaraderie
-4.9495926	seasons
-4.31292	prove
-3.8690841	themselves
-3.8194387	something
-3.4370632	close
-4.31292	My
-5.5163684	fastball
-4.541047	Real
-5.268895	Pete
-5.5163684	Broberg
-5.1122317	midday
-4.3026047	heat
-5.268895	camp
-3.638465	Washington
-5.1122317	Senators
-4.4056635	looked
-4.662445	ignored
-4.273052	pages
-3.6826046	claims
-3.93378	d
-4.3234863	easily
-5.183537	nagging
-4.1495547	afternoon
-5.770891	fourteen
-4.738814	drove
-4.491081	Jim
-5.639908	Gideon
-4.8674393	lean
-5.770891	righthander
-4.004666	leave
-3.442656	insurance
-3.6065335	Texas
-5.268895	pitching
-5.1122317	proves
-3.812788	me
-4.7675776	stayed
-4.2028584	healthy
-4.738814	Back
-4.3454223	thirds
-5.5163684	innings
-5.770891	Rangers
-3.7400365	White
-4.577867	hits
-4.997343	walked
-3.3550212	didn
-5.770891	Arm
-4.392928	troubles
-3.9607623	forced
-5.770891	minors
-4.738814	satisfaction
-4.0421724	offers
-4.8315396	Will
-5.639908	McEnaney
-5.639908	stopper
-4.4607034	Cincinnati
-3.6362617	Big
-5.268895	Machine
-4.3805556	player
-3.93378	age
-3.7902813	These
-5.770891	hustles
-3.7965937	house
-4.597518	painting
-4.997343	Chevy
-4.906576	pickup
-3.6519253	While
-5.770891	sipping
-4.083227	practice
-5.268895	vividly
-5.375238	recounts
-3.707773	getting
-4.523745	Carl
-5.770891	Yastrzemski
-5.183537	feat
-5.770891	Yankees
-4.5590672	Roy
-5.5163684	reigning
-5.5163684	philosophers
-5.268895	dislike
-4.906576	aged
-3.9381623	men
-4.047805	young
-3.8690841	man
-4.738814	sport
-3.2548122	don
-4.4462757	seeing
-4.662445	remember
-3.9701421	running
-5.770891	gallant
-5.268895	deficiencies
-4.5590672	Roger
-5.5163684	Angell
-5.268895	Yorker
-3.8653436	magazine
-5.183537	resident
-5.770891	sage
-3.1042984	people
-5.1122317	Worse
-4.4462757	author
-4.3454223	Lawrence
-5.770891	Ritter
-4.1567802	heart
-4.368526	attack
-3.9995625	story
-5.770891	ballplayers
-4.8315396	disagree
-3.7997847	Most
-4.8674393	trim
-3.645143	others
-3.5330696	recently
-4.3568206	status
-4.065155	worked
-4.0311217	appear
-3.5453732	m
-3.7718768	look
-5.183537	stupid
-5.639908	vows
-4.2925286	Pittsburgh
-5.770891	Pirate
-5.639908	baseman
-5.770891	Rennie
-5.770891	Stennett
-5.1122317	sweat
-5.770891	dotting
-5.375238	brow
-4.997343	prepares
-4.2925286	swings
-4.0535116	tough
-4.541047	promises
-5.375238	malice
-5.1122317	Men
-4.368526	lives
-3.602448	aren
-5.050999	habits
-4.9495926	Nonetheless
-3.5227942	whether
-4.142447	bit
-4.5590672	slower
-5.770891	weatherbeaten
-5.770891	Pompano
-4.236539	municipal
-4.7983823	stadium
-5.770891	Oriole
-4.3568206	knows
-3.3654976	isn
-3.6975298	So
-5.639908	adjusts
-5.5163684	crowds
-4.541047	thinking
-4.1948314	runs
-4.711838	anymore
-3.9083765	base
-3.8962111	Still
-3.3774426	how
-4.906576	sweet
-5.770891	savoring
-4.6181	fat
-4.3454223	sound
-4.047805	drive
-5.5163684	bounces
-3.9166803	center
-4.541047	wall
-3.6254094	expect
-4.392928	games
-5.5163684	pitchers
-4.0535116	perhaps
-5.375238	laughs
-5.639908	reliever
-5.5163684	Expect
-5.1122317	tricky
-4.523745	stuff
-5.770891	brushbacks
-5.770891	beanballs
-3.8062377	Even
-4.662445	stolen
-4.6397066	bases
-5.639908	wiry
-4.475627	fit
-3.3459163	If
-3.58648	know
-5.770891	fastballs
-4.597518	concedes
-5.639908	cigar
-5.770891	chomping
-4.7675776	throwing
-5.183537	mph
-4.711838	throw
-4.059294	plus
-5.5163684	haired
-5.770891	Pedro
-5.770891	Ramos
-5.268895	oldest
-5.268895	pitcher
-5.050999	coach
-3.7182634	lost
-5.770891	Stuffing
-5.183537	wad
-5.268895	cheek
-4.662445	admits
-3.5748775	become
-5.770891	slowball
-3.9995625	Its
-4.392928	maximum
-5.639908	velocity
-4.9495926	compensate
-5.770891	guile
-4.418783	learned
-3.53134	control
-3.6826046	keep
-4.9495926	ball
-3.7182634	After
-4.491081	love
-4.1567802	experience
-5.5163684	Alltel
-5.5163684	Pond
-5.770891	Branch
-4.2925286	Telephone
-4.4462757	Company
-4.432312	cellular
-4.368526	franchise
-4.3568206	Terms
-3.8543112	weren
-3.872857	disclosed
-3.9995625	holds
-3.331516	operations
-5.770891	Aiken
-3.5279014	C
-5.770891	Augusta
-4.8315396	Ga
-4.0311217	provides
-3.707773	local
-3.93378	telephone
-3.8161006	states
-4.9495926	exercised
-4.997343	refusal
-4.906576	undisclosed
-4.906576	Stewart
-5.375238	Stevenson
-4.0257	Services
-4.418783	totaling
-3.8296096	build
-3.6588154	gas
-5.183537	turbine
-5.375238	generators
-5.639908	Paragould
-5.375238	Light
-4.8315396	Water
-4.273052	utility
-4.997343	Ark
-5.050999	PSE
-5.183537	cogeneration
-4.3234863	operator
-4.1567802	Houston
-4.906576	powered
-5.268895	diesel
-5.268895	turbines
-5.183537	Liberty
-4.738814	Bancorp
-3.6542099	acquisition
-5.375238	Florence
-4.7983823	Deposit
-4.6181	Ky
-3.8579576	April
-3.8194387	completed
-4.0421724	valued
-5.050999	exchanged
-3.3884814	common
-3.672932	outstanding
-3.4274454	assets
-4.8315396	exceeding
-5.770891	Hani
-5.639908	Zayadi
-4.273052	appointed
-4.577867	financially
-4.171603	troubled
-3.8095005	department
-3.9208925	store
-4.0150557	chain
-3.5507545	Nov
-4.1792088	Frank
-4.6864395	Robertson
-4.8315396	retiring
-3.8161006	previously
-3.4526205	operating
-5.770891	Zellers
-3.8543112	retail
-4.1567802	Toronto
-4.6864395	Hudson
-3.7840595	Bay
-3.700068	October
-3.089072	interest
-3.2687302	rates
-3.757114	below
-4.523745	guide
-3.5094612	general
-3.8296096	levels
-4.3026047	represent
-4.6397066	PRIME
-4.597518	RATE
-4.3805556	FEDERAL
-4.711838	FUNDS
-3.5691907	low
-3.9470615	closing
-3.3436694	bid
-4.8674393	Reserves
-3.9125085	traded
-4.5071063	overnight
-4.089422	amounts
-4.368526	Source
-4.906576	Fulton
-4.9495926	Prebon
-4.9495926	DISCOUNT
-4.8315396	depository
-3.93378	Reserve
-4.9495926	CALL
-4.906576	MONEY
-3.9125085	brokers
-3.401085	exchange
-4.6181	collateral
-4.6397066	COMMERCIAL
-4.6397066	PAPER
-4.2028584	placed
-3.9607623	directly
-3.610658	General
-4.059294	Motors
-4.7983823	Acceptance
-4.392928	High
-4.392928	unsecured
-3.5525634	notes
-3.888286	dealers
-4.906576	multiples
-4.9495926	CERTIFICATES
-4.711838	OF
-4.9495926	DEPOSIT
-3.9208925	Average
-4.1869497	primary
-4.8674393	negotiable
-3.5160766	D
-3.942589	usually
-3.9607623	minimum
-3.213055	unit
-4.7983823	Typical
-4.4056635	secondary
-4.9495926	BANKERS
-4.9495926	ACCEPTANCES
-4.9495926	Negotiable
-4.3234863	instruments
-4.1354537	typically
-4.3805556	import
-4.6397066	LONDON
-4.9495926	LATE
-4.9495926	EURODOLLARS
-4.9495926	INTERBANK
-4.9495926	OFFERED
-4.6397066	RATES
-4.8315396	LIBOR
-4.7983823	interbank
-4.2278705	deposits
-4.577867	quotations
-4.906576	FOREIGN
-4.3026047	Switzerland
-4.597518	indications
-4.273052	comparable
-4.164129	lending
-4.236539	practices
-4.523745	vary
-4.071096	widely
-4.5071063	location
-4.997343	TREASURY
-4.997343	BILLS
-4.597518	Results
-3.8506954	auction
-3.7428365	bills
-4.0150557	discount
-3.435676	value
-3.700068	units
-3.5562038	weeks
-4.9495926	HOME
-4.906576	LOAN
-4.6181	MORTGAGE
-4.4056635	Freddie
-4.368526	Mac
-4.6397066	Posted
-3.942589	yields
-3.8062377	mortgage
-4.2925286	commitments
-3.965427	delivery
-3.9797292	standard
-4.2278705	conventional
-3.925146	fixed
-4.541047	capped
-4.6181	adjustable
-4.3454223	Telerate
-4.8315396	NATIONAL
-4.906576	ASSOCIATION
-4.273052	Fannie
-4.171603	Mae
-3.5382998	priced
-4.083227	par
-4.9495926	MERRILL
-4.9495926	LYNCH
-4.906576	READY
-4.9495926	ASSETS
-4.8674393	TRUST
-4.8315396	Annualized
-3.638465	return
-4.004666	expenses
-4.1285715	forecast
-3.9294415	returns
-4.31292	gross
-3.602448	product
-3.0934582	rose
-3.672932	inflation
-4.095707	adjusted
-3.5261922	August
-4.2278705	mainly
-3.5543797	result
-3.1826277	industry
-4.6181	Statistics
-5.375238	GDP
-3.0878267	earlier
-3.5111055	total
-3.7718768	goods
-3.534806	services
-3.645143	July
-5.183537	Output
-4.171603	Separately
-3.3250275	index
-3.4613473	September
-4.2925286	consecutive
-4.1495547	monthly
-3.582578	decline
-4.491081	raw
-4.171603	materials
-3.93378	Columbia
-4.6181	Pictures
-4.1495547	Entertainment
-4.9495926	recreational
-3.5673115	Dow
-3.58064	Jones
-4.6397066	Equity
-4.1217966	Market
-4.0098295	Index
-3.8228025	acquired
-3.9945185	Sony
-3.965427	People
-4.1567802	Savings
-3.8400245	Financial
-5.050999	undervalued
-5.050999	unfairly
-4.2278705	associated
-4.2544117	England
-3.6406796	loan
-3.504565	losses
-4.2925286	quarters
-4.3805556	exposure
-3.7513466	construction
-3.9166803	caused
-3.322886	loss
-4.3805556	seat
-4.5590672	Mercantile
-3.670547	previous
-3.320755	sale
-4.997343	Seats
-4.004666	quoted
-3.7428365	asked
-4.491081	surprise
-3.3947375	British
-4.523745	cleared
-4.1285715	bidding
-4.0150557	war
-3.6542099	Jaguar
-3.9208925	PLC
-4.711838	agreeing
-4.541047	remove
-4.906576	obstacle
-4.1354537	Trade
-4.2544117	Industry
-4.047805	Secretary
-4.597518	Nicholas
-4.997343	Ridley
-3.3261023	House
-5.050999	Commons
-5.375238	relinquish
-4.541047	golden
-5.268895	restricts
-4.577867	expires
-3.66347	best
-4.8315396	assured
-4.164129	present
-4.597518	climate
-4.2110367	uncertainty
-4.523745	resolved
-3.8766634	quickly
-3.6340694	possible
-4.997343	fires
-4.2028584	starting
-5.639908	pistol
-4.3026047	costly
-4.662445	contest
-4.662445	giants
-3.872857	leading
-3.610658	Ford
-3.6777413	trying
-5.375238	amass
-4.491081	stakes
-4.997343	unwelcome
-4.1567802	prepared
-4.089422	entire
-5.268895	lobbied
-4.5590672	lift
-4.1285715	restrictions
-3.793426	GM
-4.4607034	involve
-3.7840595	joint
-4.171603	ventures
-4.8674393	eventual
-3.4440656	stake
-3.7129865	action
-4.3805556	caught
-3.965427	flat
-5.639908	footed
-4.1567802	minority
-3.6127348	deal
-4.083227	fight
-3.9846034	let
-4.2193723	Stephen
-5.1122317	Reitman
-3.647392	European
-3.5029452	analyst
-5.050999	UBS
-4.1869497	Phillips
-5.1122317	Drew
-3.9797292	sure
-4.906576	imminent
-5.375238	skyrocketed
-3.93378	announcement
-4.2278705	temporary
-4.541047	suspension
-3.3884814	Stock
-5.268895	whopping
-4.1217966	pence
-3.5691907	gain
-3.7965937	heavy
-3.5984006	volume
-3.888286	counter
-5.639908	Depositary
-5.639908	Receipts
-3.3459163	closed
-3.8962111	Analysts
-3.9470615	initial
-4.171603	values
-5.375238	Speculation
-4.7675776	soaring
-5.375238	languishing
-3.710372	Sept
-4.491081	driving
-4.1792088	moment
-4.7983823	observed
-4.4607034	Bob
-5.183537	Barber
-4.8315396	Capel
-3.9607623	white
-4.8315396	knight
-5.770891	countermove
-3.965427	hopes
-3.888286	independent
-4.0421724	willing
-3.9895327	Because
-4.738814	longstanding
-5.375238	rivalry
-3.8435524	wants
-4.541047	pays
-3.847109	huge
-5.5163684	packet
-4.059294	Lawson
-4.1217966	Research
-3.8690841	Institute
-3.7809815	talks
-3.4555101	agreed
-4.5071063	shut
-3.7718768	either
-5.770891	shootout
-4.171603	town
-4.108556	person
-4.077119	Another
-4.738814	justify
-4.0098295	paying
-4.9495926	silly
-3.7542207	start
-3.7484913	statement
-3.4153848	board
-5.5163684	consulted
-4.392928	surprised
-4.9495926	emphasized
-3.7400365	holders
-4.2826815	representing
-4.392928	voting
-3.5923994	meeting
-3.7748907	noted
-3.9515808	shareholder
-3.8435524	call
-3.9797292	benefit
-4.0257	moved
-4.0311217	hands
-5.050999	arbitragers
-4.083227	highest
-5.1122317	defenses
-4.2278705	hostile
-4.738814	weakened
-4.2193723	fewer
-3.5507545	declined
-3.9515808	consider
-3.387241	our
-4.7983823	explore
-4.2925286	matters
-3.5365493	further
-3.7748907	Although
-3.670547	yet
-4.2826815	suggested
-4.662445	valuable
-5.639908	windfalls
-5.183537	reap
-4.171603	Our
-4.2826815	discussions
-5.1122317	invitation
-4.711838	objectives
-4.8315396	cooperative
-4.2278705	relationship
-4.662445	independence
-4.31292	ensure
-4.597518	secure
-4.3568206	attractive
-4.997343	shocked
-4.2193723	consulting
-4.1217966	Indeed
-3.8062377	taking
-4.5071063	calculated
-3.6496527	risk
-5.770891	howl
-4.738814	protests
-4.047805	opposition
-4.2453833	Labor
-4.1948314	Party
-4.236539	accused
-4.108556	Thatcher
-3.638465	administration
-4.5071063	backing
-4.368526	promised
-3.9515808	protection
-5.183537	privatized
-4.6181	retained
-3.7129865	single
-4.9495926	Conservative
-4.2278705	reflect
-4.418783	desire
-4.7983823	shed
-4.7675776	politically
-4.368526	sensitive
-4.1354537	election
-3.861635	done
-4.392928	Daniel
-4.3234863	professor
-4.6397066	motor
-5.770891	Cardiff
-5.375238	Wales
-5.5163684	buffeted
-4.236539	slowing
-3.4997234	economy
-4.711838	shake
-3.8962111	Mrs
-4.906576	cabinet
-4.171603	favor
-4.368526	allowing
-5.268895	preclude
-4.9495926	hinted
-5.639908	motive
-5.5163684	answering
-4.0421724	questions
-4.597518	Parliament
-5.770891	contestants
-5.050999	Bradley
-5.770891	Stertz
-4.4607034	Detroit
-4.0098295	article
-4.095707	Chemical
-4.711838	Midland
-4.3454223	Mich
-4.8674393	Indianapolis
-4.8674393	formation
-5.639908	Elanco
-4.906576	combining
-5.639908	pest
-4.8315396	agricultural
-3.6542099	America
-4.541047	projected
-3.4140651	revenue
-3.8296096	William
-5.770891	Wise
-4.432312	El
-5.1122317	Paso
-4.8674393	Natural
-4.368526	Gas
-4.020345	energy
-3.9125085	natural
-4.2110367	resources
-3.7051895	additional
-3.872857	post
-5.5163684	Travis
-3.9042833	H
-5.639908	Petty
-3.9607623	continues
-3.2659106	chairman
-3.7871592	parent
-5.5163684	Tomash
-4.334316	founder
-4.2028584	communications
-4.738814	Dataproducts
-4.3805556	fighting
-4.2028584	tender
-4.6864395	DPC
-4.577867	Acquisition
-4.2453833	Partners
-5.5163684	Crescott
-4.738814	Investments
-4.089422	Associates
-4.3568206	circumstances
-4.3805556	unable
-5.183537	devote
-5.268895	emeritus
-5.183537	Q
-5.639908	Marston
-4.047805	medical
-4.273052	devices
-3.942589	Dr
-4.2544117	succeeds
-4.523745	Alexander
-3.6658163	T
-5.770891	Daignault
-4.083227	stand
-3.3972652	due
-4.738814	mandatory
-4.1495547	retirement
-5.5163684	SFE
-4.5590672	Technologies
-3.6169188	P
-5.5163684	Kuehn
-4.164129	electronics
-3.8766634	parts
-4.738814	background
-4.2544117	crisis
-4.1792088	Alan
-5.5163684	Rubendall
-5.183537	Jerome
-3.5330696	J
-5.639908	Jahn
-4.9495926	resigning
-4.071096	mutual
-4.3454223	pursue
-4.392928	retain
-3.571078	nine
-3.4440656	ended
-3.1912184	net
-3.5279014	compared
-3.6362617	national
-3.7809815	Sales
-3.2969723	fell
-5.183537	soften
-3.8543112	ahead
-4.236539	pace
-4.0150557	sharp
-4.2110367	signs
-5.183537	retreating
-4.368526	normally
-4.6397066	passenger
-3.9294415	showed
-5.639908	registrations
-4.089422	totaled
-3.715617	Tokyo
-4.597518	rebounded
-3.925146	daily
-4.083227	relatively
-4.5590672	dealings
-4.236539	Frankfurt
-4.418783	Nikkei
-4.5071063	selected
-3.5296173	points
-4.273052	Volume
-3.507823	First
-4.5071063	Section
-3.638465	estimated
-5.183537	Advancing
-4.997343	outnumbered
-4.9495926	decliners
-3.9797292	unchanged
-4.491081	Small
-4.738814	targeted
-4.597518	incentive
-4.334316	pushed
-4.597518	sectors
-3.8296096	failed
-4.3234863	attract
-4.2110367	remained
-4.5590672	sluggish
-4.142447	overall
-4.236539	mixed
-5.050999	Individuals
-4.7675776	actively
-3.7400365	bought
-3.5923994	official
-5.5163684	Wako
-4.31292	quick
-3.8062377	profits
-3.8194387	despite
-5.375238	destabilizing
-4.997343	external
-4.1217966	factors
-3.5279014	political
-4.0311217	ruling
-4.8674393	fate
-5.183537	Lower
-4.236539	event
-4.236539	affect
-4.2110367	Price
-4.1495547	listed
-4.577867	Second
-5.050999	Institutional
-4.8674393	sidelines
-4.108556	read
-4.273052	direction
-4.577867	anticipation
-3.6801662	consumer
-3.088449	prices
-4.1948314	showing
-4.906576	persistent
-4.1495547	strength
-4.1792088	slowdown
-3.3947375	economic
-4.597518	indicators
-4.2028584	Third
-3.9561472	haven
-3.8400245	although
-3.8543112	supply
-3.965427	increasing
-4.711838	topic
-4.5590672	attracted
-4.2453833	Mitsubishi
-4.4462757	Estate
-4.491081	Rockefeller
-4.2278705	Center
-5.375238	Properties
-3.244882	day
-3.53134	gains
-4.7983823	sparked
-3.468756	traders
-5.5163684	Sumitomo
-4.8315396	Realty
-4.1020837	Development
-5.770891	Heiwa
-3.8062377	gained
-4.738814	Investor
-4.0311217	focus
-5.183537	shifted
-4.7983823	winners
-3.872857	turned
-4.6864395	losers
-3.571078	news
-3.330428	Friday
-4.108556	balance
-4.1948314	margin
-4.1948314	trillion
-4.059294	positions
-4.236539	finished
-4.906576	intraday
-5.5163684	peaks
-5.770891	comforted
-5.375238	reassuring
-3.506191	Wall
-3.5013313	Street
-4.997343	waive
-5.268895	sketchy
-3.757114	makers
-4.738814	wary
-4.577867	gyrations
-5.770891	upsets
-5.5163684	appalling
-4.1792088	dealer
-5.050999	dragged
-5.770891	scruff
-4.8315396	neck
-4.236539	books
-4.1495547	broad
-4.1285715	Times
-4.4607034	reaching
-3.8435524	hour
-5.1122317	narrower
-4.083227	modest
-4.3568206	temporarily
-4.2826815	suspended
-5.183537	abolish
-5.639908	stalked
-4.997343	dates
-4.0098295	designed
-3.8579576	scheduled
-4.541047	expire
-5.375238	waived
-4.7675776	bidder
-4.738814	alter
-4.597518	articles
-4.3234863	association
-4.3568206	ban
-5.639908	shareholdings
-4.662445	hefty
-4.4607034	turnover
-4.8674393	parliamentary
-4.164129	debate
-4.418783	Chancellor
-4.6397066	Exchequer
-4.3805556	Major
-5.5163684	clarify
-3.8062377	currency
-4.2544117	fairly
-4.368526	thin
-5.183537	selective
-4.597518	foreigners
-3.802999	helped
-5.5163684	propel
-5.050999	DAX
-4.047805	Despite
-5.268895	dull
-5.1122317	cautiously
-5.770891	Contributing
-5.1122317	reserved
-4.6397066	stance
-4.1948314	release
-3.6318882	health
-3.942589	form
-5.268895	Additionally
-4.711838	Elsewhere
-4.8315396	Amsterdam
-4.6181	Brussels
-4.6864395	Milan
-4.4607034	Prices
-4.738814	Zurich
-4.7675776	Stockholm
-4.4607034	Stocks
-3.8161006	Hong
-3.8330536	Kong
-4.738814	Manila
-4.7983823	Sydney
-4.662445	Seoul
-4.906576	Taipei
-4.7983823	holiday
-4.2110367	Here
-4.432312	trends
-3.8653436	Morgan
-4.077119	Stanley
-3.66347	Capital
-4.906576	Perspective
-4.6397066	Geneva
-3.7542207	To
-4.7675776	equaling
-3.8194387	percentage
-4.523745	definitive
-4.6397066	confirm
-4.9495926	breakdown
-3.66347	food
-3.6275582	rise
-4.5590672	essentially
-4.8315396	beef
-4.6397066	pork
-4.906576	drought
-4.541047	southern
-4.7675776	regions
-4.1869497	source
-3.731743	above
-4.3805556	boom
-5.183537	bust
-3.9381623	May
-5.268895	Planning
-4.392928	Agency
-4.523745	recovered
-4.1151257	revised
-3.5489535	strong
-4.997343	performances
-5.639908	durables
-3.6148217	orders
-3.942589	spokeswoman
-4.236539	intended
-3.8922305	measure
-4.020345	figure
-4.491081	indicates
-4.1792088	expand
-5.268895	contraction
-4.9495926	Metromedia
-4.5590672	Long
-5.639908	Distance
-5.1122317	renamed
-4.662445	ITT
-4.089422	reflecting
-4.1217966	acquisitions
-4.6397066	licenses
-3.7779255	name
-4.662445	fifth
-4.7983823	provider
-4.142447	headed
-5.639908	Kluge
-4.334316	telecommunications
-5.770891	robotic
-3.942589	software
-4.523745	restaurants
-4.3568206	Korean
-4.597518	matching
-4.108556	target
-4.2278705	Korea
-3.5296173	Board
-3.9797292	agencies
-4.418783	wholesale
-4.236539	surged
-5.183537	projecting
-3.352727	increase
-4.432312	Martin
-5.5163684	Marietta
-5.050999	Postal
-3.9381623	Service
-4.906576	install
-4.997343	automated
-5.268895	sorting
-3.9561472	machines
-3.7456546	terms
-5.183537	postal
-3.9945185	offices
-4.7675776	capable
-5.268895	zip
-4.711838	code
-4.089422	magazines
-5.5163684	parcels
-4.089422	Thomas
-5.268895	Donovan
-4.997343	hazardous
-4.4056635	waste
-4.2636323	site
-5.770891	remediation
-4.3454223	newly
-4.597518	posts
-4.8315396	filling
-4.9495926	vacancy
-5.639908	Canonie
-5.268895	naming
-4.334316	succeed
-3.9701421	F
-5.639908	Brissette
-3.8435524	member
-4.059294	consultant
-4.8315396	Yields
-4.0311217	savings
-4.334316	certificates
-4.541047	deposit
-3.802999	slightly
-4.236539	CD
-4.7983823	Banxquote
-4.432312	Money
-4.077119	Markets
-5.770891	uneventful
-5.5163684	Norberto
-5.1122317	Mehl
-4.6864395	reacted
-4.711838	rises
-3.4613473	Treasury
-3.4497502	bill
-4.6181	Banks
-5.639908	payouts
-4.1869497	CDs
-5.639908	fractional
-4.1285715	trend
-5.1122317	Typically
-3.9042833	considered
-5.770891	safest
-4.541047	edge
-4.3454223	rapidly
-3.7871592	increases
-4.1792088	sometimes
-4.9495926	lag
-5.1122317	jumbo
-4.8674393	denominations
-4.711838	opposite
-5.5163684	jumbos
-4.577867	respectively
-4.1285715	broker
-4.418783	networks
-3.9995625	across
-4.541047	category
-4.6397066	specifically
-3.8962111	Among
-4.597518	surveyed
-4.8315396	flagship
-4.1948314	Manufacturers
-4.392928	Hanover
-4.1151257	maturity
-3.8296096	range
-4.7983823	maturities
-3.4153848	San
-3.53134	Francisco
-4.597518	BankAmerica
-4.3568206	Wells
-4.6397066	Fargo
-4.083227	reach
-5.770891	monsieur
-5.770891	avec
-5.639908	clipboard
-5.639908	leaned
-3.602448	my
-4.997343	shoulder
-4.31292	coffee
-4.738814	phase
-4.7675776	dinner
-3.942589	wanted
-4.4607034	ride
-5.770891	montgolfiere
-4.4056635	minute
-5.770891	interloping
-5.770891	attendee
-5.1122317	journalism
-4.8315396	convention
-5.639908	festivities
-4.5590672	entirely
-4.8674393	eating
-4.7675776	drinking
-4.5590672	smoking
-5.375238	sleeping
-4.432312	represented
-5.770891	halfhearted
-5.770891	les
-5.770891	sportif
-5.770891	itinerary
-5.639908	embody
-5.770891	Zen
-5.639908	blase
-3.9749093	comes
-5.1122317	athletics
-4.2636323	finding
-5.770891	Nautilus
-5.770891	conventioners
-5.639908	diners
-5.639908	lit
-5.375238	Gauloises
-5.770891	scoffed
-4.9495926	suggestion
-5.639908	interrupting
-4.7983823	perfectly
-4.273052	Saturday
-3.4933507	go
-5.770891	golfing
-5.770891	montgolfing
-5.050999	ballooning
-4.7983823	brothers
-5.770891	Montgolfier
-4.31292	hot
-3.888286	air
-5.5163684	balloonists
-3.9083765	kind
-5.639908	chi
-5.375238	airborne
-4.7675776	wins
-5.770891	heartwarmingly
-5.770891	covetous
-4.9495926	responses
-3.925146	Americans
-4.491081	Malcolm
-5.5163684	Forbes
-5.375238	heady
-4.095707	During
-4.0311217	passed
-4.7983823	Aviation
-4.5071063	Authority
-4.9495926	lighter
-3.9895327	test
-5.050999	swelled
-4.142447	couple
-4.6181	thousand
-4.7675776	balloon
-5.770891	convocation
-5.770891	ersatz
-5.770891	Phineas
-5.770891	Foggs
-5.5163684	Albuquerque
-5.639908	Balloon
-5.770891	Fiesta
-5.1122317	attracts
-5.183537	enthusiasts
-5.5163684	balloons
-5.639908	fetchingly
-5.183537	shaped
-5.1122317	resemble
-5.770891	Carmen
-5.375238	Miranda
-5.5163684	Garfield
-5.639908	condom
-4.3026047	denied
-4.541047	entry
-5.770891	Epinal
-4.7675776	gray
-5.050999	river
-5.1122317	adjacent
-5.639908	Vosges
-4.3805556	mountain
-4.2544117	region
-5.1122317	Yankee
-4.6864395	lately
-5.770891	enthusiasms
-5.5163684	aloft
-4.7983823	evident
-5.770891	Ballooning
-5.770891	rigueur
-5.183537	attraction
-5.639908	sunrise
-5.050999	root
-5.268895	canal
-5.639908	Feeling
-5.770891	naggings
-5.5163684	imperative
-4.9495926	promptly
-4.004666	signed
-4.541047	anybody
-4.0421724	tell
-4.4056635	requires
-5.1122317	athletic
-5.375238	prowess
-5.639908	derring
-4.906576	hate
-5.375238	heights
-5.5163684	ascending
-3.9470615	anything
-5.639908	wet
-4.523745	referring
-4.1869497	traditional
-5.5163684	champagne
-5.770891	drenching
-5.639908	terra
-5.639908	firma
-5.770891	toast
-4.2110367	talking
-4.6864395	landing
-5.770891	porous
-5.5163684	wicker
-4.597518	basket
-4.3234863	pilot
-5.1122317	speaks
-4.3568206	English
-5.375238	wit
-5.639908	maiden
-5.770891	voyage
-5.770891	novitiates
-4.7983823	referred
-5.770891	virgins
-3.67533	began
-5.375238	dawn
-5.639908	dew
-5.770891	sodden
-5.770891	fairway
-4.906576	noon
-5.5163684	soggy
-4.368526	flights
-4.6397066	occur
-5.5163684	dusk
-5.375238	winds
-5.5163684	lightest
-3.6519253	came
-4.5590672	lots
-4.418783	watching
-5.5163684	inflate
-4.6864395	deciding
-4.6864395	baskets
-3.8261929	hold
-4.662445	passengers
-3.710372	wasn
-3.8330536	turn
-4.4056635	progress
-5.183537	chase
-5.1122317	driver
-5.770891	holler
-5.639908	walkie
-5.770891	talkie
-5.268895	stretches
-5.375238	attendant
-4.1869497	ground
-5.5163684	drifting
-4.3026047	silver
-5.770891	mists
-5.375238	cows
-5.770891	amble
-4.475627	fields
-4.7675776	God
-5.770891	heaven
-5.268895	bird
-4.2544117	eye
-3.8653436	view
-3.6801662	your
-5.770891	pilote
-5.183537	plaid
-5.770891	beret
-4.171603	kept
-4.997343	pointing
-5.770891	belle
-4.2826815	farmers
-5.770891	farmwives
-5.375238	stone
-4.071096	houses
-4.577867	tiny
-4.577867	eyes
-5.770891	squinted
-3.7965937	coming
-5.183537	See
-5.268895	thumb
-5.183537	steer
-5.050999	heating
-5.183537	propane
-5.375238	burner
-5.770891	currents
-4.997343	Which
-5.183537	seldom
-4.047805	feet
-5.639908	leisurely
-4.077119	miles
-5.770891	cruising
-5.375238	altitude
-3.9749093	sense
-4.523745	motion
-4.2278705	Only
-5.639908	descending
-5.5163684	tad
-5.770891	trop
-5.770891	rapidement
-5.639908	picnic
-3.8435524	doing
-5.770891	hissed
-5.1122317	companion
-4.906576	speaking
-3.707773	whose
-5.770891	knuckles
-5.639908	Attention
-5.5163684	yelled
-4.171603	plunged
-4.475627	bet
-5.268895	leaping
-5.375238	atop
-4.6864395	tanks
-4.6864395	wearing
-5.770891	alligator
-5.639908	loafers
-5.375238	laughed
-4.541047	fired
-4.997343	blast
-5.5163684	flame
-4.711838	lifted
-5.639908	oh
-4.7675776	inches
-3.9470615	water
-5.375238	scuttled
-4.4607034	drink
-5.268895	patch
-3.3835406	where
-5.770891	exquisite
-5.1122317	pleasure
-4.997343	scrambling
-5.268895	mud
-5.268895	tag
-4.9495926	scrambled
-4.4607034	watch
-5.639908	Barely
-4.711838	stuck
-5.5163684	ditch
-5.639908	enlisted
-3.888286	aid
-4.523745	farmer
-5.268895	trailer
-5.639908	hitch
-4.662445	pull
-4.2110367	finally
-5.770891	rendezvoused
-5.5163684	dirt
-4.171603	amid
-5.639908	clutch
-5.770891	Epinalers
-4.523745	watched
-5.770891	disassemble
-5.183537	craft
-4.2278705	flight
-3.7456546	included
-5.1122317	precision
-4.711838	routine
-5.639908	yanking
-5.5163684	punching
-4.662445	rolling
-5.639908	cramming
-4.2193723	exercise
-5.268895	nearest
-5.5163684	watering
-4.8674393	hole
-4.4607034	meant
-4.7983823	returning
-5.770891	duffers
-5.770891	maul
-5.770891	tee
-4.6181	sat
-5.770891	Cinzano
-5.770891	umbrellas
-4.9495926	nursing
-5.770891	espresso
-5.375238	ego
-4.541047	barely
-4.711838	figured
-5.1122317	envy
-5.770891	quotient
-5.770891	peerless
-5.770891	clambered
-5.770891	alfresco
-5.770891	streaked
-5.770891	gendarme
-5.050999	resist
-5.639908	rearing
-5.770891	saluting
-5.639908	Vries
-5.639908	Undersecretary
-4.997343	Mulford
-4.8674393	defended
-3.7748907	efforts
-3.7400365	fall
-3.7902813	saying
-5.1122317	minimize
-3.602448	damage
-3.582578	drop
-5.639908	Testifying
-4.523745	subcommittee
-5.183537	intervened
-3.7840595	reduce
-3.9797292	plunge
-5.268895	provoked
-4.523745	steep
-5.639908	unhinged
-4.711838	responding
-4.368526	critics
-4.711838	intervention
-4.711838	visible
-4.597518	seriously
-4.6181	recognized
-5.770891	Differences
-5.1122317	restrain
-5.5163684	resurfaced
-4.2453833	hearing
-3.707773	Fed
-4.541047	Vice
-3.7659113	Chairman
-4.8674393	Manuel
-4.059294	Johnson
-5.639908	dissented
-4.171603	lawmakers
-3.9381623	became
-4.597518	convinced
-4.2193723	push
-4.6397066	fundamentals
-5.770891	Intervention
-4.6864395	useful
-4.8674393	smooth
-5.5163684	disorderly
-5.183537	fundamentally
-4.2278705	influence
-3.872857	Rep
-5.639908	LaFalce
-4.1354537	Y
-4.906576	testify
-4.334316	jointly
-3.9042833	instead
-4.523745	testimony
-3.4440656	spokesman
-4.8315396	tension
-4.906576	insisting
-5.375238	nuances
-4.597518	scheme
-4.9495926	contributing
-5.050999	imbalances
-5.183537	exporter
-4.577867	solution
-3.7748907	German
-4.2826815	argue
-4.418783	ought
-4.6181	adopt
-5.770891	stimulative
-4.164129	monetary
-4.065155	policies
-3.3934789	trade
-4.475627	surplus
-4.491081	acknowledged
-4.7983823	nonetheless
-4.1354537	export
-4.7675776	Five
-3.2621796	firm
-5.5163684	Garrett
-5.770891	Bewkes
-4.5590672	III
-4.5071063	mergers
-3.8261929	Michael
-3.768884	R
-5.770891	Dabney
-4.2028584	principal
-4.1948314	funding
-3.9561472	leveraged
-5.770891	Harriton
-3.9125085	partner
-4.418783	heads
-5.268895	correspondent
-4.7675776	clearing
-5.770891	Minikes
-4.6181	treasurer
-5.375238	Montgoris
-4.3454223	inside
-4.5071063	allies
-4.997343	complaining
-4.392928	pushing
-4.368526	arms
-4.8315396	negotiators
-4.7983823	errors
-3.942589	security
-5.639908	Concerns
-4.997343	Vienna
-4.164129	aimed
-4.8315396	destruction
-4.597518	reductions
-5.770891	realignments
-4.662445	troops
-4.1151257	central
-4.475627	registered
-4.065155	Pentagon
-3.7542207	defense
-4.31292	Atlantic
-5.183537	Treaty
-4.5590672	Organization
-4.7983823	examine
-4.432312	identified
-4.2826815	worry
-5.639908	persuading
-4.8315396	Europeans
-4.8315396	soil
-5.375238	armored
-4.020345	forces
-5.639908	thinned
-3.965427	reduction
-4.6864395	NATO
-4.5590672	treaty
-4.3568206	possibility
-4.095707	unless
-4.7983823	retains
-5.5163684	residual
-5.770891	Allies
-4.1285715	concerned
-4.432312	deadline
-4.1792088	whom
-4.577867	adequate
-4.9495926	staffs
-4.662445	answers
-3.8194387	raised
-3.93378	generally
-4.7675776	attempted
-4.6864395	ally
-4.432312	complained
-4.9495926	openly
-5.050999	preserving
-4.906576	impression
-4.368526	bringing
-4.9495926	parity
-4.906576	bargaining
-4.418783	priority
-4.906576	timetable
-5.375238	wrestling
-4.7675776	seemingly
-4.541047	fundamental
-4.8674393	tank
-4.662445	categories
-5.050999	negotiation
-4.662445	defined
-5.770891	Tanks
-4.142447	vehicles
-5.268895	weighing
-3.9515808	tons
-5.183537	guns
-4.711838	complicated
-5.770891	Oleg
-5.770891	Grinevsky
-5.268895	negotiator
-4.3234863	argued
-4.8315396	destroy
-4.1020837	lose
-5.770891	stickier
-4.2453833	Italy
-4.392928	Army
-5.639908	redefinition
-4.711838	blocking
-5.770891	transportable
-5.770891	Defining
-4.6864395	combat
-4.077119	aircraft
-4.6397066	insisted
-5.639908	exempting
-4.577867	Russian
-4.4607034	planes
-4.7983823	solely
-4.4462757	defensive
-5.639908	budged
-5.1122317	insistence
-4.9495926	gun
-4.392928	carrying
-4.5590672	plane
-4.906576	offensive
-4.9495926	capability
-3.7236052	potential
-3.888286	leader
-4.597518	Mikhail
-3.9846034	Gorbachev
-4.577867	resolve
-4.8315396	Accounting
-5.770891	knotty
-4.9495926	Greece
-4.6397066	Turkey
-5.050999	suspected
-5.770891	overstating
-5.268895	arsenals
-4.6181	emerge
-5.1122317	deter
-4.3234863	nations
-5.183537	sloppy
-4.9495926	theirs
-4.577867	Warsaw
-5.268895	Pact
-3.9294415	seem
-4.6397066	arguments
-5.770891	thrash
-4.2193723	bigger
-4.6397066	danger
-4.2636323	delay
-5.268895	conciliatory
-4.491081	attitude
-4.8674393	miss
-4.711838	somewhere
-4.662445	asks
-4.8315396	Norman
-5.770891	Dicks
-4.6864395	Wash
-4.6864395	visited
-4.4056635	bottom
-5.5163684	superiority
-4.7675776	pressing
-4.392928	becoming
-5.183537	unraveled
-4.7983823	negotiate
-5.639908	Lease
-4.368526	Finance
-4.577867	leasing
-4.7675776	Trans
-4.171603	involving
-4.2453833	Boeing
-5.268895	jets
-5.639908	spares
-4.3026047	excess
-4.0366116	Two
-3.9895327	main
-5.770891	Amtran
-4.541047	Four
-4.164129	purchased
-3.8579576	Airlines
-5.639908	Delivery
-4.095707	November
-5.1122317	Norway
-4.432312	unemployment
-5.639908	excludes
-4.597518	employed
-4.334316	extraordinary
-5.5163684	Directorate
-5.1122317	Including
-5.639908	Norwegians
-4.4462757	permanent
-4.273052	employment
-5.1122317	jobless
-4.1151257	Those
-4.597518	funded
-4.475627	Coca
-4.4607034	Cola
-5.1122317	aiming
-4.523745	discussing
-5.183537	Fraser
-5.5163684	Neave
-5.1122317	bottling
-4.9495926	franchisee
-4.523745	Coke
-4.432312	rapid
-3.6065335	nearly
-4.1869497	reflects
-5.1122317	eagerness
-3.619026	Pacific
-5.375238	Basin
-4.6181	focusing
-4.2826815	looks
-3.588444	area
-4.3568206	sees
-5.5163684	demographic
-3.793426	gold
-4.3026047	mine
-4.541047	Taiwan
-4.597518	economies
-3.7902813	growing
-4.4462757	resulting
-4.9495926	disposable
-3.2378001	income
-4.0311217	consumers
-4.997343	drinks
-4.368526	unlike
-5.5163684	populations
-4.9495926	aging
-5.5163684	proportions
-5.770891	youths
-5.183537	heaviest
-5.770891	sodas
-4.7675776	structured
-3.7748907	By
-4.31292	acquiring
-5.639908	bottlers
-4.597518	efficiency
-5.268895	tended
-3.5029452	results
-3.7997847	given
-4.3805556	consumption
-4.906576	indicator
-3.7809815	per
-4.906576	capita
-4.164129	gives
-5.183537	soda
-4.5590672	packaging
-5.1122317	dairy
-4.662445	Malaysia
-5.770891	Brunei
-4.071096	interested
-5.375238	untapped
-4.4462757	arrangement
-4.541047	boards
-5.183537	AMERICAN
-5.770891	BRANDS
-4.7675776	Greenwich
-4.1792088	Conn
-3.9208925	Dec
-4.2453833	follows
-4.491081	Brands
-4.7983823	tradition
-4.711838	sharing
-4.164129	core
-5.375238	distilled
-4.475627	spirits
-4.906576	Giovanni
-4.738814	Agnelli
-4.6864395	strengthen
-4.997343	indirect
-4.541047	Fiat
-4.0366116	p
-4.9495926	admit
-4.8674393	Prince
-5.770891	Karim
-5.183537	Aga
-5.183537	Khan
-4.1567802	partnership
-4.523745	approximately
-5.639908	Istituto
-5.770891	Finanziario
-5.770891	Industriale
-3.6565065	private
-3.888286	sector
-5.1122317	Maria
-5.639908	Sole
-5.770891	Teodorani
-4.711838	sister
-5.183537	IFI
-4.662445	ordinary
-4.3026047	meanwhile
-5.375238	Luxembourg
-5.5163684	Ifint
-3.9381623	preferred
-4.1948314	dividends
-5.639908	assemblies
-3.7809815	approved
-4.541047	lire
-5.639908	nonvoting
-5.639908	strengthens
-4.0311217	existing
-4.738814	links
-5.639908	Agnellis
-5.770891	Ismaili
-5.375238	Moslems
-4.5590672	longtime
-4.4607034	friend
-4.4056635	frequently
-5.268895	sailing
-4.3568206	ties
-5.1122317	collaboration
-3.9995625	instance
-5.770891	Alisarda
-3.8161006	airline
-5.183537	flies
-5.770891	Sardinia
-4.3454223	formed
-4.2636323	keeping
-4.523745	controlling
-3.9995625	together
-4.906576	tree
-3.638465	related
-5.770891	Galbani
-4.8315396	chunk
-5.639908	Mediobanca
-4.1869497	weekend
-4.491081	Your
-4.2636323	page
-4.8674393	riding
-5.770891	railbikes
-4.6864395	railroad
-5.639908	disservice
-4.475627	readers
-5.268895	encourages
-4.8315396	engage
-4.597518	dangerous
-4.3454223	illegal
-5.375238	treats
-5.375238	frivolous
-5.639908	cavalier
-5.5163684	indifference
-4.2544117	safety
-5.1122317	Saul
-5.770891	Resnick
-4.418783	Public
-4.6864395	Affairs
-5.375238	Conrail
-4.4056635	MCI
-3.93378	Communications
-3.7748907	network
-3.8690841	Drexel
-4.236539	Burnham
-4.2110367	Lambert
-4.906576	Congressional
-3.9895327	Democrats
-4.3234863	compromise
-4.0150557	wage
-4.077119	opening
-3.9381623	floor
-5.5163684	impasse
-3.942589	congressional
-3.8330536	leaders
-5.050999	vetoed
-4.1151257	accept
-4.392928	somewhat
-5.5163684	softened
-4.089422	version
-3.5598748	Senate
-5.1122317	Employers
-5.5163684	subminimum
-5.639908	institutes
-3.9846034	specific
-3.2621796	program
-5.1122317	newcomers
-5.375238	delighted
-3.861635	includes
-4.491081	concept
-4.8315396	fought
-4.2544117	throughout
-3.9208925	history
-5.5163684	Porter
-3.4260888	small
-4.8674393	length
-3.9895327	final
-3.8653436	meet
-4.108556	standards
-4.8674393	override
-4.4056635	worker
-3.836525	job
-4.541047	boosting
-5.1122317	coupled
-4.4056635	hired
-4.577867	employer
-4.997343	shorter
-4.475627	employers
-4.8674393	trained
-4.071096	Republican
-4.3805556	GOP
-4.0421724	moving
-3.8095005	toward
-3.213885	tax
-5.375238	wealthier
-4.368526	taxpayers
-4.1567802	Republicans
-5.770891	imploring
-4.3234863	Edward
-4.5071063	Kennedy
-4.0535116	Mass
-5.639908	Domenici
-4.8315396	ranking
-4.5071063	Budget
-5.770891	soundings
-4.273052	appeared
-4.738814	heading
-4.0098295	veto
-3.965427	Democratic
-5.375238	watered
-5.050999	afterward
-3.8962111	thought
-5.639908	compromised
-4.8674393	Austin
-4.7983823	Murphy
-4.475627	Pa
-3.9208925	size
-4.1020837	cited
-4.6397066	concessions
-5.183537	harsh
-5.268895	olds
-4.7675776	adults
-5.268895	AFL
-5.268895	CIO
-4.2544117	opposed
-5.375238	safeguards
-5.770891	exploited
-5.375238	displaced
-4.662445	Gerald
-5.375238	Seib
-3.9607623	Moody
-4.334316	lowered
-4.1948314	ratings
-5.268895	Lighting
-4.1495547	Power
-4.2453833	coverage
-4.164129	internal
-3.8962111	Industries
-5.770891	Downgraded
-4.491081	secured
-4.3805556	pollution
-5.183537	Baa
-4.6397066	shelf
-4.738814	registration
-4.2925286	preliminary
-4.1217966	rating
-5.268895	collateralized
-3.2811637	debt
-3.6565065	paper
-4.2193723	Prime
-3.8922305	situation
-4.2453833	positive
-4.171603	risks
-5.5163684	Units
-4.997343	Project
-4.1948314	declining
-5.050999	generating
-4.0366116	facilities
-3.9515808	Smith
-4.392928	title
-4.711838	Armstrong
-4.491081	principle
-4.9495926	carpet
-4.9495926	Shaw
-4.142447	threat
-5.770891	Belzberg
-5.268895	disposing
-4.5590672	concentrate
-5.183537	ceramic
-5.5163684	tile
-5.770891	coverings
-4.7675776	furniture
-4.0311217	Moreover
-5.5163684	reassure
-5.770891	Belzbergs
-5.5163684	Lancaster
-4.171603	proceeds
-3.8543112	manufacturing
-4.7983823	Recently
-5.183537	upgraded
-5.639908	stain
-3.8766634	quality
-5.770891	dyes
-3.2413268	profit
-4.071096	margins
-5.375238	hovered
-4.392928	disappointing
-5.770891	flooring
-4.997343	hailed
-3.9125085	planned
-5.268895	Dalton
-4.2110367	material
-4.392928	profitability
-4.2544117	brands
-4.597518	Evans
-4.4056635	Black
-4.004666	Yesterday
-3.6169188	composite
-4.738814	ex
-3.7748907	dividend
-5.639908	worsened
-5.268895	dilution
-4.142447	employee
-4.108556	ownership
-4.997343	Applied
-4.997343	Color
-4.071096	Swiss
-5.770891	Brauerei
-5.770891	Eichof
-4.491081	color
-4.577867	applied
-3.715617	fourth
-4.8674393	forecasting
-4.8674393	gauge
-4.541047	slight
-4.083227	economists
-4.5590672	degree
-4.059294	climbed
-4.6181	lend
-4.5590672	slowed
-5.5163684	noticeably
-5.268895	clue
-3.9125085	recession
-4.997343	horizon
-5.770891	Rippe
-4.0311217	economist
-4.4056635	Dean
-4.491081	Witter
-4.577867	Reynolds
-4.475627	risen
-4.31292	fallen
-4.1354537	Commerce
-4.0421724	declines
-3.836525	particularly
-5.268895	pronounced
-4.597518	Northeast
-4.095707	Hurricane
-3.9515808	Hugo
-4.368526	factor
-4.2193723	weakness
-4.7675776	supports
-4.059294	housing
-5.268895	reliable
-5.1122317	sample
-4.4056635	confident
-4.0535116	takes
-4.368526	establish
-4.1567802	homes
-4.3026047	surge
-4.089422	expectations
-4.6181	measured
-4.5071063	Michigan
-3.9561472	sharply
-4.6397066	adjustment
-4.662445	formula
-5.5163684	calculate
-4.7983823	component
-3.861635	reduced
-4.738814	components
-4.2925286	track
-4.7983823	manufactured
-5.050999	vendor
-4.997343	deliveries
-5.268895	backlogs
-4.541047	durable
-4.4607034	poll
-3.67533	found
-4.7675776	remainder
-4.432312	downturn
-4.906576	sometime
-4.1948314	manufacturers
-4.523745	prefer
-3.9846034	bring
-3.9002285	All
-4.1792088	usual
-4.662445	seasonal
-4.3568206	contributions
-4.577867	adjustments
-3.731743	Boston
-4.906576	Edison
-4.3805556	resulted
-3.8805032	settlement
-4.432312	Massachusetts
-4.8674393	Utilities
-3.7026212	charges
-3.6519253	customers
-5.639908	Pilgrim
-4.997343	Nuclear
-5.375238	Station
-4.142447	regulatory
-5.375238	accountable
-4.8315396	mistakes
-4.2028584	Citicorp
-4.2826815	weekly
-5.375238	IOUs
-5.183537	Bids
-4.523745	submitted
-5.1122317	Accepted
-4.1285715	bids
-5.050999	ranged
-5.375238	imaginative
-5.375238	novelist
-4.541047	writing
-5.770891	thriller
-5.770891	amateur
-4.711838	spy
-5.1122317	chasing
-5.5163684	invent
-5.268895	Clifford
-4.8674393	Stoll
-4.7983823	unnecessary
-5.770891	Amateur
-5.770891	chaser
-5.770891	waggishly
-5.5163684	surreal
-5.639908	astronomer
-4.8315396	impressive
-4.9495926	credentials
-5.639908	genius
-3.7129865	computers
-4.3805556	described
-4.5590672	Berkeley
-5.770891	Hippie
-5.770891	obligatory
-5.5163684	ragged
-5.183537	jeans
-5.639908	thicket
-4.7675776	hair
-4.597518	rejection
-4.3805556	formal
-4.9495926	marriage
-5.639908	sweetheart
-5.268895	Martha
-5.268895	Matthews
-5.183537	entertaining
-5.639908	wisecracks
-5.770891	wordplay
-5.639908	programmatic
-4.738814	detail
-5.770891	lucid
-5.5163684	explanations
-5.770891	Cuckoo
-4.738814	Egg
-5.375238	Doubleday
-5.639908	spins
-4.7983823	remarkable
-4.8674393	tale
-4.475627	catch
-4.738814	arrest
-4.3026047	authorities
-4.523745	Germans
-4.997343	stealing
-5.639908	Markus
-4.906576	Hess
-5.770891	Hannover
-4.5590672	allegedly
-4.997343	searching
-5.050999	secrets
-5.375238	penetrate
-4.541047	secret
-3.6340694	East
-4.432312	Berlin
-4.6181	associates
-5.770891	Dirk
-5.770891	Brezinski
-5.1122317	collected
-5.1122317	draws
-5.5163684	cuckoo
-5.268895	habit
-4.997343	laying
-4.5071063	eggs
-5.5163684	nests
-5.268895	birds
-5.639908	surrogate
-4.3026047	parents
-4.3026047	discovered
-4.171603	popular
-5.770891	editing
-5.639908	Gnu
-5.639908	Emacs
-5.5163684	tricks
-5.183537	Unix
-3.4468987	system
-4.2028584	AT
-4.7983823	Using
-5.375238	bogus
-5.770891	atrun
-4.7983823	routinely
-5.639908	cleans
-4.392928	Once
-4.541047	egg
-4.4607034	enter
-4.9495926	super
-4.577867	user
-4.164129	everything
-5.770891	scanning
-5.770891	heavens
-5.770891	Keck
-5.770891	observatory
-4.906576	Laboratory
-4.738814	grant
-4.392928	ran
-4.5590672	switch
-4.3234863	helping
-5.183537	lab
-4.368526	cent
-5.375238	discrepancy
-4.5590672	departments
-5.639908	traced
-4.997343	Hunter
-4.8315396	valid
-4.7983823	billing
-4.432312	address
-5.375238	intruder
-5.770891	precocious
-4.31292	students
-4.491081	breaking
-4.906576	tracking
-5.183537	clues
-5.1122317	hacker
-5.183537	campus
-5.375238	Finding
-5.5163684	obsession
-4.906576	midnight
-5.770891	requisition
-5.183537	printers
-4.711838	lay
-4.5071063	monitor
-3.8690841	lines
-5.5163684	discovering
-5.5163684	dormant
-4.6864395	legitimate
-4.8315396	Joe
-5.639908	Sventek
-5.639908	rigged
-5.1122317	alarm
-4.7983823	portable
-5.268895	beeper
-4.9495926	alert
-4.906576	nights
-5.639908	slept
-4.662445	desk
-4.8315396	boss
-5.268895	neglect
-5.1122317	chores
-5.770891	pawing
-5.183537	accessible
-4.997343	stepping
-4.997343	stones
-5.5163684	Sands
-4.6397066	missile
-4.5071063	CIA
-4.5590672	contractor
-5.770891	Mitre
-4.4462757	targets
-5.770891	arousing
-5.5163684	suspicion
-4.6864395	Sometimes
-4.7983823	drag
-5.770891	keychain
-4.906576	terminal
-5.770891	static
-4.0098295	slow
-5.770891	frustrate
-5.639908	quarry
-4.5071063	FBI
-4.3234863	initially
-5.5163684	tangled
-3.757114	legal
-4.171603	red
-4.3568206	tape
-5.770891	counterespionage
-5.770891	learns
-4.071096	book
-5.639908	crippling
-5.770891	Seems
-4.077119	Security
-4.6181	Finally
-5.770891	Tymnet
-4.906576	linking
-4.3568206	specialists
-3.604486	took
-5.268895	hunt
-5.5163684	tracing
-4.6864395	invited
-5.770891	NSA
-4.491081	brief
-4.418783	officers
-4.8315396	theft
-5.770891	savored
-5.050999	humor
-5.770891	uncombed
-5.639908	buttoned
-5.770891	chaps
-5.639908	violently
-5.770891	scolded
-4.997343	wing
-5.183537	lady
-5.770891	consorting
-4.6864395	angry
-5.770891	hatred
-5.639908	grudging
-4.475627	appreciation
-5.5163684	spooks
-5.5163684	fascinating
-5.268895	Melloan
-4.2925286	deputy
-4.2453833	editor
-3.925146	Journal
-4.6864395	Mips
-4.047805	Computer
-4.9495926	unveil
-4.4056635	purpose
-4.1869497	expensive
-4.2028584	Sun
-4.8315396	Microsystems
-3.9561472	Digital
-4.432312	Equipment
-4.8674393	Sunnyvale
-4.392928	announce
-4.2110367	Control
-4.0421724	Data
-4.906576	label
-5.639908	RC
-3.3972652	cost
-4.368526	basic
-4.8674393	processes
-4.7983823	instructions
-4.1354537	processing
-4.077119	chip
-4.334316	rival
-5.1122317	processors
-4.738814	employs
-5.1122317	instruction
-4.711838	computing
-4.997343	RISC
-4.0098295	familiar
-5.639908	tremendously
-4.577867	performing
-5.5163684	Sandy
-5.639908	Gant
-5.639908	InfoCorp
-4.577867	supplier
-4.491081	integrated
-5.183537	wedge
-4.4462757	applications
-5.1122317	demonstrates
-5.770891	Hime
-5.5163684	boon
-5.5163684	battles
-4.142447	established
-3.8579576	concerns
-4.2636323	Hewlett
-4.2826815	Packard
-4.6397066	Motorola
-4.3234863	Intel
-4.577867	emerging
-5.183537	speeds
-5.639908	simplifying
-4.577867	essential
-4.8674393	architecture
-4.3568206	roll
-3.3481746	she
-3.7236052	Last
-5.375238	Nixdorf
-4.1792088	AG
-5.375238	Groupe
-5.375238	Bull
-5.050999	Tandem
-4.9495926	Computers
-5.050999	MIPS
-4.4607034	NEC
-5.183537	Siemens
-3.9083765	G
-4.1495547	chips
-4.5071063	license
-5.375238	Logan
-5.639908	Aberdeen
-3.5261922	Group
-4.432312	mainframe
-5.268895	Suddenly
-5.639908	CDC
-5.050999	VAX
-4.523745	Minneapolis
-5.050999	Minn
-3.6406796	amount
-4.577867	versions
-4.2925286	Miller
-4.2925286	shipping
-5.268895	processor
-4.3805556	easier
-4.4607034	competing
-4.662445	calculations
-4.6864395	floating
-4.5590672	brewing
-4.3234863	bailout
-4.0535116	adding
-3.7456546	deficit
-5.050999	Ways
-4.9495926	Means
-4.5590672	advised
-3.7779255	L
-4.8674393	abandon
-3.847109	issued
-4.738814	counted
-4.2453833	Officials
-4.6181	Resolution
-3.8843772	Trust
-4.3805556	privately
-4.089422	Instead
-5.375238	GAO
-4.711838	RTC
-4.997343	oversight
-3.6362617	spending
-5.639908	exempted
-4.541047	Gramm
-4.541047	Rudman
-4.6864395	sick
-4.2453833	thrifts
-4.523745	allows
-4.4056635	billions
-4.8674393	scrutiny
-4.3805556	massive
-5.770891	unfettered
-4.2925286	prior
-5.639908	Fortney
-5.375238	Stark
-4.2826815	authority
-4.5590672	merge
-4.1869497	hundreds
-4.8315396	insolvent
-3.9995625	spent
-5.183537	Ls
-4.738814	meantime
-5.183537	Mullins
-3.861635	bad
-4.491081	favorable
-4.2453833	determined
-5.5163684	distort
-4.475627	requiring
-5.5163684	exemptions
-4.334316	worst
-4.071096	provided
-4.738814	dump
-5.375238	Panhandle
-4.4462757	behalf
-4.432312	subsidiaries
-4.2453833	Energy
-5.1122317	Regulatory
-4.541047	permission
-4.6397066	mile
-4.31292	pipeline
-5.770891	Pittsburg
-4.077119	County
-5.1122317	Okla
-5.770891	Independence
-4.6864395	cubic
-3.9846034	capacity
-5.183537	Transmission
-5.639908	Trunkline
-4.2636323	operate
-5.183537	connect
-5.639908	Arkoma
-4.8315396	interstate
-5.1122317	pipelines
-5.1122317	cup
-5.639908	gripping
-3.8161006	question
-5.375238	pastry
-5.5163684	chef
-3.6275582	city
-5.268895	Chez
-5.268895	Panisse
-4.334316	restaurant
-3.67533	ve
-5.639908	priceless
-5.639908	dessert
-4.9495926	notebook
-5.770891	Connoisseur
-5.770891	tattered
-5.770891	binder
-5.770891	bulging
-3.9701421	worth
-5.375238	recipes
-4.997343	rubber
-5.639908	bands
-5.639908	Lindsey
-5.183537	Shere
-5.375238	purse
-4.164129	police
-4.523745	leads
-4.2278705	doubt
-4.095707	crime
-4.3568206	driven
-5.183537	passion
-5.770891	sweets
-5.5163684	culprit
-5.5163684	wallet
-5.183537	discarded
-5.1122317	tips
-5.639908	looseleaf
-5.268895	Alice
-5.770891	Waters
-5.268895	inventor
-5.1122317	cooking
-4.095707	style
-5.639908	cuisine
-5.770891	patrons
-4.997343	reservations
-4.432312	exactly
-5.268895	subjected
-5.375238	vanilla
-4.597518	ice
-5.5163684	cream
-4.541047	draw
-5.375238	cookbook
-4.368526	published
-5.770891	Random
-5.5163684	teeming
-5.5163684	specialties
-5.770891	kiwi
-5.770891	sherbet
-5.770891	gooseberry
-5.1122317	fool
-5.770891	creamy
-5.375238	dish
-5.268895	crushed
-5.639908	stewed
-5.770891	berries
-5.770891	hazelnut
-5.770891	oeufs
-4.711838	la
-5.770891	neige
-5.050999	sympathetic
-4.577867	copies
-5.770891	clipped
-4.392928	changing
-5.268895	menu
-5.639908	dinners
-5.268895	supposedly
-4.577867	repeated
-5.5163684	meal
-4.7675776	constant
-5.770891	improvisation
-4.236539	puts
-4.475627	planners
-5.770891	Mazzera
-4.577867	Area
-4.1285715	community
-4.997343	express
-5.770891	disbelief
-4.541047	copy
-4.6864395	moral
-4.0421724	Baker
-4.738814	Dozen
-5.268895	chefs
-5.1122317	meets
-4.8315396	regularly
-4.3234863	discuss
-5.770891	meringues
-5.770891	weeping
-5.639908	bovine
-4.8674393	butter
-5.770891	texture
-4.906576	reward
-3.8579576	ll
-5.770891	reinvent
-5.375238	scratch
-4.8674393	overwhelming
-4.597518	milk
-4.3805556	Newport
-4.6397066	Electronics
-4.906576	slate
-5.1122317	incumbent
-4.5590672	Milton
-3.6004195	B
-4.8674393	Hollander
-5.1122317	Barrett
-5.050999	Weekes
-4.738814	Stamford
-4.2028584	Technology
-4.418783	Holding
-4.906576	ousted
-4.597518	requests
-5.268895	Wakeman
-5.050999	titles
-4.738814	instrument
-4.1495547	controls
-5.770891	Omega
-4.8315396	Engineering
-4.0366116	controlled
-5.639908	Lees
-4.6181	assuming
-4.491081	Arthur
-5.639908	Crozier
-3.8261929	attorney
-5.639908	Virtue
-5.770891	UNIFIRST
-4.2636323	declared
-4.1217966	split
-5.268895	Wilmington
-5.639908	garment
-4.2636323	boosted
-5.639908	UniFirst
-3.9294415	earned
-5.770891	Fibreboard
-4.577867	acres
-5.770891	timberland
-5.770891	Truckee
-4.7675776	Sierra
-5.770891	Arcata
-5.183537	lumber
-5.375238	insulation
-5.770891	fireproofing
-4.6397066	swap
-5.375238	timber
-4.662445	Healthcare
-4.997343	standstill
-4.597518	HealthVest
-4.3805556	affiliate
-3.7428365	care
-5.050999	overdue
-4.597518	rent
-3.802999	payments
-4.6864395	repay
-4.0150557	advanced
-5.5163684	remedies
-4.004666	payment
-5.639908	arrears
-3.9002285	trust
-3.7718768	portfolio
-4.7983823	consists
-4.047805	properties
-4.5071063	operated
-3.925146	note
-3.6232712	addition
-5.375238	completes
-4.7983823	owes
-5.375238	bind
-4.5590672	owed
-4.065155	negotiations
-4.392928	severe
-4.171603	liquidity
-5.639908	Greenery
-5.5163684	Rehabilitation
-4.3026047	warrants
-5.639908	loaned
-4.6397066	pleased
-5.639908	Centennial
-4.273052	item
-4.095707	events
-5.1122317	Actually
-4.711838	creation
-5.375238	creators
-4.6397066	Harry
-4.071096	Brown
-4.8674393	myself
-5.770891	innovated
-5.050999	redemptions
-5.050999	elimination
-4.2453833	pricing
-5.183537	painfully
-5.770891	inadvertence
-5.770891	crowning
-4.368526	career
-4.236539	Joseph
-4.142447	O
-4.8315396	Kicki
-5.770891	dignitaries
-5.1122317	packed
-4.997343	marble
-5.770891	columned
-4.906576	courtroom
-5.639908	swearing
-3.9042833	Judge
-4.906576	Cambria
-5.770891	Baskets
-5.770891	roses
-5.639908	potted
-5.5163684	palms
-5.639908	adorned
-4.6864395	bench
-5.770891	Legion
-4.7983823	guard
-3.793426	judge
-5.268895	marched
-5.5163684	aisle
-5.050999	flowing
-5.770891	robe
-5.5163684	heralded
-5.639908	trumpet
-5.268895	fanfare
-5.375238	ceremony
-5.770891	befitting
-4.9495926	king
-4.662445	rural
-5.183537	seated
-5.770891	foothills
-5.770891	Allegheny
-5.770891	Mountains
-5.375238	behaved
-5.183537	arrogant
-5.268895	vulnerability
-4.6397066	communities
-5.770891	domineering
-4.334316	judges
-4.6864395	indicted
-4.6397066	sweeping
-4.711838	array
-4.997343	alleging
-5.639908	oppression
-4.597518	depressed
-3.7779255	steel
-4.31292	mining
-4.8315396	western
-4.392928	Pennsylvania
-4.368526	allegations
-4.368526	ranging
-5.050999	bribery
-5.770891	coercion
-5.770891	lewdness
-5.375238	paint
-5.770891	disquieting
-4.2544117	picture
-4.432312	grand
-4.059294	jury
-4.662445	handed
-5.770891	extorted
-5.770891	muscled
-5.770891	bullied
-4.0150557	decade
-5.1122317	Prosecutors
-4.523745	indictment
-5.770891	distributorship
-5.770891	plotted
-4.8315396	hidden
-4.541047	presented
-4.2278705	alleged
-5.639908	dummy
-4.3454223	corporation
-4.273052	obtain
-5.183537	girlfriend
-4.236539	wife
-4.597518	maintained
-3.462819	court
-5.770891	harassed
-5.183537	secretaries
-5.268895	imperial
-4.4056635	demands
-5.770891	hounded
-4.1217966	anyone
-5.1122317	crossed
-5.770891	Bailiffs
-4.4056635	claimed
-5.5163684	chauffeur
-5.770891	mow
-4.8674393	lawn
-5.5163684	chop
-4.541047	wood
-4.997343	fix
-5.770891	mutts
-5.770891	Dixie
-5.770891	Husky
-5.770891	bailiff
-4.1567802	charged
-3.9125085	double
-5.770891	reneging
-4.2925286	promise
-5.770891	pocketing
-4.997343	bribe
-5.183537	bizarre
-5.1122317	summoned
-5.5163684	chambers
-4.906576	occasions
-5.5163684	dictation
-3.7542207	find
-5.770891	bikini
-5.1122317	underwear
-4.9495926	testified
-4.1285715	pending
-3.9607623	trial
-4.711838	denies
-5.268895	ludicrous
-5.770891	demagoguery
-4.997343	blames
-5.5163684	feuding
-5.639908	unhappiness
-5.183537	courthouse
-5.770891	docket
-5.639908	vendetta
-4.711838	investigators
-4.2278705	prosecutors
-5.050999	angered
-5.5163684	rulings
-5.5163684	toes
-4.577867	stepped
-5.5163684	buttons
-5.1122317	ample
-5.5163684	awesome
-5.183537	abused
-5.770891	jurists
-5.639908	jurisdictions
-5.268895	restraints
-4.2925286	serve
-5.639908	corrective
-4.089422	measures
-4.5071063	urban
-3.8805032	areas
-4.6181	Lawyers
-3.8228025	clients
-5.268895	Fear
-5.375238	alienating
-5.050999	pervasive
-5.183537	Maurice
-5.5163684	Geiger
-5.183537	Rural
-4.0150557	Justice
-5.770891	Montpelier
-5.5163684	Vt
-5.770891	researches
-4.1948314	twice
-4.475627	reluctant
-4.906576	mount
-4.6864395	challenges
-5.183537	loath
-4.523745	complaints
-5.770891	impugn
-4.8315396	integrity
-5.770891	stern
-5.183537	forbidding
-3.7840595	looking
-5.770891	fixture
-4.523745	decades
-4.418783	son
-5.770891	immigrant
-5.639908	stonemason
-5.770891	Slovenian
-5.5163684	descent
-4.906576	borough
-3.8579576	outside
-5.268895	Ebensburg
-4.577867	Law
-4.392928	School
-5.639908	graduated
-4.1285715	class
-4.662445	serving
-3.9561472	school
-5.050999	Thornburgh
-4.491081	governor
-4.662445	Attorney
-4.9495926	daughters
-5.268895	divorced
-4.738814	married
-4.8315396	daughter
-4.9495926	clerk
-4.020345	Supreme
-3.8095005	Court
-5.770891	Flaherty
-5.5163684	finest
-4.9495926	Clearly
-5.375238	accomplishments
-5.050999	practicing
-5.268895	locally
-4.475627	effectively
-5.050999	Six
-4.2544117	voted
-4.8674393	Conference
-5.375238	Trial
-5.183537	Judges
-4.997343	appointments
-4.0421724	district
-4.8674393	appellate
-5.5163684	vacancies
-5.268895	unsuccessfully
-4.236539	rated
-5.770891	interviewing
-5.5163684	smartest
-4.6397066	bar
-5.183537	refuses
-4.0257	talk
-4.1151257	publicly
-5.5163684	tack
-5.183537	grasp
-5.375238	blink
-5.639908	bedrock
-4.2826815	society
-4.7675776	columnist
-5.050999	Tribune
-4.5071063	Democrat
-4.020345	newspaper
-5.5163684	Johnstown
-4.541047	shortly
-4.236539	scandal
-4.3805556	banker
-4.597518	judicial
-5.639908	taint
-5.639908	Judicial
-5.639908	Inquiry
-4.9495926	Review
-4.475627	arm
-5.639908	investigates
-5.183537	misconduct
-5.5163684	inkling
-5.770891	amiss
-4.6864395	Nobody
-4.541047	nobody
-5.375238	guts
-4.577867	complain
-5.1122317	Certainly
-4.432312	Green
-5.639908	shelled
-5.639908	pretense
-5.770891	repaying
-5.770891	ducking
-4.9495926	verdict
-4.047805	land
-5.5163684	condemnation
-4.7983823	unexpectedly
-4.368526	awarded
-5.5163684	kickback
-4.5071063	fee
-5.770891	Appalled
-4.738814	feared
-5.5163684	retribution
-4.4462757	respond
-5.5163684	allegation
-4.3026047	Like
-4.1869497	residents
-4.738814	interviewed
-4.597518	complaint
-4.997343	printed
-5.770891	Peduzzi
-4.5590672	Says
-4.0366116	matter
-5.5163684	biting
-5.639908	lip
-4.8674393	dance
-5.5163684	coffin
-5.183537	lid
-5.375238	sealed
-5.183537	tightly
-5.770891	imperious
-5.5163684	abrasive
-4.6397066	ambitious
-5.050999	practiced
-5.639908	sipped
-4.8315396	tea
-4.8315396	sweetened
-5.375238	honey
-4.906576	leather
-4.906576	chair
-5.770891	scribbling
-4.8674393	ordering
-5.375238	spectators
-3.9125085	stop
-5.5163684	whispering
-4.906576	hats
-5.1122317	jailed
-3.847109	hours
-5.5163684	defied
-4.432312	extend
-4.6864395	teachers
-5.375238	Visitors
-5.050999	cite
-5.050999	precisely
-4.5071063	aside
-5.770891	presiding
-4.9495926	seniority
-4.906576	county
-4.997343	administrator
-4.9495926	fiercely
-5.1122317	proud
-5.770891	abilities
-5.375238	Pontiac
-5.639908	Sunbird
-4.9495926	dealership
-5.639908	dutifully
-4.089422	Yet
-4.7983823	bearing
-4.738814	suspect
-4.906576	wrongdoing
-5.639908	Bognato
-5.770891	arrogance
-5.639908	demeanor
-3.9125085	filing
-4.541047	indication
-4.738814	unrelated
-4.142447	investigation
-4.5590672	inquiry
-4.6864395	focused
-4.142447	trouble
-5.1122317	Cadillac
-5.770891	apprehensions
-4.4056635	reputation
-4.2544117	extra
-4.2544117	pre
-4.997343	lender
-5.050999	Laurel
-5.375238	precaution
-5.375238	photograph
-4.523745	stood
-4.491081	papers
-4.6864395	proof
-4.1948314	documents
-5.770891	disavowed
-4.5590672	shall
-5.5163684	stationery
-4.7675776	Later
-5.268895	farther
-5.770891	repossess
-5.1122317	intervene
-5.1122317	adversary
-4.8674393	inclined
-4.8315396	favors
-5.1122317	reconsider
-4.2110367	request
-4.997343	unfortunate
-4.7675776	chose
-4.5071063	intent
-5.5163684	extort
-5.770891	acquiesced
-5.5163684	refinanced
-4.273052	accepted
-4.541047	originally
-4.523745	beat
-5.639908	Citation
-4.475627	repair
-5.5163684	resold
-4.7983823	incident
-4.095707	treatment
-4.711838	absolutely
-5.1122317	onerous
-5.183537	Kane
-4.8315396	lowering
-5.639908	concession
-4.432312	defend
-4.334316	contends
-5.5163684	bedroom
-5.639908	cedar
-4.997343	brick
-3.6496527	filed
-4.7983823	trimmed
-4.8674393	ethics
-4.9495926	withdrawn
-4.8674393	intact
-4.5590672	correct
-4.997343	innocent
-5.268895	Cockburn
-4.7983823	comic
-5.770891	masterpiece
-5.5163684	Economy
-5.639908	Built
-5.050999	Junk
-3.9895327	Bond
-5.639908	Sand
-5.770891	Viewpoint
-5.770891	abominable
-3.6924975	Union
-5.5163684	evidenced
-4.1285715	collapse
-4.6181	sand
-4.6181	apartment
-4.738814	blocks
-5.268895	Armenian
-3.53134	earthquake
-5.268895	metaphor
-5.639908	sublime
-5.5163684	satirical
-5.375238	muse
-5.183537	await
-5.5163684	sequel
-5.375238	resiliency
-4.997343	charitable
-5.639908	metaphors
-5.770891	supremacy
-4.597518	whatever
-5.5163684	scream
-5.375238	grass
-4.997343	roots
-5.770891	environmentalist
-4.577867	disappointed
-5.1122317	premiere
-5.770891	Garbage
-4.3454223	metric
-4.906576	newsprint
-5.268895	recycled
-4.2453833	contrast
-4.432312	newspapers
-4.475627	solid
-5.639908	landfills
-5.639908	overflowing
-4.997343	trash
-4.368526	types
-5.1122317	disposal
-4.541047	precious
-4.7675776	excellent
-4.597518	publication
-4.541047	reading
-5.268895	Please
-4.1792088	thousands
-4.432312	comfortable
-4.071096	environmental
-5.5163684	impeccable
-4.4462757	Virginia
-5.639908	Gardiner
-5.639908	FIRST
-5.375238	FINANCIAL
-4.418783	Class
-5.183537	approves
-4.906576	Shareholders
-4.0421724	Santa
-5.1122317	Ana
-4.2925286	offerings
-4.906576	pricings
-4.711838	compiled
-4.31292	Report
-4.2028584	Continental
-5.268895	Cablevision
-4.108556	subordinated
-4.065155	debentures
-4.662445	Rated
-4.1792088	Standard
-4.2028584	Poor
-5.183537	callable
-4.738814	Beatrice
-4.0150557	Salomon
-3.942589	Brothers
-4.7675776	scaled
-4.738814	consisting
-4.5590672	reset
-4.0150557	coupon
-4.997343	float
-4.2193723	Jersey
-5.268895	Wastewater
-5.268895	Treatment
-4.0366116	apparently
-3.847109	Merrill
-3.8653436	Lynch
-5.268895	wastewater
-4.2453833	insured
-4.2028584	true
-4.418783	triple
-5.183537	uninsured
-5.5163684	Matagorda
-4.1567802	Navigation
-4.2925286	District
-4.5590672	tentatively
-4.1567802	Goldman
-4.1948314	Sachs
-4.597518	Interest
-4.7983823	treated
-4.7983823	preference
-5.268895	calculating
-4.491081	imposed
-4.1217966	Home
-4.3026047	Loan
-4.236539	Mortgage
-4.475627	Remic
-4.577867	classes
-5.639908	Complete
-4.1495547	details
-5.770891	Lomas
-4.711838	Funding
-4.418783	II
-4.7983823	obligations
-4.1495547	represents
-4.108556	spread
-4.9495926	weighted
-5.639908	Fitch
-5.770891	overcollateralized
-4.3234863	covered
-4.0311217	Electric
-4.6181	pool
-4.392928	covering
-4.095707	original
-4.8315396	Penney
-5.639908	JCP
-5.639908	Master
-4.171603	Credit
-5.639908	Card
-4.5071063	stated
-4.2636323	benchmark
-4.738814	Suisse
-5.770891	Keio
-5.770891	Teito
-5.375238	Railway
-4.5071063	indicating
-3.7372544	via
-4.1792088	Each
-4.392928	carries
-4.5590672	warrant
-4.7983823	exercisable
-4.020345	premium
-5.770891	Diesel
-5.770891	Kiki
-4.7983823	Yamaichi
-5.770891	Chugoku
-3.9561472	fees
-4.541047	Fees
-5.1122317	Monte
-5.770891	dei
-5.770891	Paschi
-5.5163684	di
-5.639908	Siena
-4.3454223	branch
-4.5590672	Italian
-5.375238	Debenture
-4.4462757	Daiwa
-5.770891	Okobank
-4.7675776	Finland
-5.5163684	IBJ
-5.268895	EG
-5.770891	Laboratorium
-4.997343	Prof
-5.5163684	Berthold
-4.418783	scientific
-5.639908	Wellesley
-4.738814	Deutsche
-3.8400245	marks
-5.770891	Wildbad
-5.770891	Kucharski
-4.6397066	technologies
-4.2636323	Community
-5.268895	assure
-4.368526	presence
-5.770891	bio
-5.5163684	analytical
-5.5163684	physics
-4.7983823	Mason
-5.5163684	Transgenic
-4.5071063	Sciences
-5.639908	Worcester
-5.770891	toxicology
-4.711838	serves
-4.9495926	Institutes
-4.1354537	Health
-4.2110367	combined
-4.1354537	profitable
-5.770891	Sherblom
-4.7675776	Internal
-3.7372544	Revenue
-4.475627	Tax
-4.2278705	decide
-4.9495926	Herbert
-4.418783	Hunt
-5.050999	owe
-5.050999	liquidated
-3.9846034	IRS
-4.4462757	broke
-5.5163684	tycoon
-3.9125085	bankruptcy
-5.268895	removes
-4.906576	stripped
-4.392928	heard
-3.8805032	taxes
-4.6864395	Minpeco
-4.711838	creditor
-5.268895	Peruvian
-5.1122317	minerals
-4.1495547	claim
-4.4056635	turning
-4.7675776	Harold
-4.997343	Abramson
-4.31292	attorneys
-5.5163684	Regarding
-5.375238	liquidating
-3.9125085	creditors
-4.6181	odds
-4.7983823	demanded
-5.639908	Grover
-5.5163684	Hartt
-5.639908	pottery
-5.375238	condominium
-4.164129	settled
-5.639908	dice
-5.770891	McCartin
-4.1869497	client
-4.997343	welcomed
-4.997343	gamble
-4.2636323	safe
-5.639908	outlet
-5.639908	pooled
-4.662445	packaged
-4.1567802	flow
-5.375238	snap
-4.9495926	courses
-5.639908	shunned
-4.997343	burned
-5.770891	tsunami
-5.5163684	tidal
-4.4462757	wave
-5.5163684	headway
-4.3805556	Maxwell
-4.8315396	visits
-4.418783	explain
-5.183537	drum
-5.639908	Evidence
-5.770891	abounds
-4.1948314	Earlier
-5.1122317	Blackstone
-4.2544117	buyer
-5.639908	seminar
-4.662445	prospective
-4.8315396	channel
-5.050999	tens
-5.770891	Kinji
-5.639908	Kato
-4.2925286	investing
-5.268895	Ultimately
-4.491081	institution
-4.541047	authorized
-4.108556	act
-4.662445	seller
-4.083227	considering
-5.050999	faith
-4.541047	assumed
-4.997343	denominated
-4.6397066	liquid
-4.711838	federally
-4.906576	exceeds
-4.6181	residential
-4.711838	dipped
-3.9166803	Since
-4.997343	prepaid
-4.7983823	issuers
-5.639908	headache
-5.183537	reinvest
-4.3026047	understand
-5.268895	prepayment
-5.770891	Compounding
-4.738814	homeowners
-4.089422	institutional
-5.183537	semiannual
-5.183537	posed
-5.268895	steered
-4.071096	Investment
-5.770891	Conduits
-4.3454223	obligation
-4.171603	effects
-4.906576	certificate
-4.2826815	guarantees
-4.065155	Georgia
-4.31292	Nekoosa
-5.5163684	uninvited
-4.5071063	takeovers
-4.738814	alive
-5.268895	premature
-5.050999	demise
-5.5163684	Therefore
-4.4607034	poison
-4.7983823	pills
-5.183537	rage
-5.770891	boardrooms
-5.268895	halls
-5.5163684	academia
-5.1122317	colors
-5.5163684	shapes
-5.050999	acquires
-4.6181	specified
-4.997343	redeemed
-4.8674393	nominal
-5.375238	Supporters
-4.9495926	adoption
-4.5590672	bidders
-5.1122317	Recent
-4.2826815	studies
-5.639908	Georgeson
-4.906576	conclude
-4.475627	experienced
-4.0257	greater
-4.9495926	Critics
-4.906576	harm
-4.7675776	letting
-4.7983823	defeat
-5.5163684	deterring
-4.597518	academic
-4.711838	reduces
-4.738814	periods
-4.738814	evaluate
-4.1869497	regular
-4.8674393	issuing
-4.491081	pill
-5.1122317	Does
-4.8315396	viable
-3.802999	strategy
-4.711838	improving
-5.770891	implementation
-4.334316	extended
-4.1217966	particular
-4.236539	significantly
-4.711838	chances
-5.183537	affirmative
-5.375238	favorably
-5.5163684	disposed
-4.9495926	forever
-5.268895	CEO
-4.6397066	depending
-5.770891	composition
-4.3568206	nature
-4.2193723	strategic
-4.662445	eliminated
-4.523745	rare
-4.906576	Pennzoil
-4.273052	litigation
-4.5590672	Texaco
-4.6397066	covers
-4.997343	prudent
-4.906576	manner
-4.997343	Intergroup
-4.6864395	diversified
-4.6397066	Wisconsin
-5.770891	receptivity
-4.236539	Council
-4.7983823	informal
-4.059294	survey
-4.1285715	More
-4.392928	widespread
-4.8674393	context
-4.491081	concrete
-4.523745	analysis
-5.770891	fruitful
-4.7983823	dialogue
-5.5163684	abstract
-5.770891	Pozen
-4.541047	Fidelity
-4.9495926	Enfield
-4.059294	win
-4.334316	lawsuits
-4.997343	Ontario
-5.770891	unjust
-4.9495926	dismissal
-5.050999	libel
-3.7779255	Canadian
-5.050999	Hees
-5.375238	Holders
-5.375238	nominees
-5.770891	disallowed
-5.770891	proxies
-5.5163684	overturned
-4.171603	actions
-4.7675776	amounted
-4.392928	seeks
-5.770891	Manfred
-4.9495926	Walt
-5.639908	Willard
-5.770891	Heureux
-5.1122317	severance
-4.2826815	equivalent
-4.4462757	merchant
-5.1122317	financiers
-5.050999	Bronfman
-4.7675776	Buying
-5.639908	alley
-4.7675776	entering
-5.183537	similarly
-4.089422	conservative
-5.183537	tony
-3.7997847	property
-5.5163684	uncharacteristically
-5.770891	nervy
-4.418783	cautious
-4.0098295	giant
-5.268895	beloved
-5.268895	tensions
-5.770891	affinities
-5.639908	dismissing
-5.375238	backlash
-4.1020837	negative
-4.7983823	reactions
-5.770891	Pettit
-4.541047	businessmen
-4.711838	prominent
-4.1354537	sort
-4.7675776	avoided
-5.375238	criticize
-4.906576	heels
-4.31292	controversial
-5.639908	Officially
-4.7983823	yes
-4.4056635	encourage
-4.0311217	direct
-4.2925286	Ministry
-4.577867	choose
-4.662445	repeatedly
-4.3568206	urged
-5.375238	refrain
-5.183537	flashy
-4.095707	mid
-5.375238	Dai
-5.5163684	Ichi
-5.770891	Seimei
-5.770891	rd
-4.071096	Manhattan
-4.997343	Mitsui
-5.770891	Fudosan
-4.171603	Exxon
-4.7675776	Building
-5.268895	Arco
-5.050999	Plaza
-5.770891	Shuwa
-4.1495547	Life
-4.3454223	Atlanta
-3.6924975	IBM
-4.738814	Tower
-5.5163684	Altogether
-4.142447	grew
-4.906576	warnings
-4.1285715	sought
-4.577867	partnerships
-5.183537	landmark
-5.770891	irritated
-3.872857	Business
-5.639908	Secondly
-5.268895	similarity
-5.639908	philosophies
-4.738814	intend
-4.906576	cooperate
-4.9495926	interfere
-3.7428365	place
-4.6181	rely
-5.770891	Jotaro
-5.770891	Takagi
-4.3805556	match
-4.108556	holdings
-4.3234863	square
-5.268895	meters
-5.5163684	incredibly
-5.5163684	Marunouchi
-5.770891	jokingly
-5.639908	Village
-4.164129	portion
-5.639908	samurai
